bm 2.38130 1.12521 0.95001 1.04385 0.14293 0.35933 -0.1099 -1.1263 1.41900 0.08632 0.47859 -1.4116 -1.2975 -0.8164 -0.1884
汉 10.8886 0.21157 -0.8119 -2.0973 -1.3282 0.37107 -0.1869 -0.3061 0.79321 0.71985 0.36265 0.27209 -0.5405 0.44036 0.59706
精神 2.34911 1.26653 -0.6903 0.33290 0.27458 0.39655 -0.8141 -0.4098 -1.2350 0.33382 0.86245 0.17519 0.33063 -0.1044 -0.2048
文章 2.49832 1.12604 0.16126 0.66109 -0.2883 -0.0888 -1.3868 1.06344 -0.8949 0.62337 -0.0233 0.12927 0.47523 -0.3272 0.42398
基地 1.91150 1.12384 -1.0470 0.10607 0.26938 0.93815 0.32112 -0.3467 0.55427 -0.6163 0.26445 -0.3947 0.02406 -1.2495 -0.8570
项目 2.63805 -1.1124 0.49065 -0.2522 0.41116 0.12340 0.57699 -0.2207 0.20811 -0.5487 0.10072 0.27038 -0.0616 -1.0386 -0.3327
志愿 2.77257 -0.5821 -0.1246 -0.4014 -1.0326 0.00544 0.30734 0.00236 -0.5026 -0.9013 0.64236 -0.1479 -0.0823 -0.5571 -0.6133
程序 2.49205 1.26004 1.10770 0.52881 0.98899 -0.1553 0.06930 0.71906 -0.4024 -0.8804 0.36798 0.73980 -0.5979 0.41622 -0.7233
费用 2.40150 -0.5866 0.79742 -0.4156 -0.1182 -0.8543 0.96367 -0.1383 -0.3857 -0.7064 0.57656 -0.1638 -0.5665 -0.1058 -0.4474
考生 2.43658 0.79735 -0.7428 1.18486 0.06626 -1.7230 0.16980 -0.5587 -1.0193 -1.1125 -0.4835 0.29969 0.59108 0.34968 -0.0987
标准 2.89854 -0.4950 1.48955 -0.7269 0.76904 -0.3077 0.19626 -0.3092 0.06485 -0.1321 -0.8166 0.03394 -0.3582 0.25640 0.04547
edu -0.3769 -0.9934 1.91946 5.08937 -1.0832 1.14841 -0.1256 -0.4844 0.66067 -0.3605 0.60262 -1.2343 -0.5510 -0.7537 0.24033
http -2.7164 1.43799 6.27598 5.44541 -2.0193 -1.4728 3.16790 -1.6519 1.60949 3.72232 1.80687 3.23411 1.39051 0.31027 0.37923
省部级 -9.3355 -0.0606 -0.1589 -0.2119 0.26821 0.32873 0.46241 -0.5333 0.31372 -0.0451 -0.8058 -0.0912 -0.1383 0.18664 0.11018
人数 2.31802 -0.4437 0.28701 -0.7541 -0.9320 -0.9313 1.19915 -0.9196 -0.5732 -0.1468 -0.1099 0.45100 0.53330 -0.1012 0.09716
科研 2.62194 -0.4432 -1.4573 0.93243 1.28594 0.40556 0.02060 0.12480 -0.1952 -0.5034 0.39439 0.41514 0.09683 -0.9674 0.01532
经济学 -9.7509 -1.3016 -0.7281 -0.9328 0.27604 -0.2060 -0.7676 0.43278 0.67966 0.53862 0.13245 0.63348 0.20220 -0.1601 0.22450
点击数 -9.4635 -0.6827 1.22464 -1.7786 -0.1621 -0.6944 -0.0631 -0.5051 0.46323 0.14362 -0.5233 -0.1329 -0.2954 -0.1963 0.26791
格式 2.37514 1.57868 1.96473 1.17234 0.44293 -0.4799 -0.7450 0.60408 -0.0405 -0.2929 -1.2385 0.52092 0.22208 0.00734 -0.3423
科学 2.64620 -1.4440 -0.7557 -0.0296 0.83754 0.41001 -0.9556 0.88236 0.33392 0.42493 0.28959 0.08702 -0.0764 -0.2141 0.18700
网络 2.38836 -0.5456 1.49613 -0.2538 0.25127 0.34319 -0.3818 0.37534 0.64549 -0.7986 0.68576 0.27952 1.06788 -0.1857 0.34671
机制 2.60539 -0.6807 1.71904 -0.5108 1.10784 0.35906 -0.0029 -0.0636 -0.4540 -0.1999 0.48708 0.33907 -0.4395 0.30953 -0.2508
日期 2.30778 1.94231 0.68981 0.19026 -1.1103 -0.1991 0.39122 0.51243 -0.5412 -0.1609 -1.9088 -0.0521 -0.3020 -0.2146 -1.4038
官网 -9.7187 1.17936 -0.1229 -0.9822 -0.2376 0.45941 -0.0157 0.11419 -0.3284 -0.3708 0.24362 0.80779 0.64257 0.39560 0.17035
时间 2.22926 -0.3771 1.01050 -1.1962 -0.4266 -0.1734 0.33280 -0.3567 -0.0200 0.19440 -0.6139 -0.2948 0.06982 0.15134 -0.9085
家 10.3174 1.64651 -1.8373 -0.9568 -0.3914 0.27973 -0.6225 0.27065 0.60793 0.67488 1.32880 -0.6703 0.30850 -0.4674 0.23572
人才 2.40151 0.41614 -1.4593 0.83796 0.70020 0.24700 -0.2550 -0.5206 -0.9240 -0.4856 0.81114 0.68723 0.42446 -0.6249 -0.2315
在校生 -1.3979 -0.9168 -1.5277 2.37080 -0.2041 -0.8477 0.88078 -0.7466 -0.3316 -0.9757 -0.1464 0.07062 0.93276 0.12889 -0.2192
刊物 2.40886 0.93091 -0.6534 0.95542 -0.0919 0.03757 -1.1641 1.20287 -0.5252 0.01053 -0.0818 0.15092 0.44269 -0.9807 0.19232
营员 -10.203 -1.2940 0.22545 -2.5644 -1.0831 -0.7487 0.42754 0.04517 0.78788 -0.4388 1.45865 0.61885 -0.1579 -0.2114 -1.1607
重点 2.80100 -1.6257 -0.3040 0.10461 0.52229 1.54199 0.74279 -0.4896 -0.4306 -0.1078 -1.0246 0.08904 0.68301 0.09334 -0.0572
成果 2.36088 0.81453 -0.6852 0.55444 0.86353 0.23870 -0.5289 0.15554 -1.2530 0.38660 -0.0373 -0.0183 -0.4034 -1.0161 -0.1080
政策 2.53222 1.34388 -0.6373 0.06492 0.54608 0.20822 0.17665 0.59572 -1.2744 -0.0846 0.55515 0.82768 -0.2899 -0.4725 -0.2306
原件 2.24051 1.64254 0.60085 0.39676 -0.1269 0.33509 -0.3537 1.12924 -0.1355 0.02157 -0.4689 -0.3153 -0.9222 0.34370 -0.3505
全文 2.23967 1.31883 0.70686 1.00971 -0.5354 -0.1336 -0.8850 1.18366 -0.6791 0.27124 -0.9593 0.51843 0.18877 0.28854 0.88677
世界 1.85619 1.31117 -0.6341 0.07587 0.02325 0.28979 -0.0402 -0.2918 0.01833 0.31628 -0.0485 -0.2146 0.39717 -1.0949 0.53845
教务 -9.5521 -0.8705 -1.3437 -1.2356 -0.4353 -0.2874 -0.0124 0.88919 -0.0471 -0.2501 0.21623 1.27744 0.11015 -0.0914 -0.4259
武汉市 -9.0427 0.60792 -0.7648 -0.2383 -0.3219 1.77125 0.37759 -0.3603 0.15719 -0.8586 -0.6123 0.89282 0.72310 0.81201 0.48344
照片 2.46574 2.33901 0.29980 0.90118 -0.6732 -1.1357 -0.7497 0.81281 -0.0271 0.37062 -1.1378 -2.3714 1.06194 1.55249 -1.4878
成绩单 -9.7280 -0.0371 0.51956 -0.9894 0.07551 -0.8146 0.09552 -0.3030 -0.0191 0.05505 -0.3054 0.06395 0.06498 -0.3372 0.19692
倾向 2.71782 -0.4571 0.84434 -0.7918 0.22655 0.13858 -0.6200 -0.0013 -0.6443 0.71523 0.49727 -0.3769 0.05373 0.60827 0.32681
交通费 -9.3450 0.51432 0.03929 -0.1234 -0.0172 -0.2758 0.71957 0.14509 0.31372 -0.9335 0.18340 0.59112 -0.2615 -0.1257 0.06188
本科 2.56787 -0.8429 -2.3314 1.85169 0.58642 -1.1458 0.83033 0.04013 0.65780 0.17179 -0.7111 0.55136 0.27913 0.44199 -0.0691
段 11.1925 2.43514 -0.9549 -1.4332 -0.4360 0.08769 0.34850 -0.4575 1.40731 0.40375 -0.5582 0.11471 0.38312 0.12983 -0.1718
结构 2.96866 -0.7525 1.22360 -0.5038 1.21101 0.70737 -0.5344 -0.7295 0.56395 0.49398 -0.4722 -0.2415 -0.5349 0.54659 -0.0567
身份证 -9.3462 0.73639 0.36124 -0.5471 -0.4712 -0.4971 -0.1591 0.25876 -0.2357 -0.0427 0.42526 -0.0407 -0.4167 0.24052 -0.2584
比例 2.44254 1.75759 0.19196 0.13050 1.00154 -0.6852 0.58581 -1.0665 -0.2852 0.39698 -0.7211 -0.2444 -0.5132 0.37958 0.22349
网址 2.64816 -0.8138 2.41907 1.13180 -1.1403 -0.2478 -0.6795 1.09195 0.53448 -0.5909 -0.6950 -0.1867 0.77247 -0.2896 0.52997
校史 2.61221 0.70903 -1.2790 1.10831 -1.0516 0.01824 -0.8356 0.34040 -0.0948 -0.0539 -1.3351 0.87079 0.89518 -0.1532 0.39025
研究生 -1.4026 -0.8603 -2.1517 2.16914 0.22245 -0.4752 0.28202 0.28299 0.18051 0.11632 -0.2017 -0.0793 -0.5072 0.27152 -0.3696
专业 2.73174 -2.1641 -0.7935 0.43606 0.97086 -0.2895 0.21970 0.24948 0.50435 0.26773 0.09445 0.06901 0.46754 0.39820 0.07960
湖北省 -0.8299 -0.1352 -0.9923 1.02028 -0.7075 2.56445 0.81169 -0.7860 -0.5273 -0.5233 -0.9437 0.16802 -0.0999 1.47661 0.51948
学业 2.51986 -1.8876 -1.0139 0.17039 -0.3345 -1.4231 0.25296 -0.2464 -0.3410 0.23871 0.33682 -0.0632 -0.0643 0.10333 -0.4361
讲座 2.91992 -1.6724 -0.7332 0.40423 -0.3523 -0.1169 -0.9547 0.95518 0.01745 0.33823 0.37156 -0.1638 0.08309 -0.4759 -0.0754
单位 2.48536 -1.1138 0.59697 0.17325 0.24378 1.39333 1.14476 -0.6560 -0.3980 -0.1927 -1.2992 -0.4242 -0.5541 0.48022 -0.6132
地点 2.17418 -0.0541 0.44029 -1.1586 -1.0170 0.58955 0.46898 -0.0378 0.32868 -0.1185 -0.6195 -0.1280 0.31488 -0.3368 -1.0904
部门 2.30618 -1.0631 0.30413 -0.6130 0.07864 0.67178 0.80344 0.67409 -0.0950 -0.5063 0.37721 0.09394 -0.2627 -0.1576 -0.5921
直博生 -9.5079 1.03578 -0.8653 0.21001 -0.1753 0.42975 -0.3678 -0.3233 0.51670 0.08746 0.02145 -0.4288 0.09105 -0.0764 -0.1254
人身 2.65183 1.32909 0.38538 0.26879 -0.3069 0.18865 -0.1233 0.49512 -1.3724 0.04699 0.90503 -0.0195 0.01704 1.35179 -0.0772
电子 2.37135 -0.7049 1.07091 -0.0095 0.76415 0.34029 -0.5705 0.42108 1.17925 -0.7960 0.08062 -0.4956 0.05460 -0.4143 0.57833
票 11.0223 2.83992 -0.5675 -0.9615 -1.1033 -1.8068 0.84700 0.53019 -0.0109 -0.8024 0.41329 0.37551 -0.7871 0.14905 2.71297
地址 2.45799 1.48784 0.87145 0.53589 -0.9943 0.04286 -0.2745 0.54133 0.93335 -1.4601 -0.8156 0.43034 0.39125 -0.0341 -0.2762
老师 2.81482 -1.1373 -0.6650 -0.2376 -1.1814 -0.7837 -0.8070 -0.1977 -0.4284 0.29183 0.62808 -0.5298 0.44974 0.48627 -0.2528
出版物 -1.6398 0.62390 0.58018 1.04971 -0.0665 -0.0214 -1.0135 1.32360 -0.5072 0.04353 -0.5547 0.26033 0.17476 -0.5499 0.37417
汽车票 -9.7042 0.86983 0.79493 -1.0297 -0.0293 -0.8312 0.63308 0.05714 1.00770 -1.2660 0.28389 -0.0644 -0.5537 0.13610 0.69487
武汉大学 -8.8893 -1.5971 -1.0478 0.57192 -0.3668 1.03489 -0.2015 0.25897 0.51155 -0.0226 -0.7063 0.74788 0.12843 1.05199 0.37703
学生证 -9.1913 -1.2916 -0.0276 -0.3856 -0.1323 -0.7302 -0.4498 0.33092 -0.3110 0.07741 0.04747 0.33558 0.20899 0.37128 -0.0097
个人 2.07571 -0.6535 0.94249 -0.6819 -0.4296 -0.1839 -0.1541 0.10366 -0.6076 0.03233 0.46690 -0.5854 0.71539 0.20347 0.36458
食宿 3.25477 1.18973 -0.6086 0.70324 -0.2381 -0.6277 0.93949 -0.3632 -0.9420 -0.9734 1.20233 0.20310 -0.1818 -0.0513 -0.8245
夏令营 -9.5121 0.40496 -0.1152 -0.3531 -0.6455 -0.1159 0.35878 -0.2057 0.18940 -0.3348 -0.0798 -0.0239 -0.0129 -0.3762 -0.4619
八一路 -9.4488 1.17211 -0.5607 0.10355 -0.4474 1.11281 0.08986 -0.7504 -0.0386 -0.2662 -0.4560 -0.2605 0.07324 0.04129 0.02738
技能 2.69093 1.20513 -0.4753 0.65329 1.48299 -0.6571 0.05662 -1.0004 -0.8092 -0.3764 0.70934 -0.0904 0.22360 0.24446 -0.8046
等级分 -9.7534 0.65451 0.23235 -0.8100 0.75081 -0.5797 0.20006 -0.6326 0.27377 0.40050 -0.6509 -0.0077 -0.4700 0.08535 0.03295
吴黎兵 -9.3879 0.59736 -0.6351 -0.7168 -0.7330 0.78893 0.00953 -0.3878 -0.0762 0.16581 0.40443 0.30932 -0.0191 0.22374 0.28226
生源 -10.071 1.75755 -0.4513 -0.5645 0.93450 -0.0058 -0.5374 -0.0931 0.27866 0.23727 -0.2490 0.43461 0.27647 -0.0488 -0.2477
院 11.0010 1.47541 -2.6343 -0.3151 -0.6629 0.04986 0.64099 1.01774 0.98663 -0.0686 0.17946 0.61257 -0.6579 -0.1471 0.27074
素质 2.91898 -1.3284 -0.1360 -0.1980 0.80512 -0.2253 -0.0057 -1.1337 -1.5362 -0.1229 0.60571 0.01805 1.16797 0.06677 0.20383
工程 2.49882 0.68050 -1.2377 0.66417 1.00837 0.77705 0.47609 0.26953 0.66724 -0.5680 -0.0251 0.35384 -0.9530 -0.3008 0.02530
纸质 -9.1362 -0.4811 1.52184 -1.6147 0.86699 -0.6828 -0.7432 0.14996 0.39146 -0.1347 -0.4979 -0.4517 -0.2189 0.02396 0.14818
说明 2.56024 -0.0504 1.49187 -0.5761 -0.2696 0.05454 -0.4147 0.46683 -0.5233 0.79779 -0.4182 -0.3178 -0.0568 0.60776 0.02930
校园 2.55644 -1.0770 -0.7645 -0.0972 -0.6743 0.16492 -0.0436 -0.3273 1.08705 -0.7545 -0.3632 0.11095 1.32814 -0.4400 0.17411
专题 2.60151 -0.7336 0.71501 -0.1976 -0.2917 0.76824 -0.5815 0.84028 -0.4652 0.29412 -0.9054 0.17001 0.91865 -0.8808 -0.2481
成绩 2.07611 -1.0854 0.11300 -0.0847 -0.4847 -1.6504 1.01546 -1.2335 -0.6351 0.19330 -0.8379 -0.1285 0.18442 -0.6009 0.92302
章 11.3152 2.20776 -1.3990 -0.9710 -1.1874 -0.2125 -0.2417 -0.0103 0.28780 0.85736 0.36803 0.56714 -0.5936 0.03127 0.31863
李宗鹏 -9.2397 0.49277 -0.1278 -0.0187 -0.8641 1.31663 0.10389 -0.2340 -0.2598 0.40372 0.37912 0.11627 -0.2169 0.06182 0.28714
报告 2.98631 -0.9720 0.97667 -0.4571 -0.4833 0.71139 0.56975 1.25296 -1.0170 0.42270 0.02134 0.06234 -0.3442 -0.0160 0.32429
科目 2.70683 0.45350 -1.4144 1.16123 1.11254 -1.6937 -0.0111 -0.2770 -0.8056 -0.1659 -0.7986 0.47880 -0.0897 0.03257 -0.6839
年级 2.27186 -1.3104 -1.2871 0.17521 -0.6530 -1.4089 0.07018 -1.1087 0.03368 -0.6950 -0.6727 -0.5373 0.49713 0.16570 -0.7405
质量 2.90767 -0.6193 1.07775 -0.5321 1.22645 -0.1476 0.18203 -0.5841 -0.2274 0.19434 -0.6553 -0.1098 -0.0471 -0.0565 0.34663
智能 2.45877 1.35487 -0.0563 0.75753 1.73966 -0.0833 -0.7991 -0.7908 0.82878 -2.2118 3.35858 -1.6639 1.51390 2.89057 1.08995
计划 2.81401 -0.6705 0.28421 -0.8245 -0.0813 0.56412 0.60148 -0.0837 -0.1440 -0.2439 0.22514 0.37062 -0.4914 -0.9134 -0.6305
珞珈 -9.3067 1.21854 -0.8691 -0.3127 -0.2922 -0.0219 -0.4409 -0.4467 0.85138 0.28763 0.46913 0.21288 0.25147 -0.1315 -0.3440
笔试 2.95835 -1.7435 0.38458 0.23461 -0.3425 -2.0692 0.40946 -0.4914 -0.6918 -0.7388 -0.8614 -0.3111 -0.3109 0.35369 0.16232
封面 2.42423 1.72315 0.33640 0.78926 -0.8374 -0.5425 -1.1602 0.75661 -0.2288 0.37718 -0.7393 -1.1376 0.41330 -0.4553 0.20581
整体 2.56382 -0.6508 0.61588 -0.8897 0.93764 0.67107 0.19216 -0.7505 0.22980 0.20076 -0.6140 -0.1491 0.19041 0.23690 0.26048
仪式 2.65222 -0.3292 0.12196 -0.7314 -1.2215 0.29739 0.46283 -0.1084 -0.3142 0.00190 0.11389 -0.2931 -0.3139 0.51388 -1.0213
方式 1.98353 1.84738 0.54604 0.15822 0.83245 -0.0213 -0.1103 -0.3156 -0.4732 -0.3289 0.08931 0.08165 -0.2016 0.27496 -0.6588
张三 2.79640 0.06877 0.30377 -0.7526 -1.1887 0.99362 -0.8198 -0.5251 -0.5133 0.67690 0.16157 -0.6581 0.72271 1.42553 0.48848
奖金 2.48754 -0.9666 0.26921 -0.3769 -0.8417 -1.3924 0.65730 -0.0972 -0.8614 -0.1779 -0.0104 -0.8475 -1.0572 -1.1413 1.31537
部分 1.89698 1.68399 -0.1124 -0.0746 0.28654 0.30955 0.07114 -0.2860 0.32502 0.19031 -0.4947 -0.2000 0.01945 -0.1462 -0.4742
姓名 2.64165 1.65988 0.05228 0.47795 -1.5445 -0.5974 -0.7089 0.26171 -0.6312 0.18976 -0.3107 -0.2183 -0.4851 0.90520 -0.1272
学子 2.71843 -1.4040 -1.1183 0.25072 -0.6213 -0.3700 -0.2147 -0.6662 -0.5999 -0.2685 0.12863 -0.0773 1.05423 -0.1870 0.43997
硕士 2.78137 -2.8250 -1.8775 2.04621 0.48495 -0.7721 0.38140 0.62829 0.66668 0.90540 0.25020 -0.2755 -1.0614 0.79096 0.02899
论文 2.49539 -1.4156 0.07570 0.36407 0.19617 -0.4159 -1.3363 0.96581 -0.5060 1.23198 -0.0432 -0.1446 -0.5025 -0.1732 0.57928
毕业生 -9.4672 -0.4138 -0.9311 0.00122 -0.0823 -0.4955 -0.2953 0.01469 0.21916 0.63628 0.36434 -0.4483 0.14778 0.05883 -0.1475
系 10.6398 1.25746 -2.3738 0.10588 0.68182 -0.3640 -0.5182 -0.0663 2.17512 1.47636 0.06339 0.59784 -0.5768 0.16620 -0.4776
背景 2.26659 1.72896 -0.1798 0.10571 0.09584 0.18284 -0.9205 -0.2798 -0.0579 0.45100 -0.1027 0.08377 0.12805 -0.2449 -0.5016
微观 3.07029 -0.8844 0.72848 0.20898 1.59201 0.23738 -1.0778 -0.2299 -0.1098 0.73100 0.06421 0.11770 -0.2940 0.32362 0.44108
对象 2.69774 -0.6647 1.25969 -0.4701 0.43279 0.24744 -0.4854 -0.1752 -0.2252 -0.1974 0.29391 0.25635 0.13555 0.42759 -0.8302
资格 2.51228 -1.0288 0.32593 -0.1428 -0.9948 -1.3484 0.79917 -0.1831 -1.1425 -0.0340 0.13517 -0.1881 -0.6678 0.13427 0.10939
意见 2.68309 -0.5762 0.74378 -0.7585 -0.4768 -0.1503 0.08422 1.03747 -1.5930 0.17725 0.20835 0.29896 -0.3594 0.52818 0.61727
国 10.5588 0.47218 -0.7778 -2.0578 -1.4435 0.48744 0.58893 0.29018 0.49265 0.56667 0.42018 0.30852 0.01828 -0.3157 0.20579
小组 3.36356 -2.0871 0.48681 1.02343 -0.5929 2.73632 1.89993 -0.3804 -1.7365 0.33547 0.52340 -0.1428 0.29509 -1.1913 -0.9041
电话 2.49427 -0.2181 1.47615 -0.6568 -0.7635 -0.1017 0.15062 0.66809 0.60475 -1.5600 0.59218 -0.1765 0.02543 0.54007 0.12550
会议 2.19711 -0.9370 -0.0076 -0.5765 -0.9321 0.90695 0.73738 0.76115 -0.7149 0.07499 0.14845 0.42107 -0.4978 -0.2651 0.12306
高校 2.19094 -0.0819 -2.2845 1.09307 -0.1105 -0.3595 -0.0512 -0.5377 0.61314 -1.0189 -0.4535 0.20131 0.91242 -0.6526 0.15419
刘树波 -9.3011 -0.0276 0.38621 -1.2302 -0.5650 0.56526 -0.2828 -0.2006 -0.2243 0.43150 0.04139 -0.1019 0.12106 0.56822 0.31590
特等奖 -9.8221 0.25191 -0.5004 -0.4665 -0.1613 -0.6430 -0.0854 -0.1858 0.23500 -0.1651 -0.2461 -0.3829 -0.5369 -0.8269 0.45107
新生 2.05647 1.21172 -1.2753 0.64219 -0.3700 -0.1259 -0.2441 -0.6417 -0.1231 -0.3471 -0.0599 -0.6701 0.37827 -0.4285 -0.5429
whu -1.2814 -1.2898 0.32818 2.16473 -0.5518 0.15825 -0.0942 -0.3075 0.41481 -0.4506 0.06791 -0.3152 -0.5931 -0.6880 0.62079
阶段 2.59476 -0.7861 0.34414 -0.9521 0.45345 0.01366 0.64602 -0.8007 -0.2290 0.39028 -0.2436 0.20107 -0.1101 -0.2283 -0.5365
邮箱 2.90563 -0.6266 1.94029 0.57991 -0.9375 -0.3057 -0.8084 1.09866 0.19747 -2.0549 0.20181 -0.7811 0.41094 0.48323 0.63471
博士 2.11878 0.04156 -1.9225 1.51279 -0.0212 -0.2471 -0.6194 0.38282 0.18296 0.92876 0.84563 -0.2007 -1.1395 0.25770 -0.1044
学术 2.82261 -1.7637 -0.4935 0.17325 0.09954 0.06258 -1.1326 0.60688 -0.5542 0.49328 0.13987 0.40195 0.52047 -0.3026 0.73265
热点 2.59552 -0.9181 1.00720 -0.4092 0.31451 0.56624 -0.4102 0.25811 -0.0086 0.21804 0.18277 0.15480 1.11466 -0.6553 0.40380
网站 2.12471 -0.7513 1.65299 0.12584 -0.7791 -0.2073 -0.2755 1.00867 0.58612 -0.4239 0.21988 -0.0010 1.26400 -0.6212 0.46574
系统 2.54285 -0.3691 1.47534 -0.2067 1.19430 0.56271 0.20519 0.08953 0.93387 -0.3235 0.38340 0.34304 -0.2509 0.26282 -0.4748
底蕴 -9.2653 1.01037 0.03536 -0.6755 0.97925 0.43474 -0.1977 -0.9715 0.20670 0.55128 -0.4333 -0.1074 -0.0700 0.32337 0.01893
目录 2.41768 -0.5162 1.71336 0.13779 -0.3207 0.01406 -0.7634 1.15316 0.45357 0.30511 -1.0219 0.18699 -0.0174 -0.3970 -0.2982
方案 2.18602 2.08584 -0.1397 -0.3269 2.23404 0.58794 1.05726 0.19887 -1.4118 -1.1409 0.02144 1.73036 -1.6028 0.00152 2.59612
大字 2.64101 1.47042 -0.4137 1.25899 -1.2390 1.24188 -0.2063 -0.1922 -0.5389 0.21319 -1.5309 -1.3640 0.72614 0.55204 0.58246
大学生 -1.8123 -1.5609 -0.4417 0.51212 -0.8011 0.00359 0.19914 -0.8079 -0.6176 -0.7001 0.44188 -0.4127 0.74203 -0.4731 0.34070
经济与管理学院 -8.9707 -0.9297 -0.3827 0.55857 -0.0305 0.23793 -0.0335 0.25118 0.49411 0.18600 2.53629 0.06038 -0.1890 0.10152 0.00407
组 10.3137 -0.4150 -0.0737 -1.9853 -0.0957 0.22209 0.26554 -0.1634 1.28681 -0.3432 0.26227 -0.0575 -0.6403 -0.5389 -0.3538
中国 1.64771 -0.5752 -0.3454 -0.5264 -0.4045 1.40839 0.31634 0.03443 0.21045 0.21706 -0.2161 -0.2000 0.51858 0.33836 0.59648
内容 2.59464 0.12565 1.19290 -0.1918 -0.1643 -0.1726 -0.5704 0.81720 -0.6475 0.38356 -0.5250 0.41533 0.77766 0.23599 0.01267
联系人 -9.5817 -0.1277 0.54487 -0.6921 0.33809 -0.0455 -0.5431 0.22038 0.14618 0.02946 0.55052 0.30714 -0.0933 -0.1641 -0.1365
本科生 -9.5527 0.29185 -1.3007 0.65705 0.34788 -0.4165 -0.1051 0.00349 0.31900 0.31741 -0.2652 0.05962 0.33927 -0.0464 -0.0408
动态 2.64176 -0.3897 1.79065 -0.1822 1.17495 0.57942 -0.3101 0.26602 0.35509 0.11865 -0.3311 0.17643 0.36710 0.13348 -0.2645
问题 2.74821 -0.8099 1.10285 -0.9712 0.15254 0.22490 -0.2754 0.57697 -0.8131 0.27683 0.15741 0.27048 -0.3176 0.50986 -0.0840
技术 2.75473 -1.1408 0.45621 -0.2815 1.18064 0.56670 -0.1225 0.06523 0.68070 -0.3432 0.28952 0.34478 0.01385 -0.0015 -0.0555
分数线 -9.5300 -0.5802 0.61942 -1.0805 0.51297 -0.9208 0.22951 -0.6367 0.59273 -0.1770 -1.0678 -0.0492 -0.3344 -0.0646 0.34379
学生 2.27916 -1.4600 -0.9337 -0.0145 -0.7610 -1.0805 -0.0415 -0.3937 -0.2903 -0.6576 0.35208 -0.0371 0.57911 0.11848 -0.2697
奖学金 -1.3182 -1.8132 -0.5577 0.99219 -0.8949 -1.3399 0.28076 -0.0642 -0.5649 0.02331 0.55931 -0.6330 -0.8534 -0.6339 0.17149
办法 2.54897 -0.5882 1.13656 -0.8603 -0.3089 0.09598 0.35850 0.10436 -1.1401 -0.3156 0.12463 0.35454 -0.4030 0.68381 -0.0523
群名片 -9.5227 1.40527 0.19492 0.10369 -0.3331 -0.1623 -0.5265 -0.0705 -0.1078 -0.0807 -0.1634 -0.3462 0.43462 -0.0816 -0.0380
信息 2.65195 0.49097 0.79081 0.40896 0.65423 0.16880 -0.4882 0.99677 0.45582 -0.6310 -0.0518 0.81495 0.15927 0.01526 -0.2677
杜建伟 -9.4295 0.42863 -0.1750 -0.5305 -0.1771 0.68105 -0.1657 -0.1572 0.12786 0.21921 0.12269 0.31403 -0.2364 -0.0397 0.17783
指标 2.68765 -0.7439 1.01735 -0.5618 1.37720 -0.1482 0.64677 -0.6582 -0.5427 0.24353 -0.9461 -0.0751 -0.3538 -0.0026 0.44903
通知 2.39266 1.52554 0.29346 0.41900 -0.7351 0.19012 0.69903 0.89262 -0.9310 -0.8615 0.02398 0.19066 -0.6448 0.20353 -0.6602
全日制 -1.2168 -0.6285 -1.7354 2.73137 0.15271 -0.4948 0.79050 -0.6002 0.18058 -1.4284 -0.5427 0.56526 0.38087 0.98337 0.12204
人员 2.28557 -0.9850 0.27322 -0.7475 -0.4448 0.20268 0.85551 0.09735 -0.4291 -0.5743 0.76197 0.07867 -0.1944 0.16244 -0.9797
理论 2.66819 -1.1541 0.34254 -0.4021 1.28778 0.25378 -1.0835 0.11718 -0.2672 1.00360 0.40310 0.04702 -0.6221 0.25428 0.44852
二等奖 -9.4564 0.02470 -0.2547 -0.1980 -0.0262 -0.6967 0.01557 -0.3092 -0.0469 0.10285 -0.5028 -0.6850 -0.8285 -0.3971 0.79055
证明 2.81788 -0.5755 1.26492 -0.6714 0.02638 -0.2006 -0.6480 0.02642 -0.4838 0.66803 0.28685 -0.5776 -0.5494 0.66355 -0.0795
比重 2.37948 1.23662 -0.0462 0.21243 1.39626 -0.3214 0.80279 -0.8725 -0.3601 0.69133 -0.8762 -0.0551 0.04646 -0.0552 0.64335
工作日 -10.004 0.55314 -0.1175 -0.2707 0.08852 0.09242 0.02535 0.52512 -0.1344 -0.4515 0.28199 0.25595 0.18839 -0.4288 -0.6025
杜博 -9.9055 1.40457 -0.8646 -0.6207 -0.2752 -0.0172 -0.6638 0.14251 0.50974 0.16087 0.51971 0.19849 0.14263 -0.6883 0.20980
类 11.2581 -0.3164 0.30017 -1.5856 1.29981 -0.4106 -0.0859 -0.1378 0.98401 0.55712 -0.2909 -0.2840 0.80035 0.01786 -0.1857
学院 2.88590 -2.1674 -1.9314 1.04860 -0.1181 0.22312 0.29249 0.76634 1.53173 0.57247 -0.0301 0.18690 -0.4061 0.23035 -0.0709
院长 2.94363 -1.7837 -1.5114 0.42968 -0.7072 1.39266 0.61185 0.96134 0.30559 0.71966 0.34958 -0.0881 -1.0119 0.95510 0.00448
大楼 2.33024 -0.6557 0.06581 -0.5135 -1.0369 0.93480 0.16262 0.13553 0.99537 -0.6241 -0.3169 -0.2429 -0.5854 0.02981 0.08513
外语 2.43153 -1.5262 -0.6568 0.24750 -0.1356 -0.7571 -0.6605 -0.0902 0.25799 0.03162 -0.6879 0.51249 0.61728 0.03903 0.34366
学位 2.55338 -2.5174 -1.6608 1.75818 0.10901 -1.0087 0.18728 0.75028 0.44740 1.14518 0.17211 -0.3913 -1.4995 0.68853 0.06345
一等奖 -9.8557 0.06556 -0.2912 -0.3247 -0.3760 -0.5994 0.03654 -0.2637 -0.0035 0.16427 -0.4116 -0.6541 -0.7702 -0.6146 0.66250
数 11.2301 0.17947 0.30719 -2.2748 -0.3708 -0.9376 -0.0837 -0.7895 0.62700 0.26646 -0.2918 -0.1305 -0.0672 -0.1719 0.18444
助学金 -9.5674 -0.2125 -0.7654 0.01886 -0.1189 -1.0633 -0.9213 0.04276 0.45942 0.30376 0.77611 -0.4311 -0.7097 -0.4394 -0.1836
教育部 -0.8327 0.09385 -1.5578 1.98663 0.16577 0.78933 0.27463 0.43201 -0.7702 -1.1151 -0.5207 0.54368 -0.3158 0.07305 0.28439
组长 2.79267 -1.8970 -0.6065 -0.2859 -0.2819 1.98274 0.84601 0.25545 -0.5904 0.15253 0.52663 -0.2664 -0.7012 0.09063 -0.6605
武 10.9787 2.05215 -1.9011 -0.8965 -1.3597 0.39718 -0.0594 -0.9694 0.80020 0.49166 0.71649 0.26418 0.03624 0.64731 0.15601
武汉 2.81470 -1.0077 -0.8626 -0.3639 -0.7595 1.72620 0.43593 -0.4335 0.58581 -0.7832 -0.6897 0.35401 -0.0217 1.15822 0.77597
文件 2.27576 1.37265 1.61062 0.81030 -0.1269 0.18617 -0.1979 1.53749 0.14467 -0.6979 -0.5230 0.88307 -0.3645 -0.0686 -0.7228
火车票 -9.8673 1.04905 0.51928 -1.1850 -0.4780 -0.7092 0.59511 -0.0789 0.90837 -1.0801 0.26648 0.05950 -0.3326 0.05439 0.53259
兴趣 2.53459 -1.0335 0.17666 -0.4399 0.08153 -0.3705 -0.9171 0.17291 -0.8120 0.51990 0.64406 -0.7545 0.40447 -0.1177 -0.4819
管理科学 -9.0815 -0.4218 -0.6916 0.56978 0.69225 0.15605 -0.3854 0.61589 0.20072 0.08886 -0.0727 0.27259 -0.2287 -0.0066 -0.0111
研究生院 -9.0674 -0.1170 -1.5168 1.29060 0.27643 0.18197 0.02980 0.37300 0.33627 0.13575 -0.2266 0.14133 -0.4493 0.01082 -0.2987
模式 2.19536 1.67829 0.56412 0.44630 1.33660 0.22141 0.08238 -0.6780 0.37691 -0.1531 0.10689 0.09366 -0.0059 -0.0278 -0.4272
线 11.1273 0.34671 0.15422 -2.1091 0.11775 0.28012 0.62626 -0.1823 2.31711 -0.7043 -0.6758 0.04561 0.30559 -0.3892 0.48389
条件 2.54036 -0.5102 0.85289 -1.0734 0.66988 -0.5363 0.40096 -0.3474 -0.3912 0.18928 -0.1241 0.15203 -0.6604 0.54478 -0.4211
材料 2.82925 0.92886 0.14550 0.56402 1.27886 0.37417 -0.6235 0.16806 -0.0783 0.14869 -0.1944 -0.1459 -0.7706 0.13965 -0.2531
情况 2.57837 -0.1522 1.22072 -1.0877 0.01022 -0.0188 0.28414 -0.1823 -0.4706 0.25727 -0.1025 0.05039 -0.4425 0.57624 -0.3324
平台 1.93847 1.26037 0.54941 0.67244 1.16303 0.45696 -0.1352 0.13484 0.61960 -1.0681 0.53039 0.08428 0.60748 -0.8891 -0.2767
ems -1.4794 0.60338 1.03566 1.78212 0.34522 0.04618 -0.2076 -0.0263 0.31328 -0.7331 0.81856 -0.3649 -1.0124 -0.6686 -0.7125
基础 2.55501 -0.9040 0.40713 -0.5247 0.90725 0.45294 -0.3091 -0.3274 0.30448 0.48796 0.17901 0.12248 -0.1946 -0.0173 -0.0300
数据 2.55396 -0.5547 2.19913 -0.2804 0.41921 -0.1463 -0.0911 0.32683 0.64977 -0.2193 -0.5648 0.64855 0.30529 -0.1351 -0.1346
带头人 -9.5762 -0.2361 0.04993 -0.8088 -0.3127 0.14119 -0.3935 -0.1795 -0.5026 0.21787 0.61140 -0.1303 0.16972 0.13195 -0.0820
领域 2.68011 -1.2635 0.36891 -0.1183 1.31220 0.20542 -0.5833 0.44596 0.02473 0.70963 0.36799 0.17480 0.00092 -0.1443 0.15616
前列 2.47944 0.88256 -0.8694 0.24073 0.61601 -0.0802 0.84734 -0.9554 0.14691 0.33552 -0.5432 -0.4036 0.55077 -0.8690 0.81058
环境 2.67810 -0.9318 0.66051 -0.5874 1.31311 0.81219 0.02366 -0.0160 0.11448 -0.1286 0.13014 0.38071 0.28696 0.08612 -0.3097
距离 3.00228 -0.2712 0.85222 -1.1543 -0.3224 0.16266 0.61814 -1.1270 1.45069 0.26979 -0.5240 -0.5832 0.16810 0.13824 -0.1574
定向生 -9.5352 1.15338 -0.4120 0.19832 -0.0657 0.47853 -0.1307 -0.6202 0.27627 0.74531 0.12800 -0.5273 -0.3856 -0.0145 -0.2569
学科 2.87320 -2.3185 -1.5754 1.32939 1.59221 0.16001 -0.3310 0.20259 0.06178 0.34769 -0.6213 1.17565 0.29072 0.51938 -0.2286
成员 2.04934 -0.8427 0.26646 -0.7505 -1.0408 0.10033 0.21779 -0.0286 -0.0258 0.23906 0.70216 -0.2659 -0.3730 -0.5605 -0.9188
日程 1.83041 1.20795 -0.0127 -0.0690 -0.3667 0.02116 0.65819 0.40045 -0.6394 -0.5007 -0.2169 0.44773 -0.2110 -0.8354 -0.9652
水平 2.53045 0.95994 -0.2677 0.02682 1.60834 -0.4376 0.15956 -1.1676 -0.3555 0.15920 -0.4165 -0.4116 0.06768 -0.1361 0.23353
证书 3.13360 -1.3552 0.79413 0.34318 -0.3519 -1.4168 0.29831 0.41577 0.00242 -0.6618 -0.0167 -0.4317 -0.8070 0.79858 0.07109
的 8.60822 2.30460 -0.7087 -1.0306 0.14340 0.00717 -0.1797 -0.2177 0.38092 0.27628 0.31241 0.05315 0.24192 -0.5195 -0.4042
英语 2.39189 -0.5743 0.23332 0.24805 -0.2817 -0.8309 -0.8104 -0.1250 0.49185 0.40947 -0.1046 -0.0073 0.28988 -0.2636 -0.1724
学校 2.53819 -1.4922 -1.5976 0.32831 -0.6021 -0.4961 0.25224 -0.1826 0.59812 -0.5248 -0.2866 0.10771 0.43087 0.17841 -0.2692
李兵 -9.5340 1.06218 -1.2491 -0.6673 -1.2036 0.73894 0.08713 -0.1192 -0.7762 0.35049 0.85360 0.70729 0.00047 0.02491 0.31717
特长 2.63357 -1.3948 -0.5815 -0.2100 0.23316 -0.5202 -0.2449 -1.4529 0.13365 0.31732 0.22172 -0.6337 0.68457 0.32874 -0.9387
申请人 -9.6504 0.33797 0.34341 -0.7848 -0.3764 -0.7884 -0.0147 0.47665 -0.5440 -0.3388 0.23130 0.08874 -0.0923 0.11279 -0.0037
全国 1.76234 -1.0591 -0.4286 -0.2568 -0.4663 0.93359 1.16911 -0.5019 -0.6301 -0.2169 -0.3908 -0.5025 0.51185 -0.2812 1.04036
推免生 -9.5941 1.34450 -0.3036 -0.2161 0.05058 0.01736 -0.3117 -0.0919 -0.2883 0.23204 0.40807 -0.1408 0.02361 0.02230 -0.2982
人文 2.20995 0.36962 -1.8007 1.21860 0.51518 0.66426 -0.9837 0.35738 -0.3613 0.35805 -0.1244 0.56441 0.58464 -0.6556 0.38364
黄治国 -9.5010 -0.8184 -0.0208 -0.8691 -0.4595 0.95462 -0.0621 -0.1601 -0.2415 0.39008 -0.0144 0.38249 -0.0777 0.35005 0.26512
潜力 2.45414 -0.8605 0.22849 -1.1114 1.35857 -0.0958 0.20217 -1.1564 -1.2900 0.54676 0.91906 -0.9574 1.11264 -2.4138 1.12613
否 11.5557 2.51431 -0.0911 -0.7212 0.01345 -0.9719 -0.3572 0.66341 -0.6279 0.14452 0.11096 0.53469 -0.5247 0.69705 0.13500
同时 2.06310 -0.5825 0.40757 -0.9009 -0.1371 0.28396 0.12274 -0.2260 0.28771 0.13871 0.23367 -0.2350 0.06959 0.03592 -0.2178
所在 1.85383 1.45996 -0.4659 -0.0298 -0.5571 0.83481 0.32277 -0.4301 0.21616 0.26135 -0.5716 -0.0591 0.25733 -0.2790 -0.4539
名单 2.33529 -0.6642 0.64558 -0.5658 -1.3609 -0.0478 0.81492 0.15481 -0.8542 0.18500 -0.6757 -0.3475 -0.0399 -0.6078 0.02616
sys -1.6077 0.50681 2.28068 2.43748 0.53199 0.49169 -0.2876 0.12314 1.10448 -1.0548 -0.1215 -0.5873 -1.1404 -0.3708 0.02778
GRE -8.5214 0.71581 0.67467 1.18725 -0.1657 0.45672 -0.3107 -0.6505 -0.0775 0.64815 0.37900 -0.6695 -0.4150 0.18179 -0.3003
武大 -9.9233 1.44708 -0.7976 -0.7915 -0.0888 0.52378 -0.4617 -0.6104 0.01810 0.29097 0.07505 0.19477 0.49111 0.33604 0.24145
公式 2.22971 1.30314 1.13342 0.77457 0.44214 -0.8839 -0.9645 -0.0105 0.43044 0.76146 -0.4981 -0.7721 -0.4103 -0.2883 -0.0100
百分制 -9.3148 1.12253 0.22207 0.02792 0.64015 -0.3172 0.35269 -0.2856 -0.4831 0.11948 -0.3725 0.26377 -0.3303 -0.0565 0.09011
能力 2.22793 1.37388 -0.0589 0.28340 1.36297 -0.2435 0.11154 -1.0881 -0.6981 0.06026 0.79179 -0.0577 0.09869 0.04072 -0.6243
US -8.6205 1.17687 0.28340 1.11305 -0.0709 0.70994 0.11483 -0.6800 -0.0296 0.53806 0.12553 -0.4613 -0.3815 0.05673 -0.2954
必修课 -9.2255 -0.2898 -0.9537 0.09420 0.16151 -1.1942 -0.4690 -0.0988 -0.5483 -0.0344 -0.1403 0.38294 0.41799 0.23120 -0.4798
代表性 -1.5622 1.02187 0.19520 0.93579 -0.0520 1.24909 -0.2815 -0.2119 -0.9906 1.38095 -0.4043 -1.0464 0.70049 0.12991 0.07065
公示期 -9.4437 1.70245 -0.9230 -0.4470 2.51947 -0.4156 5.90784 5.30729 0.61370 1.53262 0.51653 -2.7391 1.99515 0.19821 0.33467
等级 2.19211 -0.5705 0.61900 -0.9048 0.71686 -0.2692 1.24576 -1.3647 0.02345 0.31011 -0.9152 -0.1880 -0.3331 0.75999 0.29029
要求 2.17317 1.61235 -0.0271 0.07185 -0.0971 -0.2249 0.52253 0.41429 -0.9768 -0.1773 0.30588 0.06637 -0.6922 0.19060 -0.4676
专业课 -9.3462 -1.5477 -0.4730 -0.8886 0.54605 -1.0017 -0.1725 0.31884 0.30229 -0.2422 0.31162 0.33857 0.42623 -0.0009 -0.2844
语言 2.62605 -0.9586 0.98167 0.12558 0.21919 -0.4334 -1.1288 0.04720 0.19997 0.45250 0.26122 0.85075 0.56011 0.31584 -0.3296
人 9.81306 2.03277 -1.1786 -0.9560 -0.7465 -0.3170 0.27474 -0.0822 -0.1680 0.40777 1.07897 0.43101 0.34464 -0.3404 -0.0510
吴红波 -9.2381 -0.1249 0.06154 -0.6187 -0.3571 0.69383 -0.3919 -0.2851 0.00325 0.45358 0.10022 -0.3219 0.00831 0.51737 0.23740
软件 2.50756 -0.7207 1.62730 0.48842 0.70612 0.07977 -0.3679 0.85352 0.87819 -1.2515 0.48754 0.57681 0.61521 -0.0392 -0.2896
大学 2.17558 -1.7558 -1.8013 0.96279 -0.5956 -0.1410 -0.1886 0.52234 1.27651 0.51178 -0.0955 0.23453 -0.3371 -0.0167 0.15654
邮编 -9.6327 -0.7994 0.44068 -1.2870 -0.8672 -0.2152 -1.2490 1.36370 0.65436 0.14309 -0.1535 0.28254 -0.0806 -0.4206 0.30519
cn 2.63803 0.17636 2.00011 2.70228 -0.8976 1.40432 -0.6255 -1.0350 0.62056 -0.4207 1.09897 -1.5681 -1.0830 -0.6649 1.25399
知识 2.84664 -1.0532 0.35052 -0.3345 0.69722 0.08558 -1.0475 0.33594 -0.5489 -0.0124 0.80715 0.29715 0.50446 0.21559 0.20847
