bm -0.3612 0.63661 -0.6958 0.07899 1.62267 -0.2552 -0.8374 0.16098 -0.0789 0.00522 1.16378 0.25325 1.30596 -0.8608 0.28082 -0.2708 0.72329 0.20362 -1.5125 -0.4424 -0.3684 0.89379 0.56944 -0.1941 0.27063 -0.3249 0.72957 -0.1000 0.30771 0.25537 0.90643 -1.0880 -1.0552 -0.2970 -0.6196 0.71110 0.96862 -0.6757 0.15536 0.84592 0.75211 0.96043 1.42782 -0.6060 -0.2635 -0.5907 -0.8721 -0.3983 0.17138 -1.0131 0.56677 -0.2460 -0.0769 -0.4769 -0.0008 -0.9550 -1.3312 -1.0066 -2.9393 0.38059 0.82043 -0.3831 0.36932 0.77482 0.55249 0.65106 -1.0999 -0.4760 -0.5103 0.24519 1.62647 -1.1772 1.70973 -0.5245 -1.1136 0.17581 -0.0580 -1.1421 -0.6291 -1.2571 -0.5885 -0.0440 1.38318 -0.9748 -0.2621 -0.5820 0.17958 0.56179 0.30748 -0.7598 -0.6503 0.93264 -0.6865 0.56091 -0.3314 1.16087 0.43533 -0.4515 -0.2972 0.65082 -0.0781 0.31187 -0.3620 1.47949 -0.2688 0.11445 0.01153 -0.9331 -0.3790 -0.4171 -0.1698 -0.7897 -0.1479 0.47941 0.06711 0.61495 -0.3606 0.13450 -0.9159 -0.7892 -1.0334 0.43144 0.16980 -0.4068 -0.6597 -0.7024 0.56889 0.69545 -0.6943 0.24151 1.13186 0.27686 -0.7558 1.18313 -1.5507 0.28905 -0.5820 -0.2019 -0.9606 -0.5776 0.03921 0.50136 1.33695 -1.0212 -0.7518 0.25808 -1.2649 -0.0907 -0.5666 -0.0317 1.00428 0.97750 -0.3488 0.47839 0.81309 -0.8798 0.61799 -0.4191 0.08606 1.00391 -0.0712 0.38742 0.69066 -0.0105 0.09608 -0.1796 -0.0166 1.09426 0.77538 0.23195 0.55008 0.66844 0.76793 0.35606 -0.3415 -0.3719 0.92850 0.82535 -0.5370 -0.8508 -0.6415 -0.4562 0.26175 0.15478 0.05260 0.81757 -0.0376 -0.7360 -0.4011 0.41957 -0.3231 -0.4013 -0.7145 -0.3423 -0.0437 -0.7210 -0.8043 -0.9957 0.28319 0.08422 0.15437 -0.1510 0.40570 -0.9548 0.62925 0.08869 0.98185 -0.1781 -0.5715 0.40031 -0.8827 0.13737 -0.3575 0.06600 -0.4354 0.22417 0.24502 -0.7867 1.33919 0.75770 -0.2246 0.62826 0.16719 -0.5689 -0.9159 0.43680 0.15170 -0.7348 -1.4388 -0.0598 -0.8362 -0.3953 -0.0796 -0.2256 -0.1945 0.80318 0.40787 -0.9489 0.12754 -0.5744 0.88030 -0.6131 0.44002 -0.1119 -0.2656 0.03956 -0.2363 -0.5029 -0.5487 0.24619 0.16065 -0.1388 -1.1232 0.11057 -0.0405 -0.2486 -0.0217 0.52111 -1.3024 0.36146 0.80000 -0.6022 0.28695 -0.1247 -0.1717 -0.2435 -1.0137 -0.7497 -1.7751 -1.6825 -0.1724 0.60476 0.78947 -0.2924 -0.4371 -0.2496 -0.1529 0.47188 0.46779 -0.6703 0.49553 0.61640 0.62452 0.12305 -0.6995 -0.1728 -0.0146 0.53910 -0.9547 -0.0716 -0.9375 -1.1779 -0.4558 -0.3797 0.32903 -0.9907 0.03093 0.32925 1.18682 0.39425
汉 -0.1061 1.01659 -1.0061 0.04843 1.26294 -0.1953 -0.8195 -0.0443 0.58415 -0.0594 1.58513 0.09371 2.39832 -1.2267 0.36376 -0.9719 1.33515 -0.2381 -1.6744 -1.4455 -1.0872 1.93160 1.47325 0.31086 0.97976 -0.6372 1.86936 0.53477 0.96037 0.75929 2.05000 -1.0640 -1.2867 -1.3463 -1.5930 1.73941 1.89234 -0.5667 0.79890 2.31960 1.57854 1.67472 1.95541 -2.1231 -0.5165 -1.1346 -1.2017 -0.6102 0.98015 -1.5762 1.94309 -0.7309 -0.9423 -1.0247 0.40777 -1.5220 -1.7925 -2.1474 -5.9309 0.97255 1.76406 -0.0839 1.49707 1.66911 0.25055 1.68135 -1.5501 -1.0984 -0.9731 -0.1087 2.42039 -1.0253 2.26617 -0.7762 -1.6732 1.37731 0.15891 -1.4049 -1.0031 -1.3641 -0.6084 0.41370 1.96706 -1.3066 -0.9669 -1.4784 -0.1364 0.90270 0.26562 -1.6662 -1.5492 1.60181 -0.2112 -0.0095 -1.9353 2.01796 0.88804 0.41794 -0.0488 0.35728 0.62909 0.94214 -0.9900 1.34920 -0.9565 0.98577 -0.1843 -1.3293 -1.5731 0.00601 0.15239 -1.2420 0.34553 0.94248 0.89601 0.24184 -0.3913 -0.0101 -1.6580 -0.9298 -1.0321 1.20761 1.09518 0.09064 -1.3828 -1.6697 1.20765 1.42202 -1.6851 0.80654 1.32692 -0.3064 -1.7278 1.73781 -1.8470 0.72187 -0.4156 -0.2103 -1.8287 -0.5910 0.10060 1.30290 1.83197 -2.2043 -1.2952 0.97024 -2.1202 0.17674 -0.9795 0.21072 1.08255 1.34385 -0.6164 0.75668 1.13316 -1.4376 0.85458 -0.7019 -0.1169 0.98142 0.48859 0.64801 0.43202 -0.1099 -0.3549 0.16928 -0.2698 1.96377 0.86542 0.56968 0.95302 0.76627 2.08659 0.11634 0.23382 -0.4242 1.88479 1.48471 -0.4246 -0.5288 -1.4258 -0.9567 0.34555 0.33865 -0.4622 1.46744 -0.1625 -1.2165 -1.0414 0.94618 -0.1442 0.01726 -0.7343 -0.7261 -0.2839 -0.7883 -1.0584 -1.5091 -0.0055 0.56209 0.01165 -0.6221 0.08973 -1.3704 0.44299 0.24670 1.06364 -0.9600 -0.6558 0.43387 -0.9855 0.50665 -0.5588 0.91603 -1.4331 0.29475 0.73472 -0.0128 1.45128 0.95416 -0.9299 1.16184 0.93674 -0.5179 -1.4930 1.42971 -0.9437 -0.5596 -1.2902 0.84321 -1.7432 -0.5981 0.81343 -1.0336 -0.4214 1.74724 0.62745 -2.0353 -0.0537 -0.6361 1.10442 -0.7708 1.34291 -0.5544 -0.6664 -1.0826 -0.8714 -0.3132 -1.3745 0.59529 -0.5108 -0.6339 -1.0227 0.58683 -0.7432 0.17588 0.67948 1.54262 -2.4471 -0.0408 0.63207 -0.5432 -0.6003 -0.6241 -0.7808 -0.0975 -0.7764 -1.6233 -2.7113 -1.6328 0.19037 0.28324 1.52818 -1.4994 0.09849 -0.3182 0.02911 1.11815 -0.2034 -1.2123 0.76257 2.21687 0.03724 1.54070 0.96102 -0.4293 0.61091 0.16233 -1.2653 -0.2059 -1.2327 -1.4041 -0.8318 -0.7731 -0.0814 -1.0474 0.75678 0.55554 1.60794 0.03858
精神 0.12843 0.83959 -0.1677 0.37941 0.89916 -0.6311 -0.5077 0.35630 0.66306 -0.1690 0.66350 -0.1153 1.13961 -0.6693 -0.1270 -0.7105 0.84908 -0.6267 -0.9224 -0.7234 -0.8746 1.25123 1.18640 -0.3062 0.80006 -0.5659 1.20085 0.26698 0.42087 0.43758 0.73500 -0.6446 -0.7392 -0.5547 -0.9624 1.07840 0.70420 -0.3959 0.20172 1.49246 0.89198 1.10746 1.02704 -1.2612 -0.1281 -0.3348 -1.0588 -0.4254 0.34103 -0.7215 1.02405 -0.2204 -0.0291 -0.3255 -0.2490 -0.5236 -0.9485 -1.0247 -2.9595 0.40806 0.68929 0.14131 0.73526 1.02008 0.30927 1.11329 -0.8645 -0.6135 -0.6190 -0.3889 1.61572 -0.5416 0.79467 -0.7846 -0.5087 0.22975 0.04694 -0.5898 -0.4975 -1.1753 -0.2424 0.00017 0.43830 -0.6314 -0.8987 -0.5704 0.01346 0.27616 -0.1502 -0.7499 -0.2836 0.70307 -0.1767 -0.0969 -0.8234 1.01454 0.75355 0.40729 -0.0333 -0.1898 0.72120 0.76665 -0.5308 0.85151 -0.6647 0.93352 -0.1483 -0.7825 -0.4686 0.13619 0.16725 -0.5404 -0.4113 0.38582 0.10026 0.27664 -0.6393 0.07695 -0.9342 -0.7713 -0.9484 0.49479 0.31167 -0.2604 -0.7063 -0.8453 0.61010 0.81164 -0.9972 0.49680 0.91951 0.50804 -0.9101 0.85616 -0.8102 0.15077 -0.3087 -0.4804 -0.6089 -0.0612 0.07420 0.75109 0.95064 -1.1774 -0.8843 0.34950 -1.5039 -0.1475 -0.6670 -0.3163 0.49667 1.13637 -0.3067 0.13651 0.83292 -0.7288 -0.0280 -0.3074 -0.1649 0.77762 0.41431 0.63135 -0.0593 -0.0162 -0.1329 0.21161 -0.1540 0.71007 0.24719 0.28596 0.46358 0.84695 1.07586 0.13459 -0.3022 0.02322 0.53043 0.72323 -0.1844 -0.2808 -0.3648 -0.6970 0.23254 0.19977 -0.3051 0.32012 0.21676 -0.4961 -0.4885 0.79982 -0.2210 0.05355 -0.3178 -0.3865 -0.0840 -0.9703 -0.7281 -0.6187 0.14976 0.48130 -0.2042 -0.4705 -0.2959 -0.8369 -0.1307 0.07809 0.45488 -0.1965 -0.2598 0.51277 -0.8900 0.31518 -0.7139 0.39515 -1.2368 0.14742 0.28766 -0.2356 0.79183 0.78655 -0.6975 0.63512 0.62456 -0.2308 -1.1924 0.55235 -0.1520 0.03855 -0.9540 0.03309 -1.0414 -0.5063 0.34543 -0.9801 -0.2261 1.26455 0.11188 -0.3957 -0.0024 -0.5741 0.47458 -0.6341 0.77665 0.06750 -0.3396 0.26252 -0.7182 -0.1117 -0.6449 0.67584 -0.1711 -0.1792 -0.7073 0.52953 -0.5752 -0.2102 0.30660 0.56871 -1.8099 0.28486 0.26092 -0.1029 -0.6534 0.19415 -0.3915 -0.2593 -0.4350 -0.5584 -1.8085 -1.0312 -0.2373 0.39572 0.99636 -0.7943 -0.2342 -0.4309 0.06533 1.05090 -0.0515 -0.4564 0.99234 1.20432 0.54226 0.70103 -0.3386 -0.2918 -0.0774 0.23904 -1.3706 0.19580 -1.0956 -0.8658 -1.0580 -0.4302 -0.3215 -0.6031 0.49702 0.49229 1.47349 0.16024
文章 0.09483 0.93024 -0.4805 0.46872 0.56670 -0.1837 -0.3934 0.18159 0.19097 -0.1858 0.48820 0.37828 1.22831 -0.8042 -0.0668 -0.9419 0.77447 -0.6840 -0.9419 -0.5433 -0.7559 0.95276 1.22890 -0.2102 0.59016 -0.3112 0.97549 0.16867 0.40642 0.41631 0.72393 -0.7552 -0.5894 -0.4402 -0.9057 0.97190 0.75178 -0.8979 0.35219 1.76972 0.76596 0.91101 1.07766 -0.8762 -0.4249 -0.5172 -0.8958 -0.0506 0.28971 -0.8726 1.25935 -0.4181 -0.2195 -0.7086 0.05138 -1.0742 -1.0605 -1.1119 -3.2129 0.56852 1.03757 -0.1158 1.16678 1.10980 0.27999 0.91415 -0.7248 -0.5186 -0.6260 -0.1563 1.34724 -0.6922 1.07008 -0.1484 -0.8862 0.50031 -0.2623 -1.0454 -0.5717 -1.1972 -0.2953 0.34899 0.47560 -0.6373 -0.5842 -0.5941 0.18004 0.55499 -0.1978 -0.9752 -0.5385 0.69155 -0.2904 -0.2018 -0.7703 0.97322 0.99176 0.64528 0.14333 0.35727 0.72178 0.68496 -0.6290 0.56162 -0.5590 0.73229 0.02445 -0.6167 -0.8840 0.39686 -0.0479 -0.5592 -0.2167 0.78155 0.43609 0.47776 -0.5290 0.05327 -0.6905 -0.6685 -0.6788 0.69328 0.80168 -0.1001 -0.9301 -1.0362 0.70959 0.52703 -0.7711 0.18051 0.96795 0.36489 -0.8670 0.79546 -1.1019 0.25252 -0.4541 -0.1067 -0.5839 -0.0588 0.27987 0.89779 1.23791 -1.1544 -0.6270 0.35905 -1.4133 0.02660 -0.3951 0.04394 0.32847 0.98162 -0.1766 0.16975 0.87238 -0.7293 0.52162 -0.6249 -0.3958 0.60645 0.63827 0.19424 0.35370 -0.2363 0.08080 0.32863 -0.0663 0.83564 0.35896 0.48444 0.55816 0.48213 1.14441 -0.1373 0.07675 0.15576 0.93742 0.74128 -0.2396 -0.2767 -0.5099 -0.5131 0.16377 0.16751 -0.4500 0.68901 -0.1228 -0.4948 -0.3854 0.81693 -0.0161 0.10970 -0.0504 -0.2881 -0.1048 -0.5717 -0.7595 -0.7734 -0.0387 0.35355 0.00153 -0.4266 -0.0677 -0.9717 0.00933 -0.3927 0.47827 -0.1982 -0.1737 0.09367 -0.7913 -0.0534 -0.5722 0.28923 -0.8564 0.00477 0.09305 -0.3537 0.71866 0.82422 -0.5771 0.67992 0.20293 -0.4566 -0.7557 1.00863 -0.2702 -0.4976 -0.6181 -0.0064 -0.8246 -0.5468 0.41389 -0.6687 -0.5843 1.23190 0.50194 -0.9203 -0.3121 -0.2016 0.61366 -0.9744 0.57823 -0.1297 -0.6651 0.19824 -0.6271 0.07955 -0.5152 0.56144 -0.3956 -0.2702 -1.0272 -0.0925 -0.4677 -0.5046 0.54026 0.53807 -1.0355 -0.0250 0.52948 -0.3830 -0.6715 0.12746 -0.5367 -0.5144 -0.6868 -0.1104 -2.0148 -1.2200 -0.6151 0.11866 0.97222 -0.6695 -0.0729 -0.4969 0.04582 0.54109 -0.0876 -0.6531 0.70275 1.14859 0.04711 0.35169 -0.2956 -0.2684 0.07330 0.53066 -0.9081 0.20624 -1.1729 -0.9460 -0.6852 -0.8457 -0.1767 -0.7267 -0.1588 0.52906 1.17885 0.12181
基地 -0.1727 0.89249 -0.7320 0.23673 1.03513 -0.2673 -0.8053 0.58433 0.46653 0.06560 0.87699 0.11928 1.54136 -0.6731 0.06744 -0.0283 1.10828 -0.3765 -0.9912 -0.4540 -0.7327 1.12723 0.71839 -0.3325 0.35904 -0.6585 0.69167 0.46303 0.79992 0.06960 0.99715 -0.7591 -0.6297 -0.3087 -0.6794 0.60650 1.33945 -0.4290 0.05325 0.98432 0.91194 0.99527 1.13948 -1.3954 -0.4750 -0.3588 -0.5609 -0.4051 -0.1059 -0.8971 1.11890 -0.3736 -0.4198 -0.4383 -0.0504 -0.8743 -1.2127 -1.0885 -2.9585 0.47050 0.61209 0.01037 0.66906 1.18066 0.39905 0.98657 -0.6310 -0.8665 -0.8778 -0.0738 0.67917 -1.0752 1.03325 -0.3033 -1.0578 0.16763 -0.1633 -0.9757 -0.6646 -0.8724 -0.3184 0.14388 0.74317 -0.5102 -0.8123 -1.0362 0.42220 0.24531 0.32552 -0.8373 -0.7104 0.69541 0.05197 0.40663 -0.2627 1.14567 0.77106 0.43740 -0.0752 0.70186 0.34225 0.13278 -0.6554 1.28086 -0.6085 0.56147 0.14613 -0.9906 -0.6426 0.14355 0.08738 -0.7767 0.04104 0.56041 0.15103 0.00329 -0.5892 0.16709 -0.5779 -0.8222 -0.7109 0.53005 0.74988 0.11304 -0.4076 -0.9555 0.42419 0.75296 -1.1590 0.55444 0.99149 0.26272 -0.4670 0.85430 -0.9647 0.49634 -0.5629 -0.0912 -0.8286 -0.2200 0.09097 0.70630 0.80563 -1.0650 -0.3198 0.47964 -1.7282 0.12495 -0.3132 -0.2883 0.10143 0.69598 -0.4446 -0.1553 0.83911 -0.9894 0.30420 -0.3405 0.06120 0.73666 0.07903 0.46873 0.23932 -0.1786 0.00400 0.43253 -0.1540 1.15932 0.66549 0.26352 0.40699 0.80018 0.93407 0.22487 -0.0736 0.07879 0.67625 1.11339 -0.2763 -0.7340 -1.0113 -0.1952 0.31846 0.15625 -0.5987 0.32264 -0.1380 -0.6720 -0.4261 0.82028 -0.0593 -0.0806 -1.0686 -0.1185 -0.5527 -0.6127 -0.7948 -1.0688 0.20570 0.84596 -0.0173 -0.3297 -0.0208 -0.2598 0.09589 0.16133 0.33367 -0.3613 -0.0678 0.07338 -1.0222 0.19002 -0.7268 0.44653 -0.5806 0.51705 0.47221 -0.1027 0.52334 0.48657 -0.7703 0.69116 0.29711 -0.0774 -1.0605 0.50784 0.02888 -0.1330 -0.5682 -0.0107 -1.1531 -0.9534 0.18253 -0.9321 -0.1310 0.93248 0.49894 -0.6079 -0.0448 -0.1796 0.24245 -0.7128 0.53113 0.15260 0.02423 0.04312 -0.4895 -0.3681 -0.7986 0.13382 -0.4411 -0.0594 -0.9606 0.06428 -0.5343 -0.1421 0.21284 0.41763 -1.2673 0.50951 0.54093 -0.1245 0.15013 0.11488 -0.1895 0.17945 -0.9051 -0.8089 -1.3655 -0.8169 -0.1296 0.58416 0.87434 -0.8382 -0.5391 -0.4158 0.52785 0.48384 0.22850 -0.4317 0.67064 0.90389 0.03798 0.88336 -0.1871 -0.2895 -0.3577 -0.0084 -1.4612 0.27898 -0.5442 -0.7844 -0.1179 -0.8743 -0.6473 -0.6573 0.34848 -0.0408 0.95668 0.22710
项目 -0.4265 0.34244 -0.7789 -0.1028 0.82491 -0.4437 -0.6042 0.30088 0.03637 -0.1063 0.90759 -0.2057 1.25523 -1.1893 0.47332 -0.3285 0.91479 0.06285 -0.8606 -0.7618 -0.6432 1.14801 0.94099 -0.0295 0.98014 -0.3405 1.09908 0.13927 0.63486 0.21411 0.97390 -0.8571 -0.7669 -0.5270 -0.9957 0.87956 1.06478 -0.6117 0.24108 1.61861 0.92934 0.82581 1.31221 -0.6609 -0.4371 -0.2141 -0.8416 -0.5544 0.03738 -1.1666 1.57402 -0.2132 -0.4829 -0.5039 0.15755 -0.8116 -1.2343 -1.2480 -2.5237 0.52149 1.24895 0.22794 0.74208 1.26341 0.21070 0.79717 -0.7993 -0.6579 -0.3058 0.09764 1.01243 -0.7092 1.23759 -0.6540 -1.3616 0.13883 -0.0440 -1.1001 -0.6874 -1.1114 -0.7869 0.30654 1.31973 -0.5214 -0.9445 -0.8047 0.22457 0.47305 0.04330 -1.1274 -0.7848 0.71051 -0.1561 0.04408 -0.6704 1.51648 0.66349 0.15201 -0.1546 0.30567 0.40794 0.41283 -0.3677 0.79005 -0.6508 0.39324 0.11038 -0.9431 -0.5549 0.02621 -0.2582 -0.6427 0.01588 0.16957 0.27070 0.20326 -0.4187 0.29629 -0.9116 -0.9172 -0.6706 0.71182 0.44947 0.41281 -0.7669 -0.7041 0.08699 0.44492 -1.3954 0.19635 1.15778 -0.0156 -1.1809 1.15753 -0.9347 0.67986 -0.3503 -0.0167 -1.0074 -0.5184 0.02606 0.76027 1.06183 -1.2191 -0.5931 0.47460 -1.7194 0.05787 -0.6060 -0.1651 0.34607 0.89530 -0.3996 0.51630 0.66107 -0.3643 0.35214 -0.0363 -0.2354 0.47399 0.26436 0.47989 0.63121 -0.1683 -0.3017 -0.2216 -0.0081 0.87302 0.43813 0.14087 0.69269 0.15240 1.18304 -0.2742 0.15962 0.14786 0.98371 1.12989 -0.1673 -0.3472 -0.8044 -0.6655 -0.0164 0.07016 -0.6435 0.88277 -0.2151 -0.4762 -0.7626 0.76847 -0.1942 -0.3352 -1.0542 -0.6290 -0.1779 -1.0474 -0.0885 -0.8854 0.04203 0.46578 0.11574 -0.1076 0.06695 -0.6684 -0.1584 -0.1906 0.26042 -0.3829 -0.1571 0.42342 -0.3858 0.17014 -0.1769 -0.0307 -0.6571 -0.1202 0.39186 -0.2085 0.47045 0.38308 -0.8110 0.52719 0.73433 -0.0086 -1.1967 1.05329 -0.4438 -0.0488 -0.6048 0.20584 -0.8364 -0.6569 0.57565 -1.1325 -0.6160 1.22784 1.05930 -1.0670 -0.3043 -0.3047 0.38912 -0.3966 0.56927 0.09326 -0.5426 0.46785 -0.7288 -0.4703 -0.0040 0.67489 -0.3471 -0.0920 -1.3640 0.97346 -0.4230 -0.4791 0.49104 0.26758 -1.0454 0.32980 0.36245 -0.4547 -0.0528 0.03491 -0.2550 -0.2191 -0.9286 -1.1900 -1.4312 -1.0429 -0.0979 0.24097 1.07828 -0.6729 0.13726 0.03208 0.22058 0.90735 0.32271 -0.7509 0.45427 1.48779 -0.0103 0.51952 0.16126 -0.4393 -0.0224 0.49733 -1.1645 0.01381 -0.9505 -0.9973 -0.2641 -0.6011 -0.0708 -0.4490 0.53609 0.37314 1.35275 0.37301
志愿 -0.3447 1.06949 -0.6443 0.27631 0.90439 -0.3996 -0.5389 -0.0160 0.40619 0.11873 0.84878 -0.0502 1.64545 -0.6289 0.15223 -0.2953 1.12589 0.06756 -0.8280 -0.8032 -0.5277 1.12482 0.60370 -0.0057 0.65370 -0.4992 0.85578 0.46520 0.35488 0.27940 1.03883 -0.7676 -0.8183 -0.1304 -0.8685 1.26140 0.99136 -0.5880 0.45823 1.41578 1.09712 1.11490 0.96261 -0.7759 -0.1565 -0.4198 -0.4412 -0.5189 -0.1405 -1.0737 1.22924 -0.4645 -0.1258 -0.7281 0.02370 -0.9962 -1.2775 -1.2660 -3.0881 0.51859 0.86440 -0.1587 0.59134 0.65383 0.07640 1.13135 -0.9141 -0.6646 -0.6371 0.11156 1.26576 -0.9822 1.19417 -0.3019 -1.1608 0.18371 0.05436 -1.2922 -0.5150 -1.6366 -0.4347 0.03542 1.23616 -0.6123 -0.5895 -1.0587 -0.0165 0.56702 -0.2415 -0.9391 -1.2508 0.67419 -0.2342 0.17339 -0.4938 1.39599 0.50376 0.20297 -0.4835 0.66587 0.38593 0.46890 -0.6001 0.96370 -0.4212 0.64188 0.02190 -0.7266 -0.9108 -0.3235 -0.1529 -0.7302 0.01402 0.76609 0.43356 0.06269 -0.6426 0.58879 -0.7093 -0.4956 -0.7745 0.55820 0.64854 0.29104 -0.5184 -0.6339 0.62972 0.45477 -0.8440 0.24698 1.17304 0.50603 -0.9308 0.98784 -1.1895 0.26720 -0.2749 0.22785 -0.9937 -0.3551 0.05296 0.62062 0.71376 -1.1285 -0.5216 0.72111 -1.3881 0.12920 -0.6673 0.20783 0.44083 0.73897 -0.3410 -0.2511 0.87039 -0.6415 -0.0251 -0.1586 -0.4777 0.71172 0.35011 0.21250 -0.2017 0.02346 -0.2583 0.13581 -0.1790 1.08249 0.35587 0.75666 0.38774 0.50265 0.90761 -0.4044 -0.0665 -0.3322 0.83485 1.28981 -0.3177 -0.3307 -0.8778 -0.0594 0.22994 0.17822 -0.1527 0.77805 -0.0481 -0.2694 -0.4436 0.72418 -0.2360 -0.3103 -0.4707 -0.4520 -0.2995 -1.2239 -0.6393 -1.0260 -0.0055 0.52059 -0.0092 -0.5558 0.09534 -0.6086 -0.1019 -0.1581 0.21333 -0.4120 0.15404 0.12863 -1.1861 0.27582 -0.5066 0.55974 -0.8548 -0.4810 -0.2649 -0.1168 0.70350 0.32504 -0.4606 0.37316 0.63457 -0.3541 -1.1016 1.20991 -0.2894 0.26262 -0.2767 0.05619 -0.9737 -0.6612 0.73957 -1.0829 0.04512 1.01327 0.58745 -1.0666 0.04003 -0.4012 0.46049 -0.7371 0.85217 0.14278 -0.6464 0.02755 -0.2153 -0.1535 -0.4063 0.75789 -0.5167 -0.0412 -0.7632 0.37388 -0.7789 -0.3733 0.52041 0.70971 -1.6315 0.32900 0.50760 -0.1954 -0.3946 0.08282 -0.3603 -0.0079 -0.4101 -1.1110 -1.9614 -0.5009 -0.2195 -0.1904 1.71611 -0.7677 -0.2060 -0.0261 0.12311 0.39729 0.15612 -0.9485 0.89655 1.35581 0.63116 0.78183 0.42481 -0.5173 -0.2436 0.53750 -1.4625 0.38670 -0.7790 -1.2984 -0.6813 -0.6096 -0.5290 -0.4148 0.55124 0.69104 1.63620 -0.0415
程序 0.16529 0.87052 -0.4750 0.70927 0.66439 -0.1714 -0.5615 0.17637 0.39452 0.17105 0.77598 0.00154 1.62641 -1.0783 0.49201 -0.3372 0.96619 -0.3469 -1.0123 -0.5208 -0.9538 1.07856 0.78445 0.18171 0.71537 0.17339 0.97254 -0.0346 0.89229 0.35810 0.86396 -0.6262 -0.8268 -0.4505 -0.3897 0.85813 0.73092 -0.7134 0.10165 1.59862 0.69960 0.76588 0.61895 -0.8720 -0.4881 -0.3237 -0.6079 -0.4482 0.40714 -0.8085 1.24473 -0.3352 -0.4599 -0.7099 0.53937 -0.7444 -0.8917 -1.2617 -2.9641 0.19660 1.01235 0.31548 0.99591 1.15585 0.56135 0.92741 -1.0281 -0.5569 -0.9464 -0.6991 0.98671 -0.8686 0.82720 -0.5133 -0.8173 -0.0289 -0.0153 -0.6862 -0.8506 -1.2616 -0.0751 0.01324 1.41356 -0.7153 -0.8302 -0.9228 0.47863 0.47872 -0.1845 -0.8431 -0.5960 0.46317 -0.4286 -0.2759 -0.7493 0.97214 0.55390 0.07633 -0.3289 0.36069 0.57964 0.45932 -0.4574 0.84177 -0.6767 0.87149 -0.1051 -0.6721 -0.8768 0.18222 0.11382 -0.5845 -0.2561 0.35633 0.31586 0.60037 -0.2099 0.32746 -0.8770 -1.1099 -0.7263 0.91176 0.59762 -0.2424 -0.6385 -0.7965 0.73648 0.45251 -1.0932 0.11171 0.64585 0.02949 -0.8820 0.73470 -1.0883 0.49794 -0.2636 -0.0917 -0.5455 -0.6732 0.13889 0.81355 1.28816 -0.9736 -0.8477 0.15115 -1.3984 0.09449 -0.9685 -0.2032 0.45152 0.47357 -0.6172 -0.0105 1.03329 -0.4355 0.57445 -0.4816 -0.0754 0.49150 0.36337 0.26862 0.16894 0.08548 -0.2563 -0.0248 -0.0993 0.60960 0.61809 0.62985 0.32941 0.05190 1.09959 -0.0554 0.02742 0.32254 0.56931 0.46724 -0.1852 -0.5622 -1.1910 -0.5904 0.20333 0.22754 -0.4275 1.11308 0.11657 -0.7739 -0.6782 0.70466 -0.5176 -0.3319 -0.2876 -0.5545 -0.2891 -0.5184 -0.4971 -0.8048 0.10375 0.32019 -0.1274 0.04135 -0.2866 -0.5768 0.73523 -0.0045 0.31118 -0.3815 0.15242 0.52412 -0.9119 0.50449 -0.7049 0.18057 -1.0159 -0.1654 0.35906 -0.3564 0.38899 0.48993 -0.7021 0.32952 0.81092 -0.1911 -1.0554 0.55271 -0.4666 -0.4130 -0.5300 0.15649 -0.7029 -0.6517 0.33411 -0.6833 -0.2679 1.52086 0.18608 -0.4089 -0.3337 -0.3797 0.10171 -1.1412 0.20107 -0.4069 -0.4585 0.74683 -0.9203 -0.6823 -0.1647 0.66012 -0.2331 -0.3278 -1.2094 0.59905 -0.4565 0.04192 0.52727 0.45114 -1.3175 -0.0919 0.35242 -0.6812 -0.3616 0.40784 -0.2833 -0.0529 -1.0491 -0.5349 -1.9983 -1.3039 -0.5924 0.08848 1.04768 -0.7758 -0.0650 -0.4925 -0.1202 0.67595 -0.0456 -0.5055 0.62820 1.24233 0.36575 0.36487 -0.1246 0.01085 -0.2009 0.58985 -1.0190 0.22353 -1.2327 -1.2757 -0.9356 -0.6519 0.29522 -0.9763 0.35724 0.30750 1.56867 0.33638
费用 -0.0587 0.60809 -0.6872 0.12649 0.51679 -0.1566 -0.9202 0.44647 -0.1012 -0.0994 0.86087 0.07757 1.26716 -0.9937 0.06691 -0.4685 1.15750 -0.3178 -0.9262 -0.5461 -0.8685 1.40676 0.64156 -0.1090 0.88624 -0.0031 0.97582 0.28711 0.64514 0.48283 1.07629 -1.0250 -0.4320 -0.4077 -1.0963 1.03283 0.76526 -0.6584 0.00177 0.97392 0.70026 0.73822 1.03147 -0.9841 -0.3509 -0.3828 -0.8375 -0.3176 0.61465 -0.9257 1.51605 -0.4754 -0.3044 -0.2992 0.31950 -0.7793 -1.2970 -1.1823 -2.4232 0.49455 0.97108 -0.0199 0.74190 0.67721 0.30865 0.86299 -0.8573 -0.8456 -0.4982 -0.3266 1.28007 -0.6580 1.21811 -0.4372 -0.9295 0.06637 -0.1820 -1.3004 -0.4590 -1.4988 -0.0530 0.32744 1.10685 -0.3486 -0.6162 -0.8165 0.11428 0.42645 0.17326 -0.9307 -0.8314 0.76806 0.03082 0.08734 -0.7252 1.50585 0.85553 -0.1968 -0.0470 0.43970 0.60629 0.48835 -0.6091 0.39665 -0.7021 0.57180 0.64382 -0.8895 -0.4959 -0.0717 0.09962 -0.6276 0.04230 0.49073 0.37785 0.32929 -0.8273 0.47663 -0.8207 -0.4890 -0.6307 0.49051 0.46745 0.51735 -1.0424 -0.7880 0.40059 0.07901 -0.9441 0.86197 0.89837 -0.3709 -0.4903 0.90847 -1.1584 0.53931 0.02372 0.10695 -0.9689 -0.4743 -0.1054 0.69835 1.08038 -1.1925 -0.7687 0.51789 -1.5366 0.34962 -1.0443 -0.3131 0.28638 0.52656 -0.3447 0.24265 1.02601 -0.7971 0.31111 -0.5091 -0.0795 0.34477 0.16685 0.32728 0.32536 -0.1164 -0.3441 0.13628 -0.2752 0.93653 0.34762 0.04108 0.49306 0.65092 1.16436 0.00533 0.25941 -0.1736 0.61762 1.01555 -0.2134 -0.5569 -0.9081 -0.5434 0.49504 -0.0650 -0.2791 0.93217 -0.0732 -0.3617 -0.4279 0.32061 -0.0457 -0.3068 -0.3885 -0.5928 -0.2400 -0.8340 -0.0777 -1.0997 0.12971 0.46809 -0.1814 -0.3575 0.15943 -0.2575 0.15601 -0.2072 0.42763 -0.4027 0.10096 0.25663 -1.3648 -0.0418 -0.5015 0.35008 -1.3853 -0.1845 -0.0240 -0.1877 0.72235 0.95412 -0.6068 0.66584 0.80928 -0.2857 -1.3992 0.98588 -0.9761 -0.0972 -0.7597 -0.1416 -0.7023 -0.4755 0.33350 -0.5452 0.05197 0.80242 0.41458 -1.2482 -0.0385 -0.0575 0.61503 -0.6665 0.58104 -0.5053 -0.2156 0.49133 -0.8288 -0.4926 0.07234 1.32864 -0.7609 -0.1223 -1.2352 0.68258 -0.5431 -0.2081 0.51625 0.19481 -1.4809 0.28647 0.51010 -0.4504 -0.3979 0.00270 -0.1793 -0.2318 -0.6045 -1.1059 -1.6311 -0.7646 0.25777 0.03487 1.04201 -1.0498 -0.0391 0.04192 -0.0445 0.86184 0.53138 -0.5352 0.63274 1.74942 -0.2527 0.31168 0.15240 -0.2532 0.18101 -0.0029 -1.1366 0.08268 -0.9317 -0.8153 -0.4419 -0.6540 0.30143 -0.2959 0.44092 0.53412 1.46596 0.02305
考生 0.02545 1.18534 -0.6049 0.16922 0.31202 -0.4571 -0.3300 0.29967 0.41093 0.06398 0.95665 0.35522 1.70901 -0.8163 0.05710 -0.1847 0.78078 -0.6264 -1.1282 -0.1786 -1.1670 0.99837 0.91295 -0.0967 0.82462 -0.6007 0.92234 0.31201 0.81946 0.37296 1.01703 -0.8722 -0.6105 -0.3655 -0.9783 0.83889 0.65689 -0.6338 0.58403 1.53108 0.84088 1.17440 0.82011 -0.6089 -0.4808 -0.4629 -0.3664 -0.7249 0.50762 -0.5823 0.99220 -0.4819 -0.2233 -0.7282 0.21809 -0.8578 -1.3058 -1.0709 -3.1685 0.19468 1.29676 0.05987 1.12728 0.91066 0.73883 0.56725 -0.9396 -0.8861 -0.5869 -0.1191 0.90808 -0.5281 0.81671 -0.6469 -0.7140 0.02365 -0.1530 -1.3031 -0.8497 -1.0961 -0.4235 -0.0846 1.46649 -0.5972 -0.5347 -0.6585 0.29201 0.63917 -0.2381 -1.1004 -0.6519 0.44747 -0.4531 -0.1574 -1.0102 0.90985 0.91805 0.64111 -0.2310 0.18070 0.54000 0.73748 -0.6306 0.77232 -0.8251 0.81920 -0.0770 -0.4498 -0.7099 0.20460 0.11836 -0.7314 -0.2412 1.01414 0.46430 0.28847 -0.5989 0.28068 -0.7522 -0.3041 -0.9746 0.96900 0.90201 0.18717 -0.8701 -0.5806 0.51658 0.04353 -1.1203 0.01800 0.47757 0.19003 -0.4922 0.62895 -0.9334 -0.0260 -0.0888 -0.4154 -0.7785 -0.5126 0.25679 0.58885 1.02324 -0.5357 -0.6334 0.55721 -1.1389 -0.0346 -0.6363 -0.1575 0.26595 0.78374 -0.6602 0.19244 1.47378 -0.5025 0.03516 -0.7478 -0.1429 0.59001 0.61443 0.33588 -0.1646 -0.0927 0.15695 0.66811 0.03778 0.90800 0.19093 0.69340 0.49913 0.57337 0.80993 0.08974 -0.0709 0.36242 0.68826 0.77210 -0.0371 -0.6023 -1.0903 -0.3565 0.34375 -0.1355 -0.7428 0.58996 0.13755 -0.7878 -0.2857 0.70836 -0.2762 -0.2226 -0.2580 -0.7980 -0.2558 -0.7406 -0.7137 -1.1165 -0.0005 0.37657 -0.1419 -0.2998 -0.0171 -1.0917 0.02721 0.09703 0.11565 -0.2740 -0.1062 -0.1052 -0.5969 0.37522 -0.4853 0.06538 -1.0618 0.04336 0.18605 -0.3060 0.77023 0.56291 -1.0327 0.47273 0.75477 -0.0391 -0.4187 1.08919 -0.5690 -0.1473 -0.7219 -0.0059 -0.6903 -0.5168 0.18104 -0.9330 -0.0538 1.19412 0.83580 -1.2565 -0.5332 -0.4035 0.07317 -0.8401 0.33050 -0.6299 -0.1316 0.26165 -0.3350 0.25004 -0.2368 1.34059 -0.4013 0.22784 -1.1644 0.66957 -0.5099 -0.2199 0.43246 0.44628 -1.4606 -0.0065 1.04061 -0.1727 -0.0185 0.16405 -0.6090 -0.8701 -0.3817 -0.9913 -1.9381 -0.9169 0.12207 0.30120 0.55878 -0.7953 -0.1862 -0.5649 -0.0033 0.31782 0.03021 -0.1341 0.61564 1.51278 0.72577 0.29846 -0.0331 -0.3069 0.16842 0.59675 -0.8567 -0.1558 -1.0539 -1.0139 -0.7431 -0.3563 0.00715 -0.7718 0.34627 0.71083 1.47612 0.97092
标准 -0.2092 0.61995 -0.7955 -0.0483 0.74946 -0.2438 -0.2349 0.42720 0.39769 -0.1271 1.08430 -0.2495 1.64583 -1.1003 0.36098 -0.0570 0.60256 0.09782 -1.2316 -0.8401 -0.6499 1.68450 0.65377 -0.3754 0.76939 -0.2737 0.47948 0.25913 0.75058 0.33581 1.11155 -0.6017 -0.7446 -0.7512 -1.1706 0.98837 0.77457 -0.6404 0.19050 1.37047 1.04344 0.59037 1.02462 -0.6850 -0.6460 -0.2737 -0.7252 -0.4822 0.61390 -0.8777 1.17279 -0.6688 -0.4581 -0.6250 0.27559 -1.1187 -1.4615 -1.1513 -2.9039 0.65089 0.61693 -0.0894 0.72757 1.25367 0.35883 0.84890 -0.6233 -0.5267 -0.2426 0.02809 1.36444 -0.4496 1.22309 -0.7942 -1.2163 0.33624 0.03332 -1.0896 -0.7457 -1.3133 -0.6298 0.32758 1.20300 -0.5478 -0.7098 -0.7816 0.27261 0.69435 0.59700 -1.1102 -0.6425 0.73635 -0.4523 -0.1816 -0.6729 1.19852 0.77754 0.23319 -0.1032 0.13492 0.46052 0.52375 -0.5353 0.73789 -0.3593 0.66932 0.00362 -0.7706 -0.4485 -0.0087 -0.1685 -0.5461 0.31897 0.63301 0.65413 0.12332 -0.2755 0.31745 -0.7760 -0.7956 -0.5278 0.63625 0.60038 -0.0263 -0.9489 -0.8604 0.48484 0.18997 -0.7527 0.38514 0.89788 0.01541 -1.2263 1.17226 -1.2547 0.53727 -0.2794 -0.4100 -0.9158 -0.9121 -0.2532 0.89898 1.12768 -1.2647 -0.8664 0.71412 -1.3620 -0.1868 -0.7349 -0.0805 0.70137 1.02410 -0.1149 0.47896 0.75522 -0.6306 0.98835 -0.0679 -0.2364 0.58302 -0.1506 0.42919 0.65941 0.25163 -0.2126 -0.0565 0.07864 1.13093 0.14485 -0.2134 0.26690 0.16865 1.24028 0.05088 -0.3474 -0.3844 0.99759 0.95014 -0.0967 -0.3227 -1.1619 -0.3029 0.16614 0.39149 -0.3826 0.62263 -0.0783 -0.9398 -0.3398 0.52610 -0.5592 -0.5240 -0.4986 -0.5726 -0.4328 -0.1963 -0.5222 -0.9381 0.13044 0.49833 -0.0448 -0.4796 -0.1116 -0.7931 0.35007 -0.3560 -0.0429 -0.4983 -0.0350 0.11977 -0.7423 0.23980 -0.4596 0.13363 -0.9444 -0.0299 0.78716 -0.1032 0.52191 0.63648 -0.3195 0.90350 0.85646 -0.2694 -0.9782 1.06891 -0.4632 -0.5718 -0.1958 0.03319 -0.6371 -0.5824 -0.1291 -0.8028 -0.3508 0.81783 0.40997 -1.2790 -0.1004 -0.4308 0.32297 -0.8043 0.52542 -0.3262 -0.3585 0.62845 -0.9698 -0.6365 -0.1518 0.37021 -0.5289 0.05339 -1.0587 0.62139 -0.5373 -0.2793 0.69551 0.47150 -1.4252 -0.0381 0.17125 -0.8993 -0.0054 -0.1204 -0.9075 -0.4731 -0.8273 -0.8916 -2.2931 -1.0532 -0.2596 0.27069 1.21924 -1.1517 0.25984 -0.1566 0.35911 0.77547 0.14526 -0.4740 0.32360 1.75629 0.28645 0.52874 0.08852 -0.1635 0.05075 0.52209 -1.1083 0.01143 -1.0467 -0.9829 -0.7445 -0.4126 0.17302 -0.4618 0.65162 0.55838 1.44182 0.14676
edu -0.0380 0.73426 -0.1886 -0.5024 0.79994 -0.2286 -0.4301 -0.6646 0.13852 -0.1270 0.72982 0.56042 1.23168 -0.8910 0.59366 0.19699 0.28994 -0.1208 -0.9312 -0.6304 -0.4597 0.68103 0.19213 0.32682 -0.0898 -0.4583 0.54570 0.16377 0.35951 0.13101 0.56006 0.14612 -0.5157 -0.7705 -0.4249 0.54687 0.70378 -0.0984 0.17300 1.36903 1.05141 0.04921 1.34524 0.50656 -0.4769 0.05092 -0.6249 -0.4899 -0.5789 -0.8672 0.85315 -0.2653 -0.2598 -0.3025 0.34631 -0.5096 -0.9678 -0.2469 -2.0596 0.26084 1.02459 0.23322 0.88710 0.39507 -0.2107 -0.1709 -0.3668 -0.7049 -0.2670 0.01420 0.86767 -1.0747 1.16062 -0.2370 -0.8003 -0.5351 0.07970 -1.3112 -0.2324 -0.9488 -0.1642 -0.2013 1.00495 -0.9037 -0.5947 -0.3005 -0.3598 0.56217 -0.1657 -0.6872 -0.5853 0.69350 -0.5683 -0.0283 -0.0086 0.50040 0.36024 -0.0439 0.20954 -0.1263 -0.0619 0.16530 -0.7212 0.71313 -0.5605 -0.2167 -0.5067 -0.2484 -0.2428 -0.2306 -0.0409 -0.3785 -0.1338 0.23776 -0.2743 0.62222 -0.3394 0.79958 -0.6474 -0.4018 -0.3765 0.29647 0.22808 0.61924 -0.9739 0.37441 -0.1126 -0.3401 -0.2335 0.49660 0.72323 -0.0380 -0.1296 0.85891 -1.1123 0.42820 -0.8689 -0.2165 -0.3468 -0.1121 0.36190 0.32794 0.83493 -0.9833 -0.1618 0.20850 -1.0379 0.11249 -0.3402 0.18170 0.32726 0.07833 -0.8695 -0.4006 1.03076 -0.3078 -0.0899 -0.5668 -0.2458 0.17135 0.14539 0.20258 0.72400 0.07152 -0.0761 0.56393 -0.3456 0.76932 0.49976 -0.1347 0.82268 0.38958 0.48677 0.47877 -0.2185 -0.0028 0.55528 0.26567 -0.1000 0.31666 -0.4985 -0.4885 -0.4264 0.24935 0.23934 0.86183 -0.1239 0.01196 -0.0232 0.90634 0.51358 -0.5093 -1.0714 0.34946 0.53451 -0.5684 -0.4004 -0.1249 0.00648 0.03285 0.13633 -0.1810 0.56725 -1.3012 0.78429 -0.3329 0.55067 0.29120 -0.6958 -0.4559 -1.1021 0.31204 -0.1647 -0.9507 -0.5334 -0.2645 0.52429 0.51227 0.98832 0.09530 -0.0817 0.39686 0.48238 -1.4355 -0.7883 1.03706 0.22202 0.08768 -0.6634 0.03244 -0.4357 -0.3543 0.35812 -0.6596 -0.0420 0.63508 0.47588 -0.3798 0.66383 -0.6699 0.21508 -0.6865 0.53758 -0.4976 -0.5681 0.69308 -0.5134 0.09528 -0.1154 1.09432 -0.1187 -0.4673 -1.0079 -0.0013 -0.1562 0.20344 0.65477 -0.4726 -0.5494 -0.0826 0.46810 -0.5729 -0.9626 0.03892 -0.8056 -0.6345 -1.2254 -0.5612 -1.9244 -1.1461 -0.1497 0.25017 0.58331 -0.0080 0.26304 0.08669 -0.4626 -0.0895 0.34240 0.02527 1.93413 1.29728 -0.1716 0.13613 -0.6925 0.60922 0.11881 -0.1282 -1.3544 0.76258 -0.8426 -1.3643 -0.6793 -0.2238 -0.2315 -1.1586 -0.3187 -0.2079 1.32732 0.57350
http -0.0201 0.29246 -0.4323 -0.5421 0.48092 -0.2030 -0.4684 -0.3271 0.10675 -0.1861 0.60298 0.13730 0.75704 -0.6383 0.35831 -0.2156 0.56300 -0.0743 -0.7998 -0.7282 -0.1163 0.70140 0.34228 0.02196 -0.1826 -0.2886 0.18811 0.39008 -0.0407 0.26843 0.06079 -0.1505 -0.4014 -0.6937 -0.2889 0.43541 0.20949 -0.4123 0.00751 1.10578 0.48861 -0.2675 0.79254 0.41880 -0.5139 0.04262 -0.7537 -0.2795 -0.4224 -0.4674 0.72867 -0.2737 -0.5512 -0.2966 0.49487 -0.5812 -0.5144 -0.0807 -1.2205 0.15034 0.72229 0.45504 0.60934 0.41586 -0.0904 -0.0981 -0.4254 -0.0103 0.09819 -0.0320 0.87407 -0.5723 0.60256 -0.5999 -0.2712 -0.3194 -0.0856 -0.9467 0.00441 -0.8775 0.22915 -0.0928 1.06871 -0.3692 -0.4951 -0.4101 -0.0375 0.27611 0.13280 -0.7257 -0.0611 0.49368 -0.5071 0.03158 -0.0558 0.00726 0.88802 0.03916 0.10520 0.02446 -0.0604 -0.0928 -0.4713 0.62818 -0.4609 0.27613 -0.2140 -0.1227 -0.4687 0.18394 0.11379 -0.5202 -0.0432 0.32261 0.12655 0.26973 -0.0408 0.14194 -0.3271 -0.3424 -0.4482 0.14827 0.22350 0.48335 -0.6459 -0.0960 0.02715 0.04222 -0.1841 0.00562 0.32580 0.07428 -0.3481 0.47445 -0.8268 0.57754 -0.4375 0.26029 0.04163 0.28546 0.07781 -0.1646 0.53392 -0.9352 0.09981 0.12917 -0.6549 0.16578 -0.4736 0.18046 0.37351 0.21576 -0.3003 -0.3061 0.59079 -0.1181 -0.1943 -0.5895 -0.0616 0.39015 -0.1231 0.40650 0.80217 0.04500 -0.2948 0.41573 0.10382 0.44336 0.10355 -0.0434 0.64905 0.29388 0.33101 -0.1513 0.12767 0.02254 0.36663 0.20328 -0.4354 -0.0677 -0.3234 -0.3953 -0.3997 0.10599 -0.0280 0.18501 -0.1733 0.14001 -0.1091 0.42464 0.42538 -0.1166 -0.7536 0.05540 0.33516 -0.4077 -0.2586 0.30080 -0.2647 -0.3221 -0.1898 -0.3641 0.53229 -0.6207 0.42162 -0.4784 0.44570 0.28384 -0.3551 -0.0270 -0.5560 0.31192 -0.1054 -0.2221 -0.4786 -0.3982 0.01061 0.92934 0.50134 0.17828 0.01319 0.62532 0.05081 -1.1542 -0.4435 0.62629 0.20782 0.15896 -0.4639 0.09763 -0.1365 -0.0963 0.12457 -0.4911 -0.0411 0.67935 0.28913 -0.1969 0.02031 -0.3160 -0.1016 -0.6221 0.35599 -0.1089 -0.5101 0.45236 -0.5405 -0.0553 -0.1220 1.04834 0.21110 -0.3603 -0.9646 -0.0759 0.20506 0.54410 0.59722 -0.3818 -0.4644 -0.0203 0.65172 -0.5345 -0.6985 0.05224 -0.5448 -0.7364 -1.1473 -0.0912 -1.3721 -0.4801 -0.2875 0.02765 1.05781 0.16771 0.14827 -0.2757 0.02545 -0.0856 0.31959 0.32087 1.09168 1.16680 -0.1211 -0.2243 -0.7461 0.46570 -0.0767 -0.3233 -0.6662 0.74032 -0.5805 -0.6943 -0.6488 -0.2842 9.35102 -0.6818 -0.4250 -0.2517 0.88829 0.09667
省部级 -0.2282 -0.3730 -0.0868 -0.4262 0.25248 0.00699 0.11021 0.25487 0.08036 -0.1784 0.38643 0.01728 0.34304 -0.0314 0.03229 0.68678 0.08963 0.20052 -0.1308 0.02403 0.30890 0.36792 -0.7431 -0.0738 -0.3511 0.08059 -0.6431 -0.0254 0.04126 0.05762 -0.3729 -0.1981 0.02222 0.20710 -0.3216 0.08426 0.06614 0.01716 -0.0059 0.16967 -0.2016 -0.1881 0.03630 0.52447 -0.3052 -0.1893 -0.2468 -0.0082 -0.1151 -0.0753 -0.0259 -0.0368 0.02659 -0.0365 0.15558 0.07045 -0.4056 -0.3381 0.56097 0.23515 -0.0237 -0.0689 0.07865 0.11827 0.00919 -0.0835 -0.0244 0.04668 -0.1772 -0.1636 -0.2101 0.11952 0.03038 0.08853 -0.0125 -0.2153 -0.1709 -0.1608 -0.2070 -0.2616 0.02110 0.14237 -0.1737 0.00183 -0.0768 -0.0352 0.13281 -0.0200 0.02663 -0.0899 -0.0648 0.19058 -0.0835 0.00969 0.21386 -0.0638 -0.0887 0.09122 -0.1758 0.42679 0.03890 0.13183 0.06970 -0.2018 0.11272 0.20306 0.10393 -0.2333 0.33653 -0.1415 -0.2283 -0.0918 -0.1456 0.29495 0.07986 -0.0548 -0.1764 -0.2136 -0.2077 0.35404 -0.0510 -0.0193 -0.0116 0.04366 0.06511 0.07462 -0.0707 -0.0497 -0.2707 0.01206 -0.0196 0.14857 0.11133 0.14786 0.02912 -0.1037 0.03666 -0.0828 -0.0066 -0.2360 0.15128 0.02199 0.12434 -0.0976 0.11844 0.18736 0.18433 -0.1090 -0.0611 -0.2888 0.17757 0.09796 0.20371 -0.0210 -0.0941 -0.1676 0.12013 0.12437 -0.1236 0.04817 -0.3540 -0.0162 -0.4219 0.15705 0.01815 -0.0789 0.20254 -0.0118 -0.1890 0.01959 -0.0896 0.14241 0.06106 -0.1930 -0.0175 -0.0278 0.16888 -0.0058 -0.1047 -0.0271 -0.1629 0.05046 0.47559 -0.3019 -0.1985 0.03178 0.14742 -0.1015 0.00214 -0.1676 -0.2453 -0.0552 0.25652 -0.1969 -0.1201 0.08827 0.11958 0.00875 0.19191 0.02747 -0.0638 0.12787 -0.3920 -0.1732 -0.1345 0.00643 0.02267 -0.1462 0.36854 -0.2956 0.31727 0.05373 -0.0610 -0.1830 -0.1473 -0.1538 -0.3272 -0.1728 -0.3315 -0.1295 -0.0124 0.08042 -0.3262 0.38293 0.24532 -0.1853 -0.2217 -0.1658 0.26566 -0.4861 0.13590 -0.0074 0.00682 -0.0538 -0.2008 -0.3628 -0.2457 0.01003 0.15393 0.28629 -0.1802 -0.1694 0.01771 0.26851 -0.0867 0.20509 0.03215 0.17301 0.04835 -0.3464 -0.3341 0.06827 -0.2382 0.28613 0.15856 0.12073 -0.1429 0.05295 -0.3587 -0.0414 0.01895 -0.0556 0.47095 0.29169 0.32438 -0.2575 0.35677 0.20935 0.33805 -0.1635 -0.6010 0.10251 0.33078 -0.1751 0.21853 -0.1591 0.40423 -0.0650 0.40840 0.00277 -0.3585 0.18257 -0.0245 0.39586 0.50843 -0.4648 -1.1104 0.12385 0.08563 -0.0664 -0.1916 0.03857 0.64318 -0.0871 -0.5122 0.88048 0.73691 -0.1580 0.24834 0.62931
人数 -0.3095 0.58382 -0.6388 0.10171 0.52827 -0.4669 -0.2303 0.09737 0.59496 0.02246 1.08622 -0.1696 1.60292 -0.7401 0.01925 -0.1658 0.96696 0.02667 -1.2096 -0.4613 -0.6661 1.66743 0.52323 -0.0197 0.69156 -0.2787 0.78406 0.05366 0.61426 0.45141 0.92273 -1.0960 -0.7056 -0.6300 -1.1697 1.30500 0.78774 -0.6672 0.09839 1.39003 0.79662 0.94691 1.14867 -0.8661 -0.3874 -0.7619 -0.6726 -0.3342 -0.2302 -1.2862 1.30676 -0.2660 -0.3648 -0.3163 0.32719 -0.8628 -1.2538 -1.4627 -2.3538 0.60997 0.96110 -0.1185 0.86607 1.02605 0.33507 0.93106 -1.0405 -0.6952 -0.5334 0.05772 1.28989 -1.0891 1.22733 -0.4846 -1.3484 -0.1344 -0.0052 -1.3023 -0.4628 -1.3119 -0.3104 0.09665 0.97248 -0.6511 -0.6397 -0.7438 -0.1331 0.37842 0.13859 -0.9192 -0.8276 0.47583 -0.3299 -0.0779 -0.6787 1.00809 0.69796 0.25029 -0.4123 0.59350 0.25606 0.78131 -0.2926 0.66515 -0.6080 0.41911 0.27196 -0.9425 -0.5616 0.19779 -0.0449 -0.9994 0.27233 0.27656 0.71963 -0.1557 -0.6455 0.07222 -0.8836 -0.4991 -0.8080 0.83430 0.61818 0.12609 -0.9549 -0.5594 0.30449 0.18189 -1.1311 0.52624 0.73409 0.05289 -0.5740 0.56682 -1.0832 0.26073 -0.1582 0.15337 -0.9387 -0.6789 -0.0388 0.33995 0.93023 -1.2599 -0.6272 0.74252 -1.4086 0.12606 -0.4683 -0.4252 0.36170 0.84548 -0.1760 0.45434 0.81503 -0.4340 0.19016 -0.4943 -0.0558 0.76529 0.76429 0.44547 -0.3318 -0.1394 -0.3473 0.17248 -0.2975 0.64626 0.40435 0.45630 0.41414 0.80766 1.12618 -0.0253 0.26096 -0.1362 0.82392 1.07787 -0.1561 -0.4480 -1.0826 0.19384 0.45524 -0.0654 -0.5916 0.72601 0.12298 -0.4482 0.03795 0.51596 -0.1650 -0.2510 0.20104 -0.4719 -0.4129 -0.6262 -0.4762 -0.5641 -0.1678 0.27904 -0.2277 -0.2994 -0.2384 -0.6597 0.16879 -0.2312 0.49713 -0.4880 0.41746 0.52928 -0.7404 0.02712 -0.5856 0.15571 -1.2482 -0.0603 0.28246 0.27772 0.97602 0.81544 -0.8749 0.76443 0.36584 -0.0602 -1.2762 1.12170 -0.8261 -0.0919 -0.3089 -0.0377 -0.6333 -0.0857 0.47529 -0.4261 -0.3326 0.77882 0.62681 -1.2989 -0.1589 -0.5475 1.05439 -0.4612 0.80020 0.04104 0.06767 0.13947 -0.5910 0.07199 -0.3710 1.11237 -0.2437 -0.0321 -0.7373 0.57061 -0.9709 -0.0871 0.36461 0.76226 -1.6290 -0.2272 0.35980 -0.1273 0.08318 -0.0258 -0.5508 -0.3832 -0.3239 -0.9975 -1.6871 -0.5334 0.26575 0.04785 1.80906 -0.8599 -0.1181 -0.4172 -0.4056 0.51585 0.59175 -0.7896 0.36739 1.79882 0.09613 0.63737 0.30318 -0.2936 -0.0318 -0.0814 -1.0645 -0.1794 -0.9509 -0.6619 -0.4249 -0.8391 0.65173 -0.5308 0.13147 0.45828 1.79347 0.46305
科研 -0.0693 0.53782 -0.2988 0.18939 0.84805 -0.3922 -0.8083 0.67981 0.26340 -0.4212 0.77831 0.16110 1.37089 -0.9568 -0.1263 -0.4127 0.93534 -0.3297 -0.7240 -0.6957 -0.4922 1.47036 0.89214 -0.2576 0.56098 -0.6754 0.98426 0.26095 0.32911 0.27415 0.92360 -0.6435 -0.7379 -0.4746 -0.8326 0.78386 0.98068 -0.3139 0.19012 1.05546 0.72342 0.75848 1.11769 -0.9291 -0.3102 -0.5642 -0.4979 -0.4248 0.16837 -1.0390 1.63404 -0.3407 -0.1234 -0.6185 -0.1417 -0.7459 -1.0990 -1.4353 -3.2358 0.55250 1.12426 0.20238 0.79273 1.33390 0.52280 0.59193 -0.6510 -0.9442 -0.6590 0.03582 1.34304 -1.0173 1.12573 -0.4750 -0.8666 -0.0595 -0.4761 -0.9813 -0.7879 -0.7481 -0.0727 0.29346 0.64596 -0.6552 -0.7884 -0.8779 0.32403 0.10709 -0.1447 -0.9549 -0.7895 0.74160 -0.0752 0.19466 -0.4178 1.30392 0.81758 0.36556 -0.0450 0.46979 0.89994 0.58048 -0.7811 1.05655 -0.7699 0.37726 0.00306 -0.7354 -0.6599 0.37088 0.04425 -0.6934 0.18201 0.54440 -0.0012 0.46741 -0.6418 -0.0305 -0.8874 -0.7076 -0.8908 0.57090 0.93021 0.17104 -0.9539 -0.4571 0.38674 0.36090 -1.4456 0.54270 1.47062 0.15393 -1.0143 1.10846 -0.9409 0.29168 -0.4563 -0.2644 -1.2075 -0.1340 0.39017 0.68799 1.02320 -0.6627 -0.4431 0.50465 -1.6258 0.21998 -0.5647 0.06603 0.42197 0.88702 -0.5220 0.22762 1.20345 -0.9485 0.09635 -0.4436 -0.0371 0.69592 0.12403 0.06806 0.22006 0.16604 0.00119 0.27166 -0.1315 0.98066 0.48857 0.36874 0.23892 0.62142 0.88722 0.41119 0.00318 0.19464 0.76807 1.13262 -0.0669 -0.4675 -0.3754 -0.6475 0.43302 0.18940 -0.5615 0.50258 0.07331 -0.4761 -0.5994 0.96333 0.19464 0.26457 -0.8259 -0.2783 0.11061 -1.4632 -0.7173 -0.9041 0.31515 0.57305 0.27466 -0.0509 -0.0746 -0.7751 -0.1098 -0.1416 0.38751 -0.6119 -0.2789 0.31326 -1.0713 0.11607 -0.6234 -0.0098 -0.7080 0.00720 0.45173 -0.4791 0.51302 0.55290 -0.3718 0.68749 0.51158 0.16703 -0.8592 0.86345 -0.4642 -0.1438 -0.4785 -0.1058 -0.7960 -0.7030 0.21914 -1.0027 -0.6304 1.26319 0.66461 -1.1723 -0.2867 -0.1477 0.19496 -0.9344 1.29444 0.29526 -0.3164 0.59540 -0.8576 0.00164 -0.0031 0.96482 -0.2564 -0.2142 -1.4790 0.65824 -0.8526 -0.4486 0.29339 0.22788 -1.5090 0.04463 0.58070 -0.5620 0.04379 0.16716 -0.1780 -0.3760 -0.6727 -0.8235 -1.4718 -1.0924 -0.0837 0.10209 0.66459 -0.7151 -0.0595 -0.7851 0.41834 0.38135 -0.0301 -0.4281 0.92490 1.28251 0.08515 0.70677 0.11983 -0.3633 0.15406 0.25700 -1.2401 0.24319 -1.1034 -1.2521 -0.2112 -0.6766 -0.6727 -0.2428 0.70930 0.20357 1.39997 0.75328
经济学 0.03236 -0.4802 0.01021 -0.4499 0.07486 0.06823 -0.1338 0.16236 -0.0762 0.02242 -0.2115 -0.1121 0.18147 -0.1835 -0.1288 0.43793 0.01548 0.07803 0.15856 -0.2241 0.25543 0.32825 -0.4012 -0.1362 -0.1255 0.01088 -0.2318 0.10207 -0.1986 0.18623 -0.2367 0.08995 0.17765 0.05260 -0.1865 -0.2709 -0.3315 -0.0161 -0.0417 0.24716 0.20847 -0.2996 0.10057 0.23939 0.04452 -0.1258 -0.3341 -0.0984 -0.3792 -0.0744 0.10874 -0.1848 0.09045 -0.4119 -0.0132 0.02504 -0.1817 -0.3392 0.98131 0.01935 -0.1121 0.03591 0.39024 0.10450 -0.2265 -0.2358 -0.0122 -0.0589 -0.0423 0.11168 0.22001 -0.0588 -0.0076 0.15801 -0.0399 -0.3510 -0.1979 -0.0634 -0.0233 -0.2079 -0.0561 0.29104 -0.2488 -0.0495 -0.2988 -0.1350 -0.0657 0.32470 -0.0585 -0.1588 -0.1156 0.38636 -0.0192 -0.0828 0.09576 -0.0163 0.03805 0.20103 0.27028 0.01593 0.19485 0.24706 0.14199 -0.3097 -0.0935 0.08808 0.52546 -0.1427 0.11883 0.12437 -0.1573 0.21559 0.06869 -0.0214 0.03156 0.18318 -0.0953 -0.1749 -0.2185 0.00487 0.05350 -0.0158 -0.1566 0.12951 -0.1755 0.20158 0.04951 -0.4085 -0.1468 -0.0584 0.00640 -0.2038 0.27939 0.19377 0.46315 -0.2652 0.17653 0.22722 0.13062 -0.3299 -0.1873 -0.0902 0.15810 0.20500 0.13459 0.05273 -0.1506 -0.0511 -0.1406 -0.2986 -0.0647 -0.1390 0.05920 0.41288 -0.0814 -0.1956 -0.0313 0.18222 -0.0346 0.07252 -0.0396 0.03637 -0.1453 0.20117 0.22612 -0.0042 0.20998 -0.2895 -0.2284 0.14442 -0.1365 -0.1272 -0.1009 -0.1199 -0.3038 -0.3053 -0.0618 0.02103 -0.1503 0.05500 -0.0965 -0.0676 0.19290 0.07363 -0.2585 0.35913 -0.1515 -0.1003 -0.0440 -0.0473 -0.0821 -0.2650 0.06200 -0.1337 -0.0897 -0.4517 0.34845 -0.0124 -0.3372 -0.2634 0.05201 0.18940 -0.3649 0.17831 -0.2268 -0.5781 0.00722 0.17867 0.53842 -0.0789 0.20028 -0.0505 0.26629 0.01064 -0.6014 -0.2600 -0.2361 -0.2618 -0.3382 0.04073 -0.0704 -0.0664 0.03451 0.35977 0.11723 -0.1154 -0.2328 -0.2253 0.31131 -0.2658 -0.0988 -0.0217 0.15388 0.14932 -0.8665 -0.1256 -0.2478 -0.6963 -0.4068 0.16102 -0.0184 -0.0610 0.08646 0.63246 0.29142 0.30503 -0.2874 0.51386 -0.0373 0.10465 0.07750 -0.1988 0.01427 0.41125 -0.0961 0.01059 0.00015 0.31309 -0.2445 -0.1727 -0.0700 0.38727 0.42211 0.27949 0.26096 -0.2417 0.68443 0.47312 0.76741 -0.0447 -0.8482 0.11512 0.39560 -0.3637 0.29183 0.04519 0.94960 -0.1462 -0.1265 -0.1488 -0.4433 0.18650 -0.2518 0.76828 1.37527 -0.4077 -1.2941 -0.4769 -0.1751 -0.1330 -0.4388 0.65067 0.42582 0.06358 -0.9040 1.01245 1.04656 0.34714 -0.0278 0.50950
点击数 0.02540 -0.2643 -0.3601 -0.4407 -0.3031 0.21716 0.00959 0.09214 0.00284 -0.2740 0.16130 -0.0105 0.18072 0.10076 0.21456 0.50528 0.39066 0.86849 -0.2171 -0.1501 0.46204 0.33560 -0.4711 0.14392 -0.1521 0.12231 -0.2803 -0.0796 -0.0363 0.31574 -0.2289 -0.0987 0.25294 0.25729 -0.2121 0.19488 -0.1630 -0.3991 -0.1552 0.01307 0.09389 -0.2879 -0.0642 0.42604 0.02785 0.00246 -0.1351 -0.0506 -0.5953 -0.1412 -0.0800 -0.0400 0.09082 -0.2962 0.24400 -0.0932 -0.5812 -0.1547 0.71363 0.07299 -0.1435 -0.1044 0.31683 0.05589 -0.3768 -0.1628 0.09348 -0.0636 -0.0210 0.13304 -0.0861 0.02637 -0.0462 0.25024 -0.3696 -0.3281 -0.1237 -0.1616 -0.3202 -0.1616 -0.0274 -0.0024 -0.0121 -0.0068 -0.0991 0.21379 -0.0808 0.38885 0.10491 0.12754 -0.2206 0.08488 -0.1381 -0.0083 -0.1010 0.15844 0.13539 -0.0551 -0.1277 0.16851 0.08325 -0.0542 0.16870 -0.0763 0.03083 0.08783 0.55876 0.04802 -0.0779 0.12846 -0.3209 0.03297 -0.1565 -0.0836 0.20426 -0.1486 -0.0388 -0.1965 -0.0322 -0.0768 -0.0405 0.10703 -0.1154 -0.0069 -0.2419 -0.0455 -0.1120 -0.2693 -0.1936 -0.0649 -0.0275 0.19103 0.05606 0.01604 0.24686 0.01662 0.09782 0.53140 -0.2692 -0.6152 -0.1309 0.11338 0.28996 0.18155 0.00940 -0.0429 0.08721 0.23307 -0.3075 -0.0552 0.32974 -0.0784 0.12193 0.25072 -0.3409 -0.0818 0.35284 0.12624 -0.2736 -0.0240 -0.1766 0.01106 0.04437 0.33364 -0.0686 -0.3236 0.20406 -0.6151 -0.1926 0.06422 -0.1939 0.30236 -0.1355 -0.0545 -0.3001 -0.3777 0.20615 0.08328 -0.1562 -0.0474 -0.4330 0.22253 0.00409 -0.2505 -0.2232 0.28237 -0.1904 -0.3576 -0.1160 -0.2838 -0.1207 -0.3129 0.17763 -0.1534 -0.4362 -0.2245 0.37329 0.26856 0.07064 -0.1004 0.15280 -0.2324 -0.3714 0.69091 -0.3134 -0.5964 -0.1132 -0.0498 0.65707 0.30982 0.29220 -0.1971 0.16561 0.36518 -0.4780 -0.3080 -0.4057 -0.3144 -0.0757 0.11086 0.17615 -0.0552 0.03067 0.56159 0.38698 -0.0156 -0.4865 -0.0836 0.37432 -0.1822 0.22371 -0.3298 0.05250 0.33891 -0.2787 -0.5701 -0.0141 -0.4529 -0.1790 -0.0180 0.23134 -0.0296 -0.1013 0.26143 0.26825 -0.0419 0.10168 0.19474 0.08008 0.27791 -0.5486 -0.0009 -0.0288 0.33851 -0.0143 -0.0042 -0.2055 0.35392 -0.5043 -0.2649 -0.1224 0.30042 0.37204 0.19689 0.31939 -0.3799 0.30360 0.08017 0.56765 -0.0444 -1.0100 0.17578 0.81300 -0.3433 0.36995 0.23357 0.55167 -0.1878 0.57742 -0.4853 -0.6036 0.07000 -0.1897 0.23381 0.67722 -0.5397 -1.1331 -0.1570 -0.1033 -0.5542 -0.4720 0.45250 0.54576 -0.1323 -0.1273 0.57937 0.94790 0.13682 0.36284 0.34035
格式 0.25289 0.88225 -0.5720 0.26688 0.59511 0.00240 -0.5186 -0.0546 -0.1196 -0.4129 0.58497 0.07336 1.84960 -1.1513 0.28353 -0.1373 0.29632 -0.4689 -1.4650 -0.1240 -0.8780 0.99706 0.58390 0.20343 0.21701 -0.0656 0.94445 0.26068 0.93626 0.44551 0.61168 -0.8950 -0.6456 -0.6384 -1.3506 0.93275 0.49575 -0.7045 0.12097 1.53223 0.70288 0.62063 1.24369 -0.7062 -0.6372 -0.3493 -0.8379 -0.2647 0.31568 -0.4831 0.93607 -0.7990 -0.6075 -0.7330 0.27270 -1.0399 -1.0478 -0.7672 -3.0992 0.31143 0.45389 0.00397 0.87337 0.88524 0.44802 0.61154 -0.8990 -0.7076 -0.2614 -0.1780 0.99940 -0.8041 0.60594 -0.5336 -0.6058 0.38796 -0.0043 -1.1404 -0.6996 -1.4001 -0.4787 -0.2191 1.34042 -0.6704 -0.6944 -0.4456 0.25771 0.34291 0.14951 -1.4075 -0.5582 0.46602 -0.5658 0.31113 -0.7361 0.50237 0.66439 0.53958 -0.1773 0.51823 0.56420 0.44121 -0.8694 0.83874 -0.2400 0.74163 -0.0754 -0.4294 -0.7456 0.10916 -0.1020 -0.3063 -0.4663 0.68354 0.42267 -0.0468 -0.5099 0.26993 -0.6743 -0.5656 -0.8054 0.71949 0.62361 -0.5244 -0.9128 -0.9029 0.89009 0.57685 -0.8944 0.17643 0.67131 0.27333 -0.9069 0.86132 -1.2049 0.42671 -0.3242 -0.0192 -0.4803 -0.3197 0.00531 0.93861 1.43486 -1.1574 -0.8039 0.73371 -1.1805 -0.4730 -1.0851 -0.3331 0.71167 0.87569 -0.4099 -0.1866 0.50866 -0.3402 0.49245 -0.4264 -0.1977 0.57333 0.39192 0.16514 0.70223 -0.0489 -0.2217 0.13701 0.11678 0.94943 0.40690 -0.1326 0.39757 0.00934 1.01085 -0.0182 0.01670 0.20769 0.80945 0.52170 -0.2206 -0.6101 -0.7650 -0.9637 0.09999 0.36846 -0.7089 0.61972 -0.4759 -0.7130 -0.1883 0.40401 -0.6171 -0.0526 -0.3830 -0.5018 -0.0796 -0.3519 -0.7987 -0.4114 0.22195 0.22631 -0.1548 -0.2457 -0.0094 -0.8115 0.47963 -0.3469 0.56086 0.14424 0.08658 0.63395 -0.9455 0.00491 -0.5892 0.22302 -0.5165 0.43370 0.96575 -0.3190 0.54625 0.58221 -0.3569 0.22746 0.47545 -0.5347 -0.8289 0.82478 -0.7045 -0.8305 -0.3259 0.03097 -1.1458 -0.3993 -0.0460 -0.7064 0.11966 1.16170 0.66920 -0.9187 -0.1088 -0.2103 0.24381 -0.9125 0.74695 -0.2586 -0.6631 0.61066 -0.9968 -0.3527 -0.0194 0.54366 -0.4650 0.04098 -1.2054 0.24705 -0.7531 -0.4137 0.70912 0.57170 -1.2939 -0.0138 0.77508 -0.5751 -0.2549 -0.0725 -0.3426 -0.9826 -0.7307 -0.4948 -2.4083 -1.3622 -0.7597 0.20374 1.25708 -0.5827 -0.0594 -0.4382 -0.0522 0.58934 -0.0394 -0.5042 0.81173 1.40657 0.24468 0.24042 -0.3843 0.09333 -0.2196 0.58834 -0.8544 0.07208 -1.2335 -1.2338 -0.5853 -0.6196 0.71262 -1.2158 0.31314 0.18532 1.53188 -0.0788
科学 -0.2520 0.66678 -0.1900 0.02554 0.99934 -0.4440 -1.0533 0.17721 0.52609 -0.0704 0.81464 -0.0170 1.70473 -0.8844 -0.0362 -0.1891 0.76109 -0.1978 -1.1711 -0.8662 -0.3712 1.61213 0.99776 -0.2521 0.51850 -0.5229 1.11111 0.32883 0.53965 0.21834 0.73448 -0.6922 -0.6537 -0.7074 -0.9080 0.99276 0.94500 -0.5912 -0.0233 1.47325 0.94682 0.75080 1.08075 -0.9383 -0.2430 -0.5584 -0.7543 -0.3922 -0.0238 -1.0613 1.56320 -0.4341 -0.3699 -0.8989 0.14041 -0.5580 -0.8704 -1.2894 -2.7014 0.46904 0.89049 -0.0065 0.77282 1.24398 0.19920 0.84058 -0.5605 -0.6239 -0.4659 0.24753 1.41764 -0.8633 1.21741 -0.6187 -0.9037 0.29888 -0.2511 -0.8884 -0.7752 -1.2277 -0.3705 0.23789 0.56146 -0.7884 -1.3120 -1.1646 0.14990 0.38383 0.04589 -0.9465 -0.8549 0.76408 -0.0541 0.00673 -0.1139 1.23968 0.39722 0.01243 0.17100 0.26839 0.57374 0.50274 -0.6024 0.89619 -1.2014 0.43932 0.31157 -0.6870 -0.8494 0.17256 0.04965 -0.7385 0.16551 0.51326 0.52103 0.47933 -0.4107 0.06971 -1.1130 -0.7523 -0.8532 0.55429 0.64999 0.28379 -1.3763 -0.6255 0.86447 0.37301 -1.1759 0.40415 1.28710 -0.1634 -1.0284 1.22941 -0.6164 -0.0398 0.03772 -0.3737 -1.0877 -0.7467 0.16008 0.86335 1.10947 -0.6725 -0.4745 0.74327 -1.8709 -0.0085 -0.3949 -0.4066 0.33947 0.64250 -0.3016 0.49012 0.84830 -0.8055 0.57044 -0.4860 -0.3930 0.20955 0.44394 0.40165 0.51530 0.19302 0.17556 0.36988 0.09528 0.63243 0.44280 0.37520 0.41977 0.47943 0.98317 0.17403 0.10208 -0.0642 0.79780 1.20266 0.09950 -0.2768 -0.4827 -0.7292 0.30391 0.50548 -0.4579 0.66192 0.09951 -0.1159 -0.4749 0.68849 0.01596 0.23807 -0.4679 -0.5874 -0.3067 -0.9988 -0.5849 -0.8997 0.02086 -0.1428 0.13149 -0.1337 0.06204 -0.5096 0.13733 -0.1306 0.22908 -0.4015 0.10234 0.20469 -1.0915 0.31719 -0.2600 0.17842 -0.8200 0.07336 0.59923 -0.3181 0.62870 0.45645 -0.4545 0.66144 0.67937 -0.3600 -0.8607 0.80167 -0.1399 -0.2405 -0.7768 0.27501 -0.9166 -0.5432 0.62289 -0.8118 -0.5868 1.16202 0.21530 -1.5471 -0.1745 -0.0985 0.60644 -0.7777 1.02114 -0.1833 -0.3120 0.37546 -1.0096 0.08360 -0.1078 0.97667 -0.1832 -0.1410 -0.9022 0.75215 -0.7287 -0.1839 0.29382 0.21513 -1.5646 -0.3118 -0.0953 -0.2182 0.18622 0.32001 -0.7376 -0.3414 -0.6168 -0.2524 -1.8853 -1.0476 -0.8040 -0.0192 1.05081 -0.9104 -0.1716 -0.0783 0.23330 0.58897 -0.2527 -0.6923 0.79539 1.44567 0.28844 0.77482 0.39802 -0.3194 0.13509 0.04438 -1.0562 0.30319 -1.1118 -1.0304 -0.5431 -0.7090 -1.0151 -0.3618 0.53934 0.49076 1.10647 0.26709
网络 -0.1769 0.98939 -0.7294 0.10610 0.62832 -0.1702 -0.6256 0.23015 0.22172 -0.0922 0.91097 0.19969 1.40010 -0.6137 0.30078 -0.3682 0.95487 -0.0081 -1.0570 -0.6424 -0.6274 1.41953 0.65154 0.07943 0.72189 -0.3753 0.78786 0.09967 0.42021 0.51755 0.90126 -0.8105 -0.8383 -0.5903 -0.9144 0.97103 0.76423 -0.4721 0.26956 1.49441 1.01518 1.09243 0.87892 -0.7736 -0.6384 -0.3201 -0.9462 -0.5130 0.00658 -0.9486 1.13539 -0.4684 -0.3706 -0.9683 0.33943 -0.9546 -1.0524 -1.4773 -2.4578 0.48851 1.03754 -0.0466 0.94484 0.97074 0.24107 0.51675 -0.8632 -0.5759 -0.5575 0.21782 1.23463 -0.5743 1.36281 -0.0961 -0.8729 0.04888 0.24596 -1.3027 -0.6842 -1.1258 -0.2649 0.16677 1.00273 -0.3803 -0.7815 -0.9468 0.33701 0.30385 -0.2332 -1.2359 -0.9336 0.49743 -0.1221 -0.3464 -0.7745 0.91191 0.47855 0.16698 -0.1067 0.32239 0.35059 0.56045 -0.6443 1.08442 -0.6768 0.61060 0.25698 -0.7035 -0.4681 0.08019 -0.0868 -0.9559 0.13353 0.18203 0.17730 0.23172 -0.5770 0.26967 -0.6878 -1.0499 -0.5073 0.66259 0.12255 -0.0510 -0.7862 -0.5597 0.74842 0.41916 -1.0727 0.56749 1.11794 -0.1779 -0.8657 1.09396 -1.0552 0.36106 -0.3188 0.09090 -0.8257 -0.5930 0.41549 0.39917 1.00864 -1.1151 -0.6184 0.41331 -1.4752 0.01956 -1.0243 0.22576 0.57521 0.36017 -0.1092 0.32266 0.65055 -1.0123 0.42292 -0.5050 -0.1657 0.40575 0.19342 0.20002 0.30920 -0.0121 -0.0347 0.16019 0.26085 0.76672 0.44474 0.13134 0.73830 0.06017 1.37157 -0.2125 -0.2376 0.13372 0.70524 0.69085 -0.1239 -0.1009 -0.6179 -0.7478 -0.0024 0.44375 -0.4388 0.55930 0.08327 -0.5765 -0.2821 0.44194 0.01498 -0.2155 -0.5126 -0.1541 -0.1795 -0.4280 -0.5167 -0.7080 -0.2888 0.00275 -0.1270 -0.2640 -0.0793 -0.5400 0.11528 -0.4624 0.51594 -0.2653 -0.0445 0.06309 -0.8322 0.25643 -0.3077 0.64528 -0.7723 0.12807 0.10639 0.19540 0.80810 0.74673 -0.3043 0.86323 0.45896 -0.2344 -1.0545 0.94559 -0.4776 -0.5687 -0.3156 0.29364 -1.1459 -0.5831 0.52802 -0.7923 -0.4250 1.45595 0.73220 -1.3990 -0.3218 -0.4653 0.26587 -1.3121 0.62922 -0.3727 -0.5053 0.24464 -0.9242 -0.7771 -0.3832 0.78503 -0.1989 0.01997 -0.8766 0.18452 -0.8846 -0.0073 0.65762 0.17169 -1.4508 -0.2999 0.44727 -0.0920 -0.1106 0.38161 -0.3822 -0.3947 -0.8993 -0.7649 -1.5803 -1.1170 -0.5001 -0.0516 1.45577 -0.8979 0.06402 -0.0166 0.43769 1.02996 0.12282 -0.6125 0.41549 1.45693 -0.2004 0.02846 -0.1450 -0.2924 -0.2141 0.66718 -1.5942 0.07299 -1.1757 -1.0309 -0.4656 -0.8878 0.22164 -0.4578 0.42106 0.38410 1.10702 0.24010
机制 -0.0055 0.78845 -0.6010 0.31212 0.54484 -0.1614 -0.4570 0.13053 0.22235 0.02487 0.99395 0.06882 1.41720 -0.8502 0.22441 -0.2708 0.68492 0.02103 -1.0797 -0.9501 -0.7160 1.52005 0.61575 -0.1279 0.63511 -0.3799 1.00218 -0.0714 0.56358 0.37751 1.06276 -0.7358 -0.7208 -0.7314 -0.8939 1.01900 1.00122 -0.2949 0.30581 1.46096 1.18731 0.92537 0.80360 -0.6136 -0.3783 -0.6074 -0.7704 -0.4292 -0.1032 -1.2767 0.95171 -0.5380 -0.4533 -0.6063 0.24530 -0.6480 -1.2191 -1.1074 -2.7921 0.45584 0.70088 0.03459 0.85072 0.95223 0.58676 1.05014 -1.0150 -0.6881 -0.5445 -0.4288 1.56434 -0.7747 1.08711 -0.0799 -0.8533 0.27563 -0.0389 -0.9204 -0.6349 -1.1650 -0.2097 0.12254 0.90263 -0.2566 -0.8706 -0.9937 0.30299 0.69489 -0.0240 -1.1090 -0.6712 0.83196 0.18860 -0.0111 -0.7334 1.19468 0.56854 0.22035 -0.1264 0.04028 0.13142 0.50742 -0.4825 1.07482 -0.5161 0.56302 0.11847 -0.8573 -0.4204 0.15509 -0.2087 -0.7333 0.07455 0.44679 -0.1127 0.44733 -0.4915 0.06193 -0.8725 -1.1915 -0.7870 0.51717 0.22462 0.16308 -0.8097 -1.0415 0.40232 0.28239 -0.9908 0.60601 1.07424 -0.1198 -0.8441 1.03016 -0.9559 0.41889 -0.1281 -0.0963 -1.2157 -0.6491 -0.1668 0.68577 1.34846 -1.2290 -0.7239 0.58129 -1.5084 -0.2283 -0.8094 0.05861 0.60527 0.30980 -0.1510 0.38907 0.56095 -0.7974 0.66400 0.03822 -0.0284 0.41248 0.25469 0.47638 0.45273 0.28141 -0.6902 -0.1113 -0.1123 0.56916 0.51283 0.21447 0.61170 -0.1087 1.38903 -0.3185 0.14621 -0.2678 0.60321 0.75359 0.10017 -0.4899 -0.7763 -0.4226 0.31874 0.66870 -0.2986 0.80416 -0.1070 -0.2146 -0.7239 0.63867 -0.2892 -0.2830 -0.2954 -0.6152 0.01258 -0.2514 -0.5000 -0.6021 -0.1558 0.29794 -0.1228 -0.1649 -0.3771 -0.8420 -0.0354 -0.3909 0.55612 -0.4092 -0.0012 0.33055 -0.6264 0.20872 -0.3342 0.34254 -1.0202 -0.1440 0.18524 -0.2542 0.23056 0.94645 -0.5841 0.53855 0.51951 0.11731 -1.1222 0.81573 -0.6816 -0.0571 -0.7469 -0.1290 -0.5635 -0.5234 0.44797 -0.7466 -0.4984 1.31142 0.39732 -0.8523 -0.0001 -0.3382 -0.0123 -1.3183 0.23254 -0.5526 -0.6751 0.10556 -1.0011 -0.7646 -0.1779 1.12816 -0.3140 -0.1384 -1.0951 0.81962 -0.6768 0.13622 0.45329 0.31859 -1.3581 -0.2198 0.01445 -0.6366 -0.3527 -0.1045 -0.4301 -0.0441 -1.1697 -0.6383 -1.9041 -0.6750 -0.6845 -0.0779 1.33589 -0.7992 -0.0267 -0.4713 0.23537 0.72947 0.32893 -0.5517 0.71849 1.68992 0.12022 0.35235 -0.0112 -0.1881 0.11870 0.63421 -1.3454 0.30996 -1.4164 -0.9282 -0.6332 -0.2485 0.10433 -0.6503 0.37048 0.18707 1.79877 0.11704
日期 -0.6528 0.88055 -1.3368 0.23084 0.75958 -0.3197 -0.6592 0.02700 -0.0778 0.09776 1.06622 0.37871 2.05197 -0.9015 0.19817 -0.5575 1.16612 -0.4261 -2.0408 -0.4829 -0.8278 1.25229 0.70484 -0.1363 0.68354 0.34233 0.99734 0.09582 0.73311 0.35574 0.33744 -1.0179 -0.9156 -0.7264 -0.9686 0.64649 0.91620 -0.5777 0.45272 1.43382 1.05308 1.01863 1.66198 -0.8848 0.11653 -0.5495 -1.0333 0.05691 0.44640 -0.6712 1.41766 -0.8110 -0.4981 -0.3124 0.41535 -0.9689 -1.1121 -0.9173 -2.5628 0.68906 0.57294 0.62733 0.15339 1.14855 0.09552 1.18229 -1.1202 -0.6391 -0.6393 -0.3961 1.11638 -1.2356 1.13486 -0.5697 -0.6919 0.56750 0.04034 -0.8690 -0.7920 -1.6050 0.12626 -0.0239 0.76898 -0.6953 -0.7712 -0.6404 0.21716 0.43533 0.32088 -0.7413 -0.6841 0.60975 -0.5089 -0.2361 -0.9000 0.94042 0.40343 0.73810 -0.3333 0.60261 0.67811 0.43032 -0.4775 0.52538 0.06575 0.91224 0.04266 -0.5264 -1.1580 0.37698 0.01755 -1.1379 -0.2504 0.37074 0.12387 0.00412 -0.3066 0.45488 -0.9396 -0.5034 -0.9031 0.62646 0.51487 -0.4935 -0.5445 -0.8515 1.06693 0.38331 -1.4014 0.18131 0.31169 0.10298 -0.3833 0.73176 -1.1155 0.85099 -0.3798 -0.0525 -0.4004 -0.6400 0.13887 0.70543 1.13375 -1.7072 -0.5620 0.32814 -1.4188 -0.2825 -0.8009 -0.2896 -0.2022 0.82090 0.01840 0.08343 1.31236 -0.7973 0.26928 -0.2600 0.05308 0.65737 0.84614 1.16352 0.36044 -0.2650 0.08505 0.30393 -0.7897 0.93637 0.16094 0.40893 0.91608 0.45766 0.68257 0.09308 0.65833 0.00509 0.17894 0.43277 -0.0329 -0.7299 -0.7985 -0.3450 -0.2398 0.05246 -0.2364 0.74320 -0.7535 -0.4774 0.25534 0.16244 -0.7709 -0.0379 -0.0660 -0.2190 -0.1745 0.02339 -1.4920 -0.5860 -0.4497 0.27185 0.25892 -0.5100 0.07669 -0.6110 0.21877 -0.3159 -0.0732 0.19919 0.02328 0.20584 -0.3267 0.61734 -0.6821 -0.1178 -0.9623 -0.1356 0.67945 -0.5473 0.81774 0.98121 -0.6526 0.24053 0.57117 -0.1359 -1.0725 1.20678 -0.4642 0.44252 -0.3172 0.45546 -1.0260 0.01243 -0.2333 -0.4880 0.66156 0.75319 0.09470 -0.8773 -0.7704 -0.1379 0.76211 -1.3337 1.14372 0.28496 -0.3790 0.65539 -0.1005 -0.4605 -0.1508 0.48338 -0.0781 -0.4091 -1.3588 0.12477 -0.7737 -0.0575 0.76200 0.67538 -1.8519 0.19516 0.55586 -0.6145 0.19404 -0.1216 -0.5109 -0.8949 -0.2942 -0.7196 -1.6733 -0.5652 -0.3562 0.49491 1.16011 -0.8889 0.07305 -0.2660 -0.4681 0.55263 0.50227 -0.1785 0.53053 0.86293 0.35681 0.36603 -0.0037 -0.1125 0.03754 0.52827 -0.4297 -0.0139 -1.0883 -0.6574 -0.5078 -1.4196 0.05044 -1.1100 0.20331 -0.3726 1.32482 -0.3154
官网 0.06674 -0.2435 -0.0584 0.33011 0.01991 0.27767 -0.0463 -0.1361 0.32910 0.14374 0.43564 0.06186 -0.0145 0.02317 0.07038 0.31288 0.04035 0.10327 -0.1300 0.02769 0.46815 0.45412 -0.5054 0.08098 -0.2798 0.12031 -0.2556 -0.1524 -0.0667 0.17610 -0.2631 -0.1100 0.20487 0.17919 -0.2231 -0.1523 0.00891 -0.0057 0.25610 0.20797 0.03195 -0.1264 -0.3290 0.39467 -0.2754 0.30989 -0.2157 -0.1405 -0.2054 -0.1150 -0.1084 0.06524 0.06912 0.01246 0.25806 -0.2650 -0.3646 0.03347 0.43723 0.01017 0.05286 0.08636 0.22815 -0.0790 -0.0544 0.24869 0.17584 0.33283 -0.4450 -0.3455 -0.4700 0.14839 -0.2010 0.24894 0.34837 -0.0762 -0.0128 0.00102 0.11303 0.00662 0.06213 0.17762 0.04344 0.32387 0.22281 -0.0089 0.25846 -0.4238 -0.1796 -0.1389 0.28750 -0.1125 0.07793 -0.3922 0.14719 -0.0933 0.32446 0.34172 -0.1212 0.17261 0.55905 0.63288 0.18544 -0.5905 -0.1369 0.55969 0.12082 -0.4743 0.13337 0.42456 0.13738 0.15555 -0.1040 -0.1091 0.00875 -0.0309 -0.1670 0.00385 -0.0968 0.14720 0.17839 0.23956 -0.2081 -0.0835 0.12781 -0.2279 0.30473 0.35692 0.13672 0.18361 -0.2182 0.17295 0.25337 -0.3032 -0.1458 0.18317 0.06246 0.19099 0.14853 0.08779 0.05961 -0.1499 -0.3356 0.29850 0.19512 0.22783 -0.1132 0.08007 -0.0914 -0.2358 -0.0429 0.01938 0.54334 -0.0702 0.14556 0.00344 -0.3893 -0.1369 0.12359 0.31278 -0.0915 -0.0365 -0.7711 -0.1936 0.26482 0.10481 0.18765 -0.4017 -0.2175 0.25400 -0.2640 0.29633 -0.1856 -0.0102 -0.2549 0.24912 0.00084 -0.0144 0.08323 -0.1545 -0.3130 -0.0327 0.50067 -0.2700 -0.0751 0.12507 -0.1167 -0.6078 -0.4636 -0.1540 -0.1782 0.01727 -0.1458 0.00413 -0.0809 -0.2177 0.47024 -0.3082 0.07200 -0.2334 0.08159 -0.0572 -0.7011 0.05601 -0.3701 -0.1581 0.11270 0.44530 0.40601 0.10500 -0.2818 0.45562 0.01946 0.46941 -0.4947 0.17088 -0.3531 -0.3305 -0.3016 0.15243 -0.1587 0.58055 -0.1724 0.42126 0.29528 -0.1568 -0.2977 -0.2005 0.44567 -0.3421 0.37143 -0.0677 0.04337 0.04002 -0.4300 -0.0034 -0.5043 -0.4293 -0.1805 -0.1101 -0.0594 -0.3402 -0.2246 0.50994 0.08485 -0.0363 0.08681 -0.0833 -0.1205 -0.0786 -0.0622 0.12472 -0.2165 -0.0129 0.02695 0.22696 0.04112 -0.1357 -0.5716 -0.1081 -0.1189 0.20951 0.49925 0.22542 0.14461 -0.4156 0.36016 0.41890 0.43241 -0.3322 -0.7243 0.08563 0.62236 -0.3985 0.24505 -0.0883 0.70782 -0.1832 0.47014 0.23118 -0.7392 0.25136 -0.5032 -0.1597 0.68921 -0.9330 -1.1914 0.16958 -0.3623 -0.4405 -0.4764 1.18100 0.82814 -0.1552 -0.4060 0.83761 0.71731 -0.2574 0.22195 0.31770
时间 -0.1455 0.80087 -0.6273 0.01947 0.47933 -0.2987 -0.7055 -0.0759 0.23533 -0.1249 0.74808 -0.0285 1.43207 -0.7346 0.34054 -0.1636 1.24100 -0.1906 -1.4946 -0.6410 -0.8961 1.30270 0.46630 -0.1590 0.76956 -0.0177 1.05022 0.14276 0.72940 0.06197 0.84545 -1.0269 -0.9258 -0.7039 -0.8049 0.78217 0.71265 -0.4382 0.29010 1.33337 1.20955 0.85679 1.25977 -0.5766 -0.3378 -0.1936 -1.1006 -0.3921 -0.0265 -0.9811 1.17566 -0.4122 -0.3923 -0.6101 0.24685 -0.8533 -1.4095 -1.3410 -2.6515 0.55645 0.74322 0.17652 0.51996 1.32937 0.26492 0.75623 -1.0928 -0.7711 -0.6309 -0.3394 0.97787 -0.8526 1.40338 -0.5020 -0.8377 0.08374 -0.0263 -0.8172 -0.6152 -1.4863 -0.4362 -0.0630 0.58989 -0.5377 -0.5689 -0.8684 -0.0276 0.40829 0.32224 -0.7889 -1.2213 0.57104 -0.3729 -0.2374 -0.5006 1.45099 0.45785 0.11672 -0.0747 0.12196 0.57660 0.58867 -0.1573 0.54374 -0.4902 0.59632 0.40513 -0.9810 -0.8426 0.37378 -0.1438 -0.8000 0.14981 0.34924 0.21196 0.21330 -0.1855 0.40860 -1.0093 -0.8060 -0.7695 0.61853 0.64037 -0.0333 -0.8007 -0.8053 0.31323 0.23452 -1.3377 0.54966 0.66768 -0.0336 -0.5438 0.70054 -1.0022 0.85178 -0.1085 -0.0372 -0.8779 -0.5019 -0.0285 0.59709 1.36514 -1.2433 -1.1319 0.44425 -1.1783 -0.0813 -0.9007 -0.0571 0.22954 0.50862 0.06233 0.51031 0.79913 -0.8064 0.74071 -0.0939 -0.2239 0.46364 0.27252 0.49631 0.37126 0.63058 -0.2292 -0.0423 -0.4196 0.87217 0.19580 0.00939 0.79907 0.69987 1.19251 -0.0436 -0.0484 -0.2589 0.61815 1.13820 -0.2521 -0.1523 -0.7730 -0.0789 -0.1741 0.33283 -0.3647 0.50509 -0.1877 -0.3689 -0.0445 0.51489 -0.3839 -0.3154 0.02248 -0.5927 -0.4839 -0.2338 -0.4032 -0.6573 -0.1794 0.36544 0.02066 -0.6561 -0.0050 -0.6206 0.09576 -0.3418 0.07247 -0.5116 0.00514 0.37719 -0.5608 0.40566 -0.9063 0.20526 -0.9113 -0.1216 0.24884 -0.4565 0.99355 0.91138 -0.5864 0.77180 0.32703 0.14050 -1.1007 0.96753 -0.6571 -0.3797 -0.5651 0.14555 -0.6686 -0.5502 -0.0116 -0.2612 -0.2666 0.75205 0.07952 -1.3144 -0.0672 -0.1431 0.75890 -1.2053 0.73654 -0.1666 -0.5715 -0.1213 -0.4357 -0.2303 -0.1026 1.06727 -0.6750 -0.1801 -1.0608 0.41873 -0.2922 -0.2756 0.62184 0.71627 -1.5843 -0.1854 0.05571 -0.3866 -0.4711 -0.0087 -0.2774 -0.2980 -0.3240 -1.2426 -1.5199 -0.7124 -0.3641 0.21505 1.10479 -1.0890 0.28734 0.39320 -0.3894 0.31595 0.29954 -0.6540 0.59640 1.83136 -0.0658 0.64808 0.09395 -0.5165 0.00298 0.29790 -0.9875 -0.2613 -0.9796 -0.6995 -0.2784 -0.9639 0.13650 -0.6348 0.85749 0.34965 1.24731 -0.1551
家 -0.4014 1.43848 -1.2529 0.18646 1.23171 -0.2860 -1.2456 0.23172 0.35970 -0.3252 1.53126 0.19525 2.17886 -1.8472 0.31793 -1.0936 1.18326 -0.7628 -2.1994 -0.8092 -1.5201 1.98921 2.06925 -0.0342 1.13680 -0.8885 1.79521 0.33345 0.88909 0.55212 1.63752 -1.1775 -1.5186 -1.4002 -0.8388 1.33816 1.68807 -0.9218 0.07098 2.56498 1.08899 1.72049 1.74468 -2.2862 -0.5876 -1.0244 -1.0793 -0.6001 0.92442 -1.7051 1.95614 -0.5537 -0.8741 -0.5292 -0.0363 -1.6181 -1.5619 -1.8694 -5.5055 0.64434 1.60937 -0.3117 1.66178 1.75910 0.72983 1.62517 -1.3416 -1.3404 -0.7493 -0.0146 2.18604 -1.5174 2.12422 -0.9212 -1.0824 1.08843 -0.1812 -1.2456 -0.5837 -1.6572 -0.0753 0.27753 1.30155 -1.0544 -1.2714 -1.6279 0.00406 0.66568 0.56424 -1.5394 -1.1479 0.98098 0.04451 -0.1227 -1.1471 2.08852 1.25618 0.94672 -0.0325 0.42525 0.49675 0.75369 -1.2707 1.44439 -1.4845 1.05268 0.13534 -1.0323 -1.8523 -0.2375 0.62824 -1.0988 -0.1748 0.82521 0.37365 0.73186 -0.8785 0.34359 -1.4643 -1.4241 -1.1686 1.37169 0.85407 0.36621 -1.2103 -1.1852 1.74544 0.94920 -1.5372 0.81026 1.63851 0.30080 -1.2669 1.42699 -2.1634 0.49080 -0.8030 -0.4574 -1.7100 -0.4592 0.07579 1.48513 1.49075 -1.8132 -1.0959 0.56903 -2.1915 -0.2377 -1.6711 -0.2006 0.51196 1.19902 -0.5771 0.44590 1.60628 -1.1692 0.45354 -1.2923 0.13069 1.12297 0.92664 0.52081 0.57370 -0.4030 -0.3812 0.48216 -0.4234 1.64694 0.61349 0.49377 0.76775 0.67035 1.94520 0.39650 -0.3160 -0.0617 1.48805 1.20890 -0.1111 -0.7033 -1.0969 -1.0195 0.60684 0.69436 -0.5181 1.54718 0.36063 -0.8962 -0.6033 0.94902 0.24423 -0.7715 -1.0538 -0.8514 -0.5812 -0.9921 -1.4679 -1.3418 -0.6352 0.59707 0.13680 -0.3631 0.02626 -1.0276 -0.1608 0.76904 0.62053 -0.4912 -0.2749 0.30854 -1.6674 0.28131 -0.5985 0.70978 -0.9035 0.70615 0.48116 -0.1219 1.43392 1.40615 -0.9601 1.22324 0.62489 -0.0451 -1.5880 1.35076 -0.2723 -0.5294 -1.6693 0.13833 -1.0077 -1.2299 0.22596 -1.0968 -0.2526 2.16541 0.41980 -1.9967 -0.5453 -0.3722 1.34609 -1.2422 1.00501 -0.0875 -0.4557 0.03970 -0.7001 -0.1811 -1.0361 0.22911 -0.3134 -0.1110 -1.5443 0.57974 -0.8585 -0.9339 0.82354 1.08565 -2.1303 0.04067 0.50705 0.08906 -0.8048 -0.4030 -0.7361 -0.2957 -0.7937 -0.9437 -2.5545 -1.5886 -0.4394 0.45295 1.51715 -1.3053 -0.6423 -0.8167 -0.1787 1.33299 -0.2308 -1.0093 1.06337 1.74854 -0.3198 1.72803 0.14882 -0.4636 0.86373 0.20261 -1.4045 0.37506 -1.1515 -1.4567 -0.6393 -1.4306 -0.5528 -1.2965 0.26161 0.84861 1.60360 0.53225
人才 0.29833 0.76044 -0.8090 0.67398 0.80736 -0.0445 -0.6238 0.10522 0.18844 -0.2521 0.83205 0.09374 1.11145 -1.0180 -0.2368 -0.3603 0.93444 -0.7263 -1.0063 -0.2194 -0.6948 0.99789 0.58092 -0.2050 0.63422 -0.4555 0.57039 0.28798 0.45348 0.20718 0.91882 -0.4454 -0.9148 -0.3186 -0.8365 0.84271 0.90045 -0.3806 0.26421 1.44788 0.93710 0.96138 1.09552 -1.0896 -0.3583 -0.8032 -0.6371 -0.3326 0.08093 -0.8137 1.44434 -0.2295 -0.1323 -0.3548 -0.2598 -0.6422 -1.0215 -1.2045 -3.2696 0.38271 0.97935 0.24420 0.71481 1.32186 0.49369 0.49523 -0.6030 -0.8246 -0.6550 -0.1546 1.30607 -0.7882 1.21670 -0.6920 -0.8137 0.16010 -0.2323 -0.9210 -0.5372 -0.8848 -0.1787 0.23860 1.04511 -0.4447 -0.3957 -0.6460 0.24292 0.33060 -0.0307 -1.0194 -0.6043 0.68189 -0.2719 0.01076 -0.4223 1.08067 0.46898 0.83675 -0.3284 -0.1529 0.72438 0.83738 -0.3569 1.10728 -0.3945 0.44614 0.13920 -0.9084 -0.6802 -0.0025 0.25064 -0.7028 0.03044 0.56395 0.14620 0.24785 -0.8238 0.01296 -0.9235 -0.5169 -0.6538 0.91352 0.32896 0.28405 -0.7175 -0.6611 0.57477 0.46835 -1.0497 0.45010 1.13984 -0.0098 -0.8711 0.67212 -0.8198 0.23827 -0.3053 -0.3602 -0.7415 -0.1260 0.45404 0.75093 0.48461 -0.9528 -0.4567 0.19792 -1.5939 -0.5600 -0.8171 -0.3253 0.46859 0.54709 -0.5377 0.14537 1.41513 -0.5524 -0.1952 -0.3624 -0.3000 0.75030 0.62431 0.53901 0.18419 -0.2938 -0.0522 0.34235 -0.1005 1.24134 0.28850 0.38258 0.50378 0.59588 1.14032 0.07360 -0.0215 0.30419 0.69640 1.05834 -0.2053 -0.5920 -0.9893 -0.2927 0.84025 0.26890 -0.6183 0.81435 -0.1273 -0.4611 -0.8006 0.85570 -0.0199 0.08977 -0.4089 -0.3335 -0.1122 -1.1647 -0.8371 -1.1011 -0.2643 0.51279 -0.0725 -0.4225 -0.3522 -0.9186 -0.0360 0.40884 0.14325 -0.5007 -0.1514 0.42886 -0.9657 0.50305 -0.3758 0.19679 -1.0184 0.64437 0.67093 -0.2182 0.85578 0.68176 -0.4485 0.94277 0.22720 0.12473 -0.7362 0.64110 -0.3531 0.01745 -0.3790 -0.0758 -0.8862 -0.5691 0.63595 -0.8674 -0.7134 1.08584 0.60995 -1.0677 -0.0317 -0.4953 0.18596 -0.7682 0.65142 0.21204 -0.5911 0.27212 -0.7424 -0.1875 -0.3043 0.75133 -0.1440 -0.1421 -1.4011 0.53348 -1.0018 -0.0344 0.32844 0.64374 -1.4225 0.04376 0.63862 -0.2535 -0.1358 0.07140 -0.1734 -0.4290 -0.7751 -0.5194 -1.9088 -0.8247 -0.1219 0.20664 0.83784 -0.4767 -0.0564 -0.7783 0.13123 0.72854 0.05821 -0.3886 1.01196 1.44025 0.14784 0.55392 0.10097 0.13609 -0.1047 0.46298 -1.3769 0.03711 -0.8594 -0.9521 -0.4813 -0.7136 -0.5915 -0.3969 0.40568 0.39487 1.11993 0.87074
在校生 -0.1040 0.20866 -0.7293 -0.4016 0.63321 -0.5466 -0.5279 0.40380 0.43085 -0.3247 0.52315 -0.0293 1.37338 -0.7193 0.00554 0.13397 0.48739 -0.6457 -0.4603 -0.4574 -0.5259 0.86385 0.03415 -0.0355 0.38295 -0.4812 0.33849 0.37634 0.34598 0.37067 0.64345 -0.6487 -0.3529 -0.1468 -0.7315 0.33123 0.29573 -0.1005 0.26492 1.02507 0.67710 0.75533 0.82195 -0.2644 -0.0088 -0.6175 -0.1353 -0.5041 -0.1867 -0.2194 1.07415 -0.2426 -0.3291 -0.1968 0.17050 0.06937 -0.7072 -0.7117 -1.4482 0.34289 0.63130 -0.1577 0.83835 0.87897 0.44506 0.40579 -0.4461 -0.5801 -0.2810 -0.0894 0.41070 -0.8855 0.89719 -0.3814 -1.0559 -0.5555 -0.2688 -0.7895 -0.5006 -0.6423 -0.2423 0.03434 0.54574 -0.5545 -0.2563 -0.7199 -0.2129 0.67642 -0.4445 -0.3802 -0.4907 0.42746 -0.1148 -0.2246 -0.4717 0.49414 0.44393 0.06019 -0.3128 0.38095 0.58043 0.48471 -0.3972 0.82247 -0.7629 0.13403 0.31199 -0.6998 -0.5244 0.13123 -0.1558 -0.3256 -0.0642 0.43349 0.26390 0.11881 -0.5855 0.08435 -0.6021 0.33136 -0.4659 0.19206 0.10913 0.39699 -0.5091 0.00575 -0.1086 0.23582 -0.6582 0.27209 0.59670 -0.0689 -0.2115 0.47678 -1.1518 0.14595 -0.3227 -0.1867 -0.4929 0.02223 0.36590 0.22778 0.35987 -0.5928 -0.2747 0.25279 -0.9511 0.07255 -0.6188 -0.4534 -0.0018 0.39256 -0.5217 0.23050 1.29533 -0.4560 -0.5160 -0.5589 0.04679 0.47341 0.65828 0.03063 -0.3802 -0.1507 0.29447 0.54639 -0.2374 0.97618 0.42882 0.37675 0.63601 0.05713 0.95191 0.15799 0.66570 0.47460 0.74991 0.78922 -0.0588 -0.2346 -0.8321 0.12108 0.22175 0.03708 -0.6564 0.61809 0.25496 0.05209 -0.1194 0.87259 0.05962 -0.1978 0.16519 -0.1509 -0.0452 -1.0065 -0.7143 -0.7214 0.22538 0.43572 0.19006 -0.0009 -0.0384 -0.7592 0.05882 0.08554 0.14572 -0.1674 0.13045 0.11668 -0.5916 -0.1432 -0.6333 -0.3171 -0.9050 0.14875 0.22310 0.15955 0.55951 -0.0051 -0.6135 0.27154 0.31758 -0.0119 -0.6033 0.65390 -0.4258 -0.1703 -0.0684 -0.4959 -0.6822 -0.0602 -0.1541 -0.5478 -0.5665 0.51670 0.92521 -0.7102 -0.3237 -0.6915 0.50737 -0.0864 0.68626 0.02082 0.23828 0.34694 -0.3438 0.45951 0.10097 1.00231 -0.1982 -0.0267 -1.3148 0.77639 -0.7610 -0.0759 0.10759 -0.0144 -1.0015 -0.0159 0.53560 -0.1619 0.03302 0.12157 -0.3884 -0.4424 -0.2664 -0.7606 -1.2588 -0.5066 0.41163 0.10743 0.55764 -0.4321 -0.0845 -0.7538 -0.0070 0.26094 0.17475 -0.7105 0.83685 1.19491 0.42990 0.19776 -0.0891 -0.0077 -0.0543 -0.1774 -0.9275 0.36415 -0.8291 -0.6612 -0.1363 -0.6151 -0.0542 -0.0762 0.42290 0.25199 0.99813 0.94997
刊物 -0.0170 0.95687 -0.5106 0.26501 0.22498 -0.2939 -0.7875 0.51721 0.56727 -0.0350 0.49135 0.00652 1.32554 -0.8184 0.05741 -0.7079 0.49368 -0.7478 -1.1036 -0.4497 -0.7983 1.07836 1.03568 0.03350 0.28538 -0.4854 1.18777 0.42119 0.41089 0.41900 1.09994 -0.9510 -0.4817 -0.2804 -1.0792 1.13260 0.74242 -0.4700 0.52381 1.62219 0.88062 1.16001 1.00006 -0.8733 -0.2577 -0.5458 -0.5325 -0.0449 0.08026 -0.7835 1.24715 -0.3090 -0.4925 -0.5266 0.05187 -1.0298 -0.9861 -0.9868 -3.1574 0.59819 1.03311 -0.0526 1.08041 0.91388 0.38287 1.19914 -0.7842 -0.7512 -0.4547 -0.1990 1.22368 -0.6977 1.36317 -0.0207 -0.7643 0.25041 -0.3740 -1.1664 -0.4247 -1.3265 -0.1307 0.32111 0.42788 -0.9731 -0.6279 -0.8307 0.28782 0.32099 0.02605 -0.7843 -0.6814 0.74994 -0.0414 -0.1539 -0.8646 0.83341 0.71705 0.72707 -0.1478 0.20700 0.89515 0.36439 -0.9811 0.72572 -0.6442 0.53602 0.10407 -0.6493 -0.7813 0.56007 -0.0391 -0.4152 -0.1402 0.89423 0.49340 0.47983 -0.7254 0.03038 -0.5407 -0.5870 -0.6961 0.76319 0.65615 -0.1069 -1.1014 -0.8326 0.91224 0.15451 -0.7193 0.41478 1.10396 0.11378 -0.8935 0.71353 -1.1242 0.46107 -0.3980 0.09421 -0.4320 -0.0739 0.37240 0.74983 0.86626 -1.1316 -0.5367 0.36609 -1.6025 -0.2724 -0.6148 0.09033 0.39618 0.77404 0.07130 0.34192 1.18703 -0.7312 0.41283 -0.4384 -0.2688 0.53366 0.64632 0.24834 0.29140 -0.3081 0.06736 0.20942 0.12487 0.86943 0.81898 0.22068 0.76635 0.34343 1.12650 0.35769 0.31510 0.37825 0.67897 0.97589 -0.1371 -0.4954 -0.3008 -0.4753 0.32254 0.03819 -0.5414 0.53360 -0.1587 -0.6395 -0.1109 0.57601 -0.0779 -0.2482 -0.2102 -0.0034 -0.0557 -0.8438 -1.0739 -0.6977 0.15049 0.44609 0.04551 -0.0113 -0.1259 -1.3807 -0.2249 -0.0798 0.31353 -0.1363 -0.0791 0.15512 -0.9553 -0.2894 -0.5495 0.42833 -0.9487 -0.1381 0.30888 -0.2730 0.68995 0.75938 -0.4848 0.57624 0.25342 -0.4259 -0.8738 0.83122 0.33938 -0.3973 -0.6374 0.02037 -1.2693 -0.4400 0.70893 -0.8363 -0.7478 1.28893 0.35157 -0.7929 -0.8585 -0.1112 0.62643 -0.8635 0.48290 -0.1236 -0.4801 0.45588 -0.7943 -0.3549 -0.6719 0.27235 -0.2828 -0.3842 -0.7673 -0.0288 -0.6660 -0.6626 0.27843 0.46507 -1.0584 -0.2682 0.82766 -0.2564 -0.2467 0.38288 -0.7054 -0.6108 -0.3907 -0.6309 -1.8004 -1.1804 -0.2403 0.43272 1.31694 -0.7807 -0.0364 -0.4440 0.08797 0.48368 -0.0030 -0.3870 1.26509 0.99632 0.09518 0.28123 -0.2232 -0.4634 -0.1366 0.19049 -1.1923 0.46884 -0.8320 -1.0249 -0.4190 -0.7530 -0.5576 -0.5309 -0.0172 0.51045 1.02948 0.11635
营员 -0.0495 -0.1235 -0.2136 -0.2109 0.09409 -0.0948 -0.0118 0.20692 -0.1643 -0.0776 0.00945 -0.3302 0.09007 0.23543 -0.0117 0.63807 0.11893 0.74273 0.32796 -0.3085 0.11440 0.54848 -0.6851 0.08154 -0.0199 0.02286 -0.2539 -0.1436 -0.0515 -0.0663 0.03423 0.28289 0.27076 0.19039 -0.4553 0.21425 -0.4492 0.03334 0.15267 -0.0460 0.02588 -0.2160 -0.0918 0.32535 0.02815 0.08773 -0.1687 -0.0251 -0.4576 -0.1086 0.03095 -0.2642 0.26445 -0.3087 0.17373 -0.1075 -0.5407 0.04215 0.70272 0.02544 -0.1125 0.15565 0.07544 -0.1739 -0.0700 -0.1004 0.10895 0.36323 -0.2279 0.25595 -0.0524 0.06397 -0.2712 0.58589 0.03114 -0.4148 -0.0182 -0.0210 4.76203 -0.4444 0.21815 0.21428 0.00676 0.39957 0.17289 -0.1278 -0.0932 -0.1521 -0.0074 0.08526 -0.0933 0.03396 -0.0155 0.08331 -0.1793 0.10951 0.31564 -0.3280 -0.3821 0.13186 0.05147 -0.1519 0.30037 -0.1151 -0.1680 0.00140 0.46736 -0.1518 0.20553 -0.1016 -0.3561 -0.0110 0.15258 -0.0419 0.16835 -0.0407 -0.1394 0.12933 0.12275 0.03442 0.23487 0.11440 -0.0168 0.12576 -0.1310 -0.1180 -0.0350 -0.1345 -0.1344 -0.2518 0.16600 -0.1661 0.44065 0.01883 0.16122 -0.0968 0.09256 0.74719 -0.2554 -0.3853 -0.1269 -0.1158 -0.1365 0.19024 0.18830 -0.0512 -0.0577 -0.0084 -0.1363 0.15432 -0.0170 0.06021 0.10797 0.09513 0.07199 -0.1541 0.19244 0.14234 -0.1923 -0.0485 -0.5302 0.09551 -0.4869 0.37060 -0.2273 -0.1458 -0.0502 -0.3754 -0.2933 0.05267 -0.1403 -0.1540 0.07514 -0.3562 -0.0118 -0.4034 -0.0027 0.21252 -0.1100 -0.3647 -0.4858 0.36578 0.51442 -0.1751 -0.5098 0.75326 -0.1973 -0.2653 0.09841 -0.4273 0.14289 -0.4737 -0.1199 -0.1987 -0.5056 -0.6172 0.72414 -0.0018 -0.1415 0.06612 0.02286 0.25682 -0.2692 0.36193 -0.2596 -0.4686 -0.0636 0.03183 0.75127 -0.0325 0.23016 0.04224 0.31257 0.09527 -0.7358 -0.3996 -0.5203 -0.3255 -0.2473 -0.2529 0.21683 -0.0343 -0.1416 0.56048 0.36660 0.01556 -0.6981 -0.0608 0.67957 -0.0889 -0.0352 -0.4366 0.11803 0.18807 -0.4586 -0.0205 -0.0793 -0.7803 -0.2135 0.32659 0.37078 0.21067 -0.2250 0.65825 -0.0324 0.08701 0.09217 -0.2682 0.30273 0.02643 -0.3530 0.14237 0.11219 0.34700 -0.1104 -0.4107 -0.0199 0.37932 -0.5490 -0.1432 -0.0490 0.22262 0.31916 0.14205 0.57014 0.11686 0.39243 0.08621 0.74976 0.28948 -1.0307 0.19365 0.94277 -0.5981 0.22432 0.01728 0.80211 -0.2560 0.21359 -0.1500 -0.8200 0.17148 -0.3376 0.88257 1.47680 -0.7648 -1.5349 -0.1063 -0.2153 -0.1156 -0.3848 0.81804 0.52104 -0.0416 -0.5169 1.03855 0.87399 0.30351 0.24271 0.38057
重点 -0.1980 0.44089 -0.3907 -0.0829 1.10004 -0.0953 -0.4727 0.31064 -0.0793 -0.1722 1.05909 0.21745 1.55872 -1.4593 0.18066 0.33611 0.75054 -0.0979 -0.7060 -0.8702 -0.3368 1.17527 0.51917 -0.4936 0.81984 -0.6510 0.62619 0.23109 0.27908 0.04773 0.56748 -1.0489 -0.9330 -0.7935 -1.0897 0.54314 1.28203 -0.4242 0.35186 1.36818 1.06860 0.82797 0.98457 -0.9698 -0.6249 -0.8292 -0.9816 -0.5566 0.02252 -1.1159 1.19627 -0.4873 -0.3317 -0.8389 -0.0406 -0.8210 -1.2074 -1.6244 -2.5722 0.75654 0.83470 0.18507 0.67668 1.23976 0.48656 0.47356 -0.7187 -0.6455 -0.1635 0.02805 1.09194 -0.9068 1.55102 -0.5653 -1.3601 0.51151 -0.1602 -1.2843 -0.2516 -1.1166 -0.2916 0.40989 1.25514 -0.8857 -1.3280 -1.1165 0.04218 0.62548 0.03995 -0.9336 -1.1290 0.95858 0.27773 -0.1528 -0.4332 1.38840 0.63446 0.14457 0.16203 0.33994 0.60994 0.69919 -0.5054 0.80540 -0.8477 0.23452 0.14802 -0.9450 -0.5684 0.13265 -0.2276 -0.9196 -0.0481 0.66188 0.21210 -0.1359 -0.3620 -0.0388 -0.8211 -0.6507 -0.3885 0.55054 0.76648 0.20373 -0.8866 -0.5360 0.43656 0.68186 -1.2494 0.34956 0.98702 -0.2206 -1.3192 0.98571 -0.8617 0.19689 -0.1395 -0.3210 -1.2059 -0.2642 0.29919 0.84938 1.29991 -1.2034 -0.4596 0.56792 -1.3857 0.09019 -0.5499 -0.2956 0.11271 0.82895 -0.1912 0.12428 0.87716 -0.7454 0.08103 -0.0653 -0.3234 0.73369 0.19693 0.02144 0.25465 0.20182 0.04316 0.26603 -0.2063 0.85150 0.32265 0.37568 0.63688 0.23873 1.45198 -0.2552 -0.0421 -0.2854 0.83180 1.05707 -0.0735 -0.4551 -0.5715 -0.5849 0.27040 0.40394 -0.3330 0.22146 -0.2671 -0.5503 0.01185 1.27737 -0.0915 -0.2049 -0.6559 -0.1935 -0.1550 -0.4499 -0.5787 -0.6753 0.07343 0.55153 0.05503 -0.5358 -0.2828 -1.1297 0.33019 0.09314 -0.0468 -0.7748 -0.0104 0.55936 -0.7679 0.18320 -0.0417 0.31526 -1.0459 0.30846 0.31864 -0.0681 0.21880 0.60244 -0.6735 0.90925 0.41392 0.31367 -0.7743 0.63698 -0.3580 0.03412 -0.6404 0.49338 -0.5697 -0.6971 0.18502 -1.2611 -0.4084 0.56165 0.89426 -0.6223 0.13868 -0.2813 0.38820 -0.8020 1.13821 0.02751 -0.3000 -0.0473 -0.5734 -0.0831 -0.5328 0.92691 0.19446 -0.1333 -1.5644 0.96208 -0.4456 -0.4566 0.06429 0.33431 -1.5751 -0.1181 0.26272 -0.3137 -0.3006 -0.1128 -0.7798 -0.3980 -0.7783 -1.2923 -1.5004 -0.9868 -0.2070 -0.1299 0.98571 -1.2225 0.17873 -0.4188 0.13731 0.73377 0.60976 -0.4111 0.92797 2.38413 -0.2997 0.40529 0.03659 -0.2381 -0.0076 0.50824 -1.3057 0.57053 -1.4291 -1.4453 -0.1643 -0.6427 -0.6430 -0.5521 0.68869 0.04433 1.29058 0.46088
成果 0.25090 0.88564 -0.5400 0.48437 0.60387 0.03890 -0.7148 0.22482 0.37392 -0.1085 1.19894 0.05082 1.16905 -1.0475 0.13944 -0.4855 0.73079 -1.0817 -0.9629 -0.2883 -0.7937 1.19518 1.18427 -0.3130 0.79497 -0.3009 0.83737 0.17702 0.81264 -0.0703 0.42342 -0.7254 -0.6824 -0.1197 -1.0777 0.89762 1.21093 -0.5718 0.29535 1.75479 0.81835 0.92353 1.06742 -1.0151 -0.4833 -0.3469 -0.8118 -0.2372 0.35312 -1.0647 1.36713 -0.4354 -0.2605 -0.6125 -0.2735 -0.6298 -0.8695 -0.9263 -2.8627 0.62579 1.07822 0.13991 0.86834 1.13229 0.33980 0.80645 -0.9407 -0.8110 -0.7658 0.10681 1.45777 -1.0069 1.10636 -0.6186 -1.0547 0.53356 -0.4010 -0.8182 -0.8061 -0.7907 -0.3794 0.25359 0.50172 -0.9083 -1.0677 -0.6162 0.15037 0.58344 0.26442 -0.5083 -0.8821 0.94504 -0.2052 -0.2093 -0.5971 1.12458 0.66717 0.54499 -0.0574 0.40679 0.76688 0.63778 -0.8475 0.96421 -0.7922 0.37930 0.17787 -0.9175 -1.1764 0.17363 0.06725 -0.5862 0.14819 0.44683 0.39552 0.36910 -0.5914 -0.0863 -0.8220 -0.6665 -0.7823 0.45214 0.51459 -0.0657 -0.4422 -0.6748 0.74559 0.46563 -0.9915 0.78488 1.04255 0.27258 -0.8268 0.96270 -0.8739 0.19002 -0.0721 -0.2667 -0.8745 -0.4571 0.53158 0.64767 1.10909 -1.1569 -0.6831 0.21379 -1.3597 0.11507 -0.6036 -0.5464 0.41593 0.94868 -0.2613 0.40650 1.08661 -0.6778 0.27206 0.02573 -0.1078 0.73488 0.44630 0.27546 0.36652 0.21985 -0.2293 0.36306 0.30110 0.89805 0.50721 0.35545 0.69105 0.74170 0.76504 0.04468 -0.0189 0.22810 0.58938 0.90954 -0.4230 -0.3907 -0.7730 -0.6853 0.52222 -0.2155 -0.3842 0.75927 -0.0579 -0.4694 -0.1194 0.80987 -0.2654 0.28361 -0.2510 -0.2450 -0.0454 -0.9548 -0.5600 -0.4803 0.17016 0.51460 -0.0873 -0.3103 -0.1039 -0.9432 0.17453 0.25234 0.58295 -0.1829 0.09757 0.37910 -0.7890 0.44970 -0.5785 0.22578 -0.9999 -0.2162 0.59736 -0.5622 0.55469 1.11451 -0.6375 0.47811 0.45616 -0.0244 -0.7512 0.70542 -0.3709 -0.0149 -0.8092 0.23709 -0.7215 -0.8853 0.21861 -1.0697 -0.5689 0.98681 0.95006 -0.5556 -0.4555 -0.3007 0.12900 -0.9834 0.65573 -0.0061 -0.3801 0.24969 -0.5847 0.14254 -0.2648 0.81234 -0.0256 -0.0894 -1.3665 0.43446 -0.5924 -0.5184 0.49021 0.85126 -1.2789 0.31874 0.10088 -0.5034 0.01685 0.20112 -0.0175 -0.6532 -0.6499 -0.4343 -1.8512 -1.2248 -0.4125 0.04146 0.75329 -0.6546 -0.0773 -0.4485 -0.0130 0.72816 0.00255 -0.4659 0.89827 1.02438 0.01456 0.66222 -0.3491 -0.3156 0.35751 0.12555 -1.1023 -0.0598 -0.8933 -1.0262 -0.2043 -0.4567 -0.4643 -0.3649 0.31767 0.00651 1.26949 0.06032
政策 0.11585 0.61911 -0.4027 0.39990 0.51769 -0.0506 -0.6520 0.23830 0.18995 -0.2788 1.36600 0.25202 1.32648 -0.8199 0.15018 -0.7098 1.14817 -0.3129 -0.9940 -0.1386 -0.6368 1.12210 0.72072 -0.3103 0.48639 -0.2337 1.27949 0.17158 0.60540 0.42253 1.06250 -0.8570 -0.5455 -0.2494 -0.6987 0.85284 0.87449 -0.3889 0.19399 1.30173 0.59642 0.65559 1.09114 -1.1351 -0.1578 -0.4552 -0.6583 -0.4544 0.43055 -0.7995 0.99073 -0.2793 -0.6467 -0.4855 -0.0069 -0.9326 -0.9872 -1.0929 -3.1850 0.25408 1.05034 0.24923 0.90836 1.07876 0.33757 1.23729 -0.8937 -0.7877 -0.8705 -0.6309 1.32526 -1.0047 0.90839 -0.1926 -0.9988 0.33511 0.05283 -0.6042 -0.1672 -1.2002 -0.4812 0.22784 0.96140 -0.5475 -0.9199 -1.0994 0.31077 0.60689 0.04872 -1.0660 -0.4692 0.53058 -0.2500 0.03445 -0.5633 0.98477 0.67102 0.66120 -0.1878 0.14754 0.79198 0.88189 -0.2385 0.83440 -0.6877 0.90356 -0.1345 -0.6855 -0.5249 0.16148 -0.3903 -0.9093 -0.2608 0.48234 0.33843 0.53798 -0.4510 -0.1009 -0.5876 -0.8009 -0.7513 1.20747 0.54856 -0.1325 -0.7763 -0.9894 0.64925 0.64646 -1.0583 0.82650 0.79770 0.18527 -0.7424 0.78516 -0.7511 0.15759 -0.1483 -0.3193 -0.7816 -0.1948 -0.2857 0.93479 1.04892 -1.1458 -0.7056 0.38708 -1.4738 -0.0699 -0.8053 -0.4055 0.52579 0.90348 0.14138 0.08683 1.19582 -0.7257 0.07574 -0.4235 -0.0236 0.70360 0.57475 0.13400 -0.3026 -0.1793 -0.1147 0.35332 -0.0239 0.67903 0.56660 0.45868 0.47464 0.51653 1.13679 -0.1341 0.19291 0.05381 0.73183 0.92720 0.09721 -0.6621 -0.7065 -0.6235 0.84254 -0.1684 -0.3193 0.89811 -0.3018 -0.2135 -0.4915 1.05496 0.10286 -0.1613 -0.1517 -0.1287 -0.1073 -0.6399 -0.6040 -0.8697 0.15137 0.31017 -0.1393 -0.2958 0.07653 -0.9459 -0.1141 -0.0461 0.52338 -0.2190 -0.2477 0.50028 -0.9453 0.57194 -0.8712 0.28304 -0.8620 0.21187 0.51551 -0.2680 0.37320 0.92415 -0.4987 0.93236 0.75304 0.03790 -1.4216 0.93561 -0.6628 -0.3242 -0.9537 -0.2679 -1.1349 -0.2109 0.49382 -0.8865 -0.8722 1.10704 0.35452 -0.3138 -0.2054 -0.1121 -0.0417 -1.0010 0.71767 0.26039 -0.3924 0.24386 -0.9027 -0.1744 -0.5480 0.41461 -0.3038 -0.1834 -1.0564 0.18202 -0.5522 -0.3324 0.35609 0.82438 -1.3627 0.32226 0.41212 -0.5052 -0.3212 0.23996 -0.3963 -0.2904 -0.7836 -0.3107 -2.1901 -1.2351 0.11691 0.17285 0.80150 -0.9856 0.08644 -0.5120 0.31054 0.33764 -0.0004 -0.0627 0.92328 1.11523 0.06638 0.55648 0.45384 -0.2678 -0.1739 0.24673 -1.3503 -0.2133 -0.6385 -1.1936 -0.3007 -0.4769 -0.3168 -0.7918 0.47934 0.71382 1.30479 0.04952
原件 0.07053 0.33791 -0.5797 0.47614 0.93430 -0.1533 -0.5636 0.27191 0.19179 0.52859 0.62342 0.36564 1.31026 -0.8995 0.12740 -0.8754 0.50480 -0.6895 -1.2429 -0.4711 -0.7659 0.62626 1.08101 -0.0822 0.11988 -0.1467 0.69087 0.56359 0.68639 0.41132 0.72514 -0.2429 -0.6725 -0.3475 -1.1230 0.88107 0.95860 -0.8869 -0.2533 1.23218 0.86353 1.06387 1.02237 -1.4589 -0.4629 -0.6827 -0.4839 -0.2435 0.67607 -0.8242 1.49961 -0.7383 -0.2530 -0.5744 0.08114 -0.9736 -1.3288 -0.8023 -3.0410 0.57998 1.11391 -0.0355 0.85957 0.95745 0.26851 1.03664 -1.0686 -0.4510 -0.4191 -0.6198 1.06702 -0.7320 0.93350 -0.3752 -1.0012 0.02095 -0.2145 -0.7033 -0.8790 -1.2115 -0.5017 0.22721 0.78461 -0.7823 -0.6726 -1.0355 0.00051 0.34543 0.32813 -0.6682 -0.7136 0.81885 -0.0710 -0.1436 -0.6556 0.93652 0.78056 0.30822 -0.1477 0.38861 0.51498 0.23013 -0.5828 0.52250 -0.6589 0.53479 0.04836 -0.4646 -0.9852 0.20704 0.28044 -0.3175 -0.6320 0.56426 0.33584 0.20441 -0.8162 0.29902 -0.5954 -0.2870 -0.8108 0.40682 0.55944 -0.1514 -0.8563 -0.8422 0.74177 0.77503 -0.6127 0.54083 0.76257 0.13129 -0.8372 1.02543 -1.0790 0.40429 -0.7076 -0.2614 -0.5033 -0.5473 -0.1020 0.82677 0.97974 -1.1727 -0.4650 0.55330 -1.5594 0.02816 -1.2645 -0.0722 0.54626 0.64271 -0.0916 0.40178 1.14051 -0.8207 0.76222 -0.4541 0.18306 0.43010 0.19843 0.27970 0.20588 0.33127 -0.0996 0.28849 0.06572 0.51380 0.71404 0.21305 0.71033 0.12645 0.95325 -0.3242 0.20064 -0.1316 0.99339 0.97971 0.07948 -0.9360 -0.9748 -1.0536 0.24076 -0.0106 -0.6417 0.68831 -0.0396 -0.5874 -0.5080 0.63231 -0.7573 0.36455 -0.2461 -0.3782 -0.1031 -0.3834 -0.4292 -1.0299 0.21802 0.48063 -0.0376 -0.2886 -0.1878 -0.4181 0.42987 -0.0322 0.32154 -0.4441 -0.0309 0.54520 -1.2768 0.07247 -0.6128 0.39067 -0.8367 -0.1020 0.18896 -0.3303 0.59905 0.46913 -0.9606 0.33396 0.58028 -0.5492 -0.3981 0.65071 -0.7863 -0.0119 -0.8845 0.23669 -0.9058 -0.4592 0.04207 -0.5551 -0.1411 0.73079 0.16578 -1.0206 -0.4197 -0.2996 0.59272 -0.7341 0.70712 -0.0235 -0.8544 0.46199 -0.3575 -0.5442 -0.4634 0.74309 -0.2857 -0.1838 -1.0322 0.05572 -0.1606 -0.2959 0.27450 0.50038 -1.0786 -0.2911 0.39414 -0.2555 -0.4670 0.36551 -0.3418 -0.2187 -0.7339 -0.6218 -2.0035 -1.4264 -0.4981 0.03343 1.06796 -0.7094 0.10220 -0.9172 0.27269 0.58876 0.46272 -0.2617 0.75908 1.43447 0.18862 0.11459 0.04252 -0.1933 0.30909 0.10997 -0.5459 0.19603 -0.4678 -1.0709 -0.7258 -0.8237 0.08192 -0.8104 0.03822 -0.2935 1.28769 -0.2078
全文 0.36599 0.92487 -0.5551 -0.0054 0.45338 -0.4664 -0.5360 0.00352 0.46811 0.07020 0.68444 0.33634 1.64322 -0.9244 0.12557 -0.5899 0.65259 -0.8423 -0.9161 -0.3765 -0.5872 0.90840 0.65210 -0.0155 0.39334 -0.0234 0.73463 0.23500 0.44083 0.39553 0.56054 -0.7772 -0.5370 -0.2856 -1.1245 1.15233 0.62147 -0.8253 0.08072 1.65399 0.92848 0.53965 0.89019 -0.8257 -0.3517 -0.6157 -0.8261 -0.2350 0.77785 -0.8796 1.14794 -0.6295 -0.1452 -0.6866 -0.1846 -0.8326 -0.9569 -0.8899 -3.2201 0.90979 1.13363 0.06972 1.11506 0.73033 -0.0811 0.68535 -0.9196 -0.4773 -0.4867 -0.5037 1.19808 -0.4564 1.09223 -0.0976 -0.8438 0.37309 -0.0019 -1.1695 -0.9948 -1.4809 -0.2905 0.14287 0.69724 -0.8224 -0.3616 -0.6790 -0.3326 0.56895 0.14062 -1.0329 -0.2316 0.70705 -0.4275 -0.1135 -0.6698 1.00161 0.78685 0.70397 0.14075 0.29791 0.62153 0.63367 -0.7384 0.62708 -0.5729 1.05835 -0.3062 -0.6195 -0.8877 0.46079 0.24811 -0.8848 -0.2320 0.42476 0.26939 -0.0228 -0.3529 0.07792 -0.8208 -0.3013 -0.6972 0.57212 0.54449 -0.1909 -0.9388 -1.0318 0.94737 0.60068 -0.6586 0.43801 1.04549 0.37787 -0.9242 0.78607 -1.0594 0.56978 -0.2635 -0.0246 -0.8488 0.04234 0.29973 0.94290 1.41246 -1.0196 -0.5802 0.32394 -1.0067 -0.2493 -0.4249 0.07750 0.24245 0.85764 -0.0590 0.35207 0.83156 -0.6258 0.67111 -0.7496 0.15333 0.45916 0.28398 0.17596 0.37068 -0.0996 0.15416 0.51412 -0.1023 0.68774 0.27872 0.49233 0.48578 0.45807 0.90143 -0.5406 0.22104 -0.0606 0.86926 0.85428 -0.2846 -0.6574 -0.9862 -1.0451 0.01647 0.14154 -0.6112 0.64607 -0.1403 -0.7156 -0.5898 0.87609 0.04416 0.06739 0.24051 0.05531 -0.3692 -0.3513 -0.5582 -0.5503 -0.2218 0.00010 -0.0844 -0.4052 0.02127 -0.9478 0.45498 -0.9738 0.90852 -0.1002 -0.3190 0.52716 -1.0363 -0.2119 -0.9138 0.00909 -0.9757 0.27684 0.17813 0.12617 0.50203 0.72443 -0.8013 0.46564 0.40537 -0.5493 -0.6942 0.85725 -0.3963 -0.4118 -0.6278 -0.1071 -0.5231 -0.3164 0.13212 -0.5907 -0.2467 0.98598 0.71717 -0.6495 -0.2664 -0.5809 0.42216 -1.0863 0.49674 0.06912 -0.3303 0.46856 -0.7234 -0.2476 -0.2992 0.62952 -0.2684 -0.3162 -1.1105 0.27175 -0.4982 0.10009 0.55578 0.40289 -1.2676 0.21791 0.57807 -0.2952 -1.0319 0.25353 -0.9128 -0.7270 -0.5375 -0.3252 -2.0571 -0.9589 -0.0519 0.29173 0.91213 -0.6214 0.24730 -0.6249 0.26277 0.47238 0.16801 -0.5269 0.47450 1.01628 -0.2396 0.25055 -0.1254 -0.1987 -0.1407 0.63192 -0.6184 0.15670 -1.3328 -1.4115 -1.1097 -1.0316 -0.0064 -0.5595 -0.0552 0.38634 1.48025 -0.0957
世界 -0.6477 0.48710 -0.5337 -0.3131 0.78564 -0.5629 -0.5848 0.33152 0.70016 -0.0824 0.65427 0.19354 1.19079 -0.9959 -0.1494 -0.5629 0.52323 -0.5910 -1.3781 -0.6189 -0.6588 1.34090 0.99186 -0.3728 0.80431 -0.4054 0.91104 0.34496 0.67166 0.53864 0.53196 -1.0898 -0.5714 -0.5487 -0.6305 1.01219 1.11202 -0.6665 -0.0800 1.21108 0.75595 0.67452 1.16537 -0.6738 -0.0918 -0.4267 -0.7654 -0.9430 0.33586 -0.9240 1.53794 0.08849 -0.4378 -0.5039 0.30738 -1.1161 -0.9547 -0.9234 -2.5213 0.63632 0.81454 0.11510 0.68409 1.43014 0.46866 0.84208 -0.8371 -0.8726 -0.3643 0.00596 1.32173 -0.8579 1.16603 -0.6343 -0.8923 -0.0043 -0.3917 -0.5920 -0.7218 -0.9763 -0.5268 0.00596 0.98968 -0.9736 -0.7751 -0.8195 0.05316 0.44256 0.57170 -1.0406 -0.5348 0.66556 -0.2917 -0.0037 -0.6900 0.95482 0.58834 0.59459 -0.0712 -0.0872 0.71433 0.58763 -0.5287 0.47813 -0.5101 1.03960 -0.1611 -0.8884 -0.7960 0.08828 -0.0088 -0.4303 -0.0427 0.53062 0.47714 0.03796 -0.7190 0.30038 -0.6952 -0.6958 -0.7450 1.15910 0.54681 -0.2218 -0.4061 -0.5095 0.67185 0.77081 -0.7440 0.23148 1.04696 0.27259 -1.1423 0.59088 -0.7832 0.40069 -0.4064 0.18382 -0.3738 -0.2553 -0.0413 0.78392 0.88887 -1.1319 -0.5758 0.45841 -1.4308 0.09803 -0.7621 -0.4175 0.41350 0.59837 -0.1957 -0.0513 0.77118 -0.7087 0.50053 -0.2409 -0.0452 0.40482 0.84023 0.08260 0.27096 -0.1450 -0.1018 0.26493 -0.4882 0.48074 0.49232 -0.0372 0.49722 0.77656 0.92596 0.15725 0.19659 0.19126 0.96615 0.79293 -0.0454 -0.2547 -0.4923 -0.5612 -0.0937 0.19158 -0.6087 0.59208 -0.0409 -1.2269 -0.4181 0.49835 -0.3568 -0.0330 -0.8155 -0.2811 -0.2527 -0.9590 -0.5601 -0.6173 -0.3030 0.78493 0.44387 -0.6695 -0.5882 -0.7193 -0.0580 -0.2014 0.58748 -0.2916 -0.0641 0.00369 -0.8173 0.49947 -0.7116 0.29593 -0.5616 0.09177 0.54562 0.02522 0.43946 0.43789 -0.7527 0.58861 0.36114 -0.0729 -0.6509 0.61374 -0.0433 0.17677 -0.8437 -0.0460 -1.2156 -0.5836 0.28971 -0.7432 -0.3324 1.14667 0.49205 -0.8382 -0.3259 -0.4835 0.54385 -0.5132 0.16778 0.27758 -0.1418 0.29648 -0.4768 -0.2170 -0.9674 0.22234 -0.1176 0.08428 -0.9200 0.04854 -0.2959 -0.2538 0.32235 0.72641 -1.6150 -0.2120 0.38858 -0.2733 0.10392 0.33038 0.07978 -0.5742 -0.8293 -0.5474 -1.4295 -1.2909 -0.1765 0.30702 1.21135 -0.4967 -0.0831 -0.5756 0.35112 0.77882 0.09433 -0.3509 0.59665 1.20301 0.29888 1.05748 -0.1500 -0.0815 0.41279 0.36243 -1.1237 -0.4702 -0.7268 -0.6994 -0.2428 -0.5577 -0.2361 -0.9202 0.07878 0.56362 0.96261 0.26385
教务 0.05037 -0.2481 -0.2013 -0.2596 0.13721 -0.3034 -0.2844 0.23608 0.12710 -0.2255 -0.0750 -0.3411 0.34837 0.11287 0.07925 0.66330 0.20270 0.23382 0.29627 -0.2502 0.42724 0.36900 -0.6765 -0.0077 -0.1710 0.17025 -0.3643 -0.1252 -0.0894 -0.0712 0.35611 0.19735 0.35057 0.30963 -0.6359 0.06052 -0.4899 0.14245 0.07290 0.45389 0.26933 -0.2671 0.32174 0.49757 -0.0498 -0.0448 -0.3125 -0.1511 -0.3652 0.21098 0.39070 -0.2433 0.12216 -0.1361 0.03764 0.03413 -0.4975 -0.2479 1.12350 0.00579 0.10604 0.13214 0.32982 -0.0913 0.12629 -0.1593 -0.1612 -0.2183 -0.3069 -0.1134 -0.2859 0.06796 -0.3691 0.23536 -0.0771 -0.3341 -0.3667 0.15445 0.17821 -0.0820 0.02806 0.26185 -0.1039 0.22197 -0.2460 -0.4649 0.07883 -0.0138 -0.1100 0.13566 -0.0784 0.45721 -0.2806 -0.1943 0.02930 0.06926 0.14798 -0.0167 -0.1900 0.15634 0.60638 0.25294 0.15222 -0.3214 -0.2888 0.19997 0.21281 -0.0164 0.28345 0.07604 -0.0461 -0.1493 0.05950 0.14226 0.18089 -0.1448 -0.3233 -0.2160 -0.2789 0.32301 0.24834 0.12676 -0.0170 -0.1144 -0.0035 0.34782 0.14953 -0.2536 -0.1949 0.14343 0.14201 -0.4072 0.30428 -0.0095 0.14859 -0.1853 -0.0895 0.38933 -0.0362 -0.1401 -0.0595 0.22209 -0.1639 0.12867 0.13856 -0.0015 -0.1218 -0.0400 -0.1530 -0.1006 -0.1801 2.89976 0.42018 0.02813 0.25767 -0.1356 -0.2015 -0.0936 -0.1872 0.32215 -0.1082 -0.1426 -0.5514 -0.0287 0.23659 -0.0082 0.07991 -0.1271 -0.3184 0.03308 -0.1792 -0.0262 0.18316 -0.1973 0.05551 -0.2627 -0.0328 -0.0359 -0.2812 -0.3329 -0.1214 0.09177 0.52099 -0.2814 -0.2835 0.44115 -0.2069 -0.2206 0.12001 0.13592 -0.0655 -0.3442 0.01868 -0.1177 -0.1724 -0.6327 0.44554 0.00286 -0.0075 -0.0042 -0.1313 0.33318 -0.2646 0.02964 -0.2172 -0.4203 0.01433 0.15102 0.52471 0.10794 -0.0098 -0.0484 0.22913 -0.2558 -0.8125 -0.3120 -0.2137 -0.3928 -0.2134 -0.1941 0.21232 0.05259 0.06725 0.29840 0.18989 -0.3101 -0.5361 -0.2220 0.23768 -0.3980 -0.0360 -0.1216 -0.1775 0.09633 -0.7963 -0.0292 -0.1765 -0.4404 -0.4112 0.21791 -0.0745 -0.1080 -0.2897 0.64059 0.24235 0.37639 -0.1838 0.31315 0.02976 0.08380 -0.1302 -0.0737 0.00837 0.09746 0.04946 -0.1117 -0.5075 0.42711 -0.0792 -0.1394 -0.1257 0.32090 0.33975 0.50358 0.44783 0.02628 0.60678 0.27759 0.62639 0.04014 -0.8564 0.30357 0.70989 -0.5681 0.20273 -0.0001 0.86876 -0.1272 0.10323 -0.0743 -0.1971 0.00799 -0.2236 0.92957 1.58787 -0.6762 -1.2496 -0.3664 -0.1881 -0.1443 -0.6754 0.49761 0.63464 0.13248 -1.0270 0.97149 1.01830 0.28415 -0.2365 0.32394
武汉市 0.00906 -0.3658 0.29654 -0.0820 -0.2125 -0.0089 -0.0991 0.01539 0.18084 -0.0511 0.26532 0.06520 0.37981 -0.0122 0.00845 0.54979 0.12516 0.10951 0.00415 -0.2017 0.49329 0.21982 -0.4410 0.20375 -0.4196 0.34389 -0.6561 0.14404 -0.2680 0.06435 -0.1116 -0.3374 0.02214 -0.1084 -0.2716 -0.2122 -0.1722 0.20257 0.08143 0.22026 0.12993 -0.3432 0.29798 0.23429 0.06996 0.14147 -0.0843 0.19911 -0.1103 0.22336 -0.0703 -0.0641 -0.0517 -0.1167 0.09020 -0.0811 -0.2280 -0.0704 0.63467 0.29284 0.08679 0.25096 0.01205 0.13328 -0.0211 -0.0578 -0.1888 -0.1168 -0.2909 -0.6543 -0.5084 -0.1265 0.26712 0.15137 0.08628 -0.2583 0.09483 0.19077 -0.0703 -0.3295 -0.0637 0.00024 0.32509 -0.0480 0.04242 0.10057 0.05346 -0.0784 0.31677 -0.0565 -0.0071 0.22468 -0.2036 0.01483 0.09184 -0.0444 0.11407 0.54657 0.11585 0.03448 0.23433 0.35048 -0.3646 -0.5098 -0.0734 0.14922 0.01185 -0.1722 -0.1004 0.22109 -0.0963 -0.0145 -0.1713 -0.0346 0.31494 -0.5487 0.04813 0.06684 -0.0657 0.03872 -0.0197 -0.0207 0.11173 0.00862 -0.0824 0.18637 0.02174 0.11568 -0.3051 -0.2171 0.04799 -0.0972 -0.0439 -0.0697 0.11414 -0.0351 0.08120 0.20084 0.17054 0.19200 0.12405 0.12854 -0.0420 -0.1478 0.35732 0.16611 -0.0035 0.10546 0.08042 -0.1883 0.07260 -0.1050 0.08163 0.00425 -0.0608 -0.4933 -0.3172 -0.3202 0.21499 -0.0513 -0.2617 0.05317 -0.5591 0.08624 0.29820 0.12351 0.02506 0.04235 -0.1732 0.17147 0.10690 0.14734 0.28497 0.15590 -0.1942 -0.0497 -0.0528 0.21752 -0.0710 0.08225 -0.4318 0.01372 0.29523 -0.1833 -0.3546 -0.1619 -0.0208 -0.1550 0.21827 0.02591 -0.1706 0.01263 0.00592 -0.1073 -0.1211 -0.3661 0.49319 -0.1703 -0.4281 -0.1562 -0.0736 -0.1560 -0.4558 0.17481 -0.1102 -0.0495 0.18560 0.11372 0.45057 0.10863 -0.0851 -0.0137 0.22560 0.19315 -0.1375 0.15422 -0.3362 -0.4084 -0.3266 -0.0909 -0.3541 0.35041 -0.1225 0.65624 0.22069 -0.0953 -0.5227 0.10153 -0.0643 -0.3913 -0.2755 0.02540 -0.0889 -0.2883 -0.0022 2.43003 -0.0829 -0.0019 -0.2488 -0.3697 -0.1362 -0.2531 -0.1705 0.30224 0.16274 0.09723 0.22006 0.07487 -0.1471 0.04558 0.23046 -0.4372 -0.1947 0.39670 -0.0505 -0.1970 0.16592 -0.0085 -0.3879 -0.2371 -0.1886 0.11353 0.37483 0.45561 0.48270 -0.4559 0.80018 0.12210 0.50736 -0.4008 0.02207 -0.0424 0.49896 -0.6605 0.44097 -0.4608 0.28188 0.17371 0.35593 -0.1741 -0.4935 -0.1522 -0.0569 0.45017 0.51650 -0.2739 -1.1511 -0.0294 -0.0452 0.15933 -0.3036 0.65587 0.58537 0.05308 -0.8416 0.77828 0.46999 -0.2886 0.09138 0.81076
照片 -0.4405 0.67425 -0.2919 0.66554 1.00431 -0.4994 -1.0360 -0.2243 0.32936 -0.4238 0.98067 0.02766 1.31536 -1.1029 0.09612 -0.7088 0.88119 -0.6408 -1.0575 -0.3471 -1.2659 0.92975 0.69962 -0.4251 0.32668 -0.6312 0.75037 0.60534 0.99173 0.74527 0.53436 -0.8243 -0.4618 -0.2090 -0.8407 1.48263 1.03864 -1.1217 0.36594 1.84585 0.46687 1.67323 0.95230 -1.5921 -0.3594 -0.4818 -1.0234 -0.2556 0.16527 -0.6288 1.19840 -0.6590 -0.3659 -1.1491 0.60768 -1.3027 -1.1572 -0.7145 -3.0655 0.28476 1.01256 -0.1500 0.90587 1.11937 0.49973 0.48769 -0.7101 -0.6247 -0.7100 -0.0453 1.20390 -0.4451 0.89994 -0.2133 -0.5692 0.31566 -0.0203 -1.0418 -0.5425 -1.2446 -0.4382 0.45134 0.68836 -0.2442 -0.7360 -0.8223 -0.0560 0.45041 0.26268 -0.9946 -0.8830 0.35915 0.08590 -0.0584 -0.6461 0.71554 0.89455 0.86277 0.15399 0.25634 0.55721 0.66105 -0.6964 0.63243 -0.8285 0.82091 -0.0263 -0.7311 -1.0853 0.58092 0.00126 -0.5135 -0.4257 0.60881 0.31929 0.49420 -0.7921 0.11222 -0.7188 -0.6670 -0.7120 0.62993 0.91364 0.07379 -1.0135 -0.5843 0.39337 0.91446 -0.5896 0.57989 0.87139 -0.0615 -1.0237 0.79425 -1.2390 0.24998 -0.6415 -0.0296 -0.4181 -0.2035 0.06508 0.79799 0.93333 -0.9511 -0.4741 0.52981 -1.3928 0.14942 -0.5907 0.13196 0.47465 0.53679 -0.3334 0.46269 1.23217 -0.4533 0.55073 -0.4138 -0.0491 0.73012 0.31680 0.03333 0.59532 -0.2928 0.10077 0.31492 0.26940 0.81783 0.78859 0.64892 0.85393 0.56070 0.80899 0.16851 -0.0210 -0.1575 0.74732 0.64440 -0.0811 -0.5441 -0.8125 -0.7651 0.02085 -0.0018 -0.8596 0.79188 0.00207 -0.6396 -0.1502 0.62085 -0.0592 0.29681 -0.8024 -0.5758 -0.1379 -0.7162 -0.7941 -0.7062 0.27942 0.56783 -0.2188 -0.4871 -0.0985 -0.2372 0.58783 0.16061 0.03133 -0.0661 -0.0056 0.52870 -1.2050 0.00099 -0.5830 0.31883 -0.7695 -0.3583 0.11932 -0.8886 0.78150 0.44670 -0.8456 0.53378 0.21151 -0.7010 -0.7914 0.99590 -0.5337 -0.6081 -0.5754 0.29377 -0.6051 -0.1631 -5.2399 -0.9007 -0.1319 0.93175 -0.0645 -1.6011 -0.2638 -0.6681 0.92916 -0.7878 0.83784 0.11413 -0.5043 0.24625 -0.2372 -0.3708 -0.7871 0.79571 -0.1987 0.18915 -0.6787 0.09644 -0.2553 -0.3675 0.51375 0.57050 -1.4834 0.10476 0.52856 -0.2741 -0.5704 -0.2319 -0.2313 -0.6945 -0.9850 -0.3170 -1.7247 -1.3832 -0.1866 0.46645 0.97247 -0.6633 -0.1894 -0.3122 0.02922 0.60465 0.28572 -0.6573 0.52931 1.26432 0.21677 0.40322 -0.2827 -0.0408 0.15819 0.53526 -0.9498 0.20939 -0.8925 -1.1003 -0.7306 -0.8949 0.19417 -0.9939 0.13696 -0.5625 1.51533 0.07758
成绩单 -0.0213 -0.3017 -0.0976 -0.1857 -0.1424 -0.0201 -0.0054 0.15327 -0.1471 0.04799 0.25939 -0.0267 0.18846 0.06182 0.12771 0.51909 0.12390 0.25706 0.00616 -0.0842 0.20973 0.28132 -0.2805 0.00441 0.04253 0.17530 -0.1899 0.03803 0.08302 0.29876 -0.1970 -0.0345 0.08630 0.27030 -0.2208 0.05699 -0.1543 -0.1748 0.06135 0.22381 -0.0880 0.01001 -0.1664 0.39890 0.00472 0.08666 -0.1882 -0.0218 -0.1720 -0.1999 -0.1427 -0.1737 0.15712 -0.0683 0.17710 -0.0254 -0.3499 0.04183 0.87614 0.04202 0.02579 -0.0231 0.20133 0.01090 -0.2239 -0.2668 0.14964 -0.0846 0.03768 -0.0314 0.00618 0.07065 -0.2833 0.12937 -0.1147 -0.1695 -0.0265 -0.0784 -0.0777 -0.0839 -0.0315 0.07330 -0.1157 0.06862 -0.1211 0.08078 -0.0129 0.23680 0.03607 -0.1797 0.05592 0.01743 -0.0757 -0.0916 -0.1032 -0.1538 0.24049 0.16698 -0.0352 -0.0942 0.25812 0.26539 0.27495 -0.3772 0.10883 0.21175 0.34677 0.00497 0.10062 0.25481 0.01046 0.01814 0.02708 0.06045 -0.0674 0.03341 -0.0405 -0.0523 0.18019 0.17184 0.06870 0.05195 0.09502 0.10835 -0.0093 0.02094 -0.1091 -0.1719 -0.0126 -0.0993 -0.1031 0.19977 0.10516 0.10624 0.16981 -0.1038 0.04359 0.23690 -0.0651 -0.4673 -0.0760 -0.0724 0.24904 0.10702 0.00406 -0.1681 -0.0514 -0.0517 -0.0682 -0.1307 0.19783 0.03391 0.06038 0.21282 -0.2461 0.07196 0.05232 0.21348 -0.1977 0.05645 -0.1456 0.11835 -0.1601 0.31677 -0.1288 -0.1375 0.16390 -0.2043 -0.4136 0.15432 0.02371 -0.0189 -0.0098 -0.1932 -0.0797 -0.0445 0.04361 0.00154 -0.1056 0.07747 -0.2050 0.11622 0.18665 -0.3857 -0.2401 0.20727 -0.3016 -0.5270 -0.0774 -0.3720 -0.0899 -0.4066 0.20189 -0.0977 -0.1233 -0.3282 0.55796 0.09066 -0.0272 -0.0850 -0.1796 0.08569 -0.3486 0.37311 -0.1678 -0.5124 -0.0185 0.21136 0.52385 0.08054 0.04258 0.07132 -0.0615 0.17520 -0.4939 -0.2539 -0.4767 -0.3380 -0.2436 0.01424 0.00976 -0.0342 -0.2433 0.66565 0.33308 -0.0468 -0.4472 0.21566 0.28559 -0.1998 0.14834 -0.2346 -0.2319 0.12884 -0.2753 -0.2504 0.18632 -0.2366 -0.1760 0.23480 0.07830 -0.0529 -0.3856 0.48598 0.09022 0.21666 0.01535 0.09356 0.05923 0.00526 -0.3692 0.00397 -0.0565 0.47388 -0.1006 -0.2437 -0.0950 0.08928 -0.2530 -0.0617 -0.0324 -0.0635 0.52074 0.21857 0.42149 -0.3630 0.50916 0.16281 0.41683 -0.1916 -0.6750 0.14689 0.50704 -0.0869 0.23876 0.14940 0.76628 0.15215 0.40410 -0.0583 -0.6625 0.11532 -0.2386 0.35992 0.73272 -0.2959 -0.9855 0.13800 -0.0926 -0.2289 -0.4552 0.47871 0.60187 0.18295 -0.1251 0.62475 0.72924 0.28080 0.12906 0.30972
倾向 -0.2396 0.67239 -0.2855 0.22164 0.47139 -0.2051 -0.5394 -0.2244 0.16038 -0.1406 0.89023 -0.1566 1.14492 -0.8921 0.35367 -0.8312 1.01622 -0.3643 -1.1197 -0.8554 -0.4146 1.17562 1.10377 0.02436 0.66149 -0.5947 1.01083 0.03859 0.51187 0.61092 0.79781 -0.5901 -0.5849 -0.6507 -1.0982 1.16770 0.92579 -0.3761 0.37565 1.37429 0.78385 0.96385 1.06229 -0.8219 -0.4607 -0.4710 -0.8754 -0.2361 0.04466 -1.1655 0.77629 -0.4816 -0.4612 -0.8216 0.28972 -0.9211 -1.2859 -1.2791 -2.6223 0.35464 0.72564 -0.2402 1.04923 1.15797 0.30717 0.74136 -0.6625 -0.5455 -0.3834 -0.3698 1.33190 -0.4190 1.26212 -0.2601 -0.9113 0.25490 0.07628 -1.0085 -0.3997 -1.2832 -0.2633 0.29032 0.67458 -0.6015 -0.8566 -0.8441 0.19245 0.73475 -0.0130 -0.8010 -1.0136 0.70225 0.19229 -0.2584 -1.0337 1.16004 0.50568 0.60199 0.13329 0.36436 -0.0013 0.64864 -0.4492 0.64471 -0.6526 0.42365 0.42323 -0.7531 -0.5868 0.16118 -0.1588 -0.5206 0.02110 0.64922 0.31453 0.34306 -0.4821 0.14106 -0.5917 -0.9638 -0.6368 0.82164 0.35169 0.14621 -1.0568 -0.8034 0.65024 0.46841 -0.9722 0.58137 1.11846 -0.1444 -1.2300 0.94945 -1.0400 0.09695 -0.1261 -0.1042 -0.7813 -0.4110 -0.3589 0.73373 1.40027 -1.2630 -0.6739 0.93067 -1.2903 -0.0768 -0.8088 -0.3500 0.86867 0.85106 -0.0940 0.63874 0.66130 -0.6538 0.36573 -0.1838 -0.2994 0.71370 0.65721 0.34162 0.37281 -0.2266 -0.3371 -0.0088 -0.1356 0.76887 0.67547 0.44486 0.56511 0.52028 1.46995 -0.3103 -0.0435 -0.6898 0.83921 1.08259 -0.2486 -0.1858 -0.5451 -0.3057 0.26953 0.46343 -0.0228 0.90385 0.14901 -0.3329 -0.4646 0.50053 -0.2625 -0.5898 -0.0381 -0.3077 -0.3484 -0.2064 -0.5385 -0.7361 0.04068 0.21915 -0.2019 -0.1178 -0.2111 -0.8604 -0.2275 -0.1029 0.58917 -0.4907 -0.1721 0.39795 -0.9029 0.07484 -0.4910 0.37553 -0.8242 0.05312 0.14361 -0.0658 0.51929 0.75223 -0.5718 0.86768 0.51417 -0.0704 -1.3261 0.92379 -0.3919 -0.2862 -0.9951 -0.0596 -1.3408 -0.3553 0.43190 -0.4243 -0.2563 0.97176 0.19662 -0.8529 0.01240 -0.1982 0.60598 -0.9139 0.40025 -0.2060 -0.3162 -0.2154 -0.8397 -0.3989 -0.3087 0.48957 -0.5324 -0.1930 -0.7990 0.50659 -0.7120 0.09983 0.60828 0.51185 -1.3233 0.00836 0.20753 -0.2560 -0.1763 -0.2222 -0.6439 -0.3069 -0.7244 -0.4130 -2.0786 -1.0423 -0.2988 0.00933 1.07793 -0.8182 0.09547 0.00309 0.07636 0.85576 -0.1197 -0.9879 0.71211 1.95962 0.10537 0.39965 0.27797 -0.2143 0.07181 0.15554 -1.4537 0.11102 -1.4509 -0.9935 -0.5957 -0.6115 -0.2507 -0.8472 0.42028 0.50893 1.73658 -0.0384
