安徽医科大学临床医学院 1.51497 0.28450 -0.1377 -0.1763 0.06942 0.50144 0.42902 -0.1804 0.02862 -0.0678 -0.2756 -0.2543 0.14571 -0.0333 -0.0805
安徽医科大学 1.69583 0.25041 -0.1830 -0.4959 0.41114 0.62643 0.32532 -0.2019 0.08370 0.08329 -0.1210 -0.3039 0.03157 0.14973 -0.0303
安徽中医学院 1.17862 -0.0869 -0.2551 -0.4741 0.39573 0.70774 0.14701 -0.3086 0.31995 -0.0330 -0.3535 -0.0474 0.18783 0.00877 -0.2709
安徽工业大学 1.81309 0.14320 -0.1856 -0.1824 0.32276 0.35281 -0.0047 -0.3363 0.05807 -0.0160 0.20780 0.05816 0.00575 -0.0624 -0.0771
安徽工程科技学院 1.28337 -0.5999 -0.3278 0.01031 0.26438 0.55601 -0.2094 -0.3978 0.07133 -0.1339 -0.1351 -0.1902 0.25789 -0.0989 0.01519
安徽农业大学 1.36992 0.39181 -0.2148 -0.1116 0.42628 0.18429 -0.1020 -0.3930 -0.0908 0.21710 0.03046 0.05845 -0.1079 0.15224 -0.2696
安徽师范大学 1.37633 0.50342 0.02130 -0.5021 0.38692 0.60689 0.12532 -0.2902 0.14761 0.20884 -0.1272 0.02738 -0.0042 0.02468 -0.0873
安徽技术师范学院 0.89519 0.33423 -0.3802 0.00843 0.26149 0.51748 0.11332 -0.4351 -0.0004 0.07558 -0.4860 -0.3064 0.02398 -0.1206 -0.1767
安徽理工大学 1.90788 -0.2552 -0.1710 -0.3708 0.38296 0.33133 -0.0469 -0.3670 0.16522 0.12691 0.08732 -0.0645 -0.0708 -0.1070 -0.1100
安徽外国语学院 1.26923 0.27461 -0.0307 -0.0965 -0.2711 0.27918 0.07846 -0.0755 0.09966 0.09111 -0.1549 -0.0694 0.02704 0.09771 0.01593
安徽黄山医科大学 1.61276 0.15277 0.03903 -0.2617 0.36456 -0.0963 0.25967 -0.1803 -0.0571 0.03110 -0.2918 -0.2518 -0.0473 0.14151 -0.1253
安徽经济管理学院 1.43891 0.11339 -0.1623 -0.0405 0.24458 0.38511 -0.1178 -0.2455 0.23409 -0.2648 -0.2406 -0.0276 -0.0437 0.08444 -0.1725
安徽职业技术学院 1.07768 0.20880 -0.1883 0.14688 0.09099 0.48731 0.13484 -0.2525 -0.1037 -0.0662 -0.2499 0.10632 0.22945 -0.0276 -0.1515
安徽财经大学 1.37607 0.22051 -0.0680 -0.3707 0.30447 0.26225 -0.0802 -0.1073 0.27657 0.06541 0.07431 0.15987 -0.0573 0.25069 0.04466
爱心帐篷 -0.0233 0.33628 -0.2178 0.88058 -0.7654 -0.3722 0.11176 0.33685 0.27041 -0.1594 0.03562 0.71630 0.38277 -0.0325 -0.3794
鞍山师范学院 1.44288 0.23291 -0.3938 -0.1527 0.61742 0.24559 0.28104 -0.2078 0.01034 0.18643 -0.5797 -0.2597 0.03708 -0.2199 -0.0900
保山中医药高等专科学校 1.38423 -0.3237 -0.1690 -0.0233 0.15381 -0.0356 -0.0895 0.23845 -0.0599 -0.2441 -0.3638 -0.0790 0.32893 -0.1878 -0.2079
保定陆军军官学校 1.03348 0.32985 0.02897 -0.3672 0.23152 0.30221 -0.1506 0.10829 -0.0981 -0.3380 -0.2543 -0.0781 0.73982 -0.0264 -0.1747
保定学院 1.49868 -0.0004 -0.4334 -0.4278 0.34929 0.50906 0.37294 -0.1220 0.12640 0.19018 -0.2448 -0.0963 0.31138 -0.1770 -0.1626
保山师范高等专科学校 1.41270 -0.3298 -0.3569 -0.0380 0.43200 -0.1248 -0.0076 0.06794 0.06837 0.12041 -0.3882 0.18869 0.29852 0.06894 -0.3561
包头市职工大学 1.65871 0.26113 -0.2615 -0.1466 0.26260 0.01398 -0.1953 -0.0871 -0.1146 0.07131 0.13445 0.08848 0.08996 -0.1329 -0.0793
包头铁道学院 1.04435 0.53992 -0.2792 0.02573 0.00455 0.25943 -0.0415 -0.1174 0.14882 -0.0442 -0.2737 -0.0707 0.24221 -0.0340 -0.0659
八一农垦大学 1.47868 0.20587 0.00446 -0.1841 -0.0221 -0.0587 0.10509 0.00268 0.06221 0.07561 -0.0688 0.02609 -0.0137 0.04064 -0.0964
北京中法大学 1.72225 -0.3635 -0.0637 -0.5447 -0.1848 0.02764 0.04221 0.19576 0.11220 0.46045 0.23080 0.19734 -0.2064 -0.0091 0.22226
北京京华医科大学 1.68230 0.10280 -0.1168 -0.1753 0.12136 0.13668 0.28117 0.26568 0.03161 0.18700 -0.1799 -0.4290 0.02376 -0.1031 0.02893
北京京海学院 1.37983 -0.4158 -0.3756 -0.3803 0.46580 0.03826 0.31458 0.22587 0.15188 0.07351 -0.0692 -0.0293 0.19351 -0.0238 0.34769
北京人文函授大学 1.38717 -0.5940 -0.0864 -0.2910 -0.1500 0.23412 0.15386 -0.0281 0.14679 0.34409 0.05131 0.07377 -0.1053 -0.0692 0.06667
北京中医药大学 1.58593 0.06171 -0.1930 -0.3768 0.32918 0.10119 0.10958 -0.0362 -0.0873 -0.0071 -0.0049 -0.0854 -0.0994 0.07492 -0.1624
北京兴华大学 1.45596 0.92702 -0.1238 -0.4484 0.55180 0.11571 0.27902 -0.1799 0.12215 0.27651 0.29373 0.23445 -0.1895 -0.0622 0.19308
北京人文大学 1.68198 -0.4463 -0.1023 -0.4732 -0.0678 0.09264 0.02780 0.08980 0.21470 0.49215 0.22752 -0.0172 -0.1741 -0.1308 0.16268
北京体育大学 1.40597 -0.0310 -0.4931 -0.1702 0.18722 0.14290 0.44106 0.18977 0.12082 0.32982 0.18281 -0.2519 -0.1169 -0.1285 -0.0048
北京信息工程学院 1.50785 -0.5308 -0.0857 -0.6374 0.12952 0.62826 -0.2230 -0.7983 0.40038 -0.3035 0.25972 0.28998 0.19045 -0.0404 0.56036
北京农学院 1.33659 0.28183 -0.5822 -0.1921 0.42964 0.46404 0.33187 -0.2114 0.03390 0.23615 -0.1540 -0.0453 0.12541 -0.0190 0.15055
北京北大方正软件职业技术学院 1.13901 -0.2668 -0.1062 0.30223 -0.2025 -0.1534 -0.1744 -0.1383 -0.2466 -0.0421 -0.0267 0.20101 -0.0037 -0.0893 -0.0876
北京农业工程大学 1.46323 -0.0324 -0.3046 0.05964 0.23045 0.22110 -0.0865 -0.2675 -0.0542 0.15291 0.20425 0.05899 0.00969 -0.1994 0.01805
北京化工大学 1.72873 -0.3347 -0.4826 -0.2605 0.25548 0.19879 -0.0243 -0.1821 0.01145 0.32885 0.44683 -0.3465 -0.2119 -0.1347 0.14676
北京印刷学院 1.09404 -0.1730 -0.4741 0.02590 0.10346 0.40006 0.14564 -0.1451 0.27369 0.21004 -0.0679 0.03087 -0.0038 0.01814 0.16357
北京华城学院 1.16152 0.00467 -0.6533 -0.4785 0.50960 0.07081 0.38108 0.00392 -0.1748 0.04438 -0.7272 0.04642 -0.3142 0.20506 0.45325
北京协和医学院-清华大学医学部 1.94981 -0.0254 0.03864 -0.2788 0.13713 0.11833 0.22618 -0.1996 -0.1255 -0.0778 0.10191 -0.1150 -0.0122 -0.0133 -0.0036
北京城市学院 1.23797 -0.3245 -0.4668 -0.2043 0.27740 0.07963 0.08507 0.04590 0.21857 0.15612 -0.2708 0.07981 0.08767 -0.0546 0.14092
北京大学外国语学院东方语言文化系 1.39361 -0.1485 0.12159 -0.0161 -0.5463 -0.0911 0.01204 0.02753 0.03372 0.17907 -0.0224 -0.0471 -0.1690 0.00594 0.09359
北京培黎大学 1.28092 -0.1893 -0.3940 -0.1577 0.16460 0.29570 -0.0603 -0.2252 0.18376 0.23951 0.30285 -0.1052 -0.1005 -0.1386 0.09367
北京大学医学院 2.05212 -1.0720 -0.4384 -0.9458 0.07201 1.13672 0.36217 0.43582 1.20324 0.12718 -0.3927 0.24811 0.32891 0.17345 -0.2465
北京大学 1.62348 0.21904 -0.4741 -0.6827 0.39201 0.57604 0.52383 0.00944 0.20980 0.73026 0.37646 0.08454 -0.1775 -0.1637 0.18882
北京大学工学院 2.27144 0.08679 -0.3248 -0.4418 0.27006 0.36688 0.33860 -0.1241 0.17751 0.15484 -0.0483 -0.1549 0.23219 -0.1127 0.09656
北京大学药学院 1.68733 0.58666 -0.8319 -0.3517 -0.2645 -0.8170 0.55776 -0.1450 -0.6092 0.39641 -0.8763 -1.1181 1.14795 -1.4581 -0.2173
北京市农林科学院 1.22542 -0.0627 -0.2563 -0.1099 0.37189 0.32302 -0.2037 -0.1963 0.19232 0.06691 -0.1212 0.07795 -0.1466 -0.0327 -0.0566
北京女子师范大学 0.19012 0.72631 0.83103 -0.7292 -0.4921 0.03079 -0.0570 0.14249 0.44617 0.09997 0.29675 -0.6962 0.11932 0.18324 -0.6490
北京工商大学 1.81220 -0.5008 -0.1100 -0.5134 0.17916 0.26238 -0.1172 -0.0383 0.17382 0.19501 0.27065 0.10569 -0.0743 0.00814 0.00585
北京大学艺术学院 1.74819 0.18074 -0.2474 -0.2433 0.07220 0.31540 0.57344 -0.0441 -0.0055 0.19740 -0.2619 -0.0765 0.02915 -0.0750 0.02937
北京工业大学通州分校 1.63781 -0.4660 -0.1840 -0.1075 0.18376 0.00545 -0.3169 -0.0488 -0.0967 0.03205 0.09922 0.05500 0.19020 -0.1281 -0.1591
北京外国语大学 1.37114 0.26779 -0.1621 -0.2505 -0.1447 0.07890 0.22556 0.14100 0.27029 0.40644 0.16291 0.11995 -0.0330 0.17179 0.22841
北京应用技术大学 1.04035 -0.0226 -0.3344 0.14293 -0.1991 0.22007 0.27904 -0.0679 -0.1673 0.16167 0.18066 -0.0117 -0.0690 -0.1864 0.13520
北京师范大学 1.43973 0.52500 -0.1824 -0.4384 0.21301 0.36383 0.28196 -0.0730 -0.0122 0.51661 0.01385 0.06241 -0.0548 -0.1119 0.04016
北京建设大学 1.20957 0.07558 -0.2936 -0.3996 0.27766 0.33447 0.20481 0.04105 0.03425 0.22771 0.16664 0.18149 -0.1992 -0.1459 0.03267
北京建筑工程学院 1.13830 -0.2903 -0.4533 -0.1626 0.49685 0.43956 -0.1979 -0.0996 0.08426 -0.1089 -0.0851 0.06995 0.12009 -0.1397 0.13993
北京机械工业学院 1.43818 0.14715 -0.4784 0.14618 0.26508 0.27228 -0.1267 -0.1883 -0.1650 -0.0370 0.05110 0.01371 0.17756 -0.1148 0.11548
北京服装学院 1.14421 0.14863 -0.5257 0.06221 0.21870 0.26511 0.36178 0.01312 -0.0366 0.04064 -0.2322 0.10690 0.27441 -0.0231 0.18307
北京物资学院 1.27766 0.01949 -0.5090 0.02007 0.32413 0.16106 -0.0518 0.02472 -0.0039 0.13715 -0.2318 -0.0353 0.10018 0.01717 0.23026
北京理工大学 1.67759 -0.3408 -0.4410 -0.2260 0.19948 0.37266 0.13733 -0.0940 0.22425 0.38651 0.23299 -0.1169 -0.0132 -0.1109 0.11257
北京电子科技学院 1.43109 -0.2910 -0.3427 0.11601 0.04289 0.24200 0.10130 -0.1855 -0.0653 0.04465 0.00922 -0.1976 0.01281 -0.1951 0.20847
北京矿业大学 1.40129 0.23185 -0.5317 -0.0023 0.26846 0.33961 0.17048 -0.1354 0.02274 0.27270 0.23954 0.17648 -0.0964 -0.0468 0.15386
北京石油化工学院 1.59039 -0.3171 -0.3482 0.00777 0.10564 -0.0775 -0.3376 -0.2333 0.12617 -0.2393 -0.0428 -0.3630 0.07014 -0.2044 0.03297
北京电子科技职业学院 1.49520 0.02420 -0.2648 0.26426 -0.0709 0.17456 -0.0179 -0.2150 -0.1009 -0.0466 0.08911 -0.0466 0.09821 -0.1249 -0.0022
北京科技大学 1.61159 -0.4272 -0.5670 -0.0479 0.27912 0.43937 0.18751 -0.2006 0.13002 0.38970 0.25329 -0.0970 -0.1003 -0.0847 0.20166
北京第二外国语学院 1.12227 -0.0394 -0.1081 -0.0089 -0.3889 0.08708 0.07379 0.08761 0.09250 0.05248 -0.0449 0.08918 -0.0472 -0.0195 0.15137
北京联合大学应用文理学院 1.84340 0.09359 -0.1810 -0.0690 -0.2409 0.11971 0.16827 -0.0412 -0.0160 0.02917 -0.0695 -0.1915 -0.1796 -0.2374 0.04074
北京科技大学天津学院 1.83460 -0.4931 -0.2001 -0.1342 0.04838 0.14475 0.21588 0.12147 0.12822 0.07743 -0.0023 0.04603 0.05107 -0.1048 0.14752
北京联合大学 1.53429 0.10936 -0.2469 -0.3207 0.02449 0.10044 -0.0235 -0.0041 0.06841 0.30372 0.25930 -0.0266 -0.2330 -0.0916 0.23006
北京联合大学旅游学院 1.49482 -0.0401 -0.2490 -0.0725 -0.0531 0.03666 0.11566 0.15232 0.06582 0.09699 -0.0456 0.04515 0.15455 0.02231 0.18384
北京航空航天大学 1.22523 -0.5175 -0.4670 0.02552 -0.0456 -0.0359 -0.2493 0.13002 0.10785 0.07978 0.27634 -0.1744 0.18077 -0.0218 0.57764
北京舞蹈学院 1.09052 -0.3902 -0.4268 -0.0658 0.00436 0.34782 0.49845 0.00457 0.44616 0.11875 -0.1778 0.20765 0.36849 -0.1769 0.16304
北京达德大学 1.44535 0.08081 -0.1852 -0.2577 -0.0374 0.22232 -0.1081 -0.0778 0.36137 0.20461 0.07019 -0.1293 -0.3168 -0.3210 0.19925
北京财贸职业学院 1.11064 0.35655 -0.3723 0.13533 0.18701 0.46106 0.11707 -0.0827 -0.0753 0.08471 0.07505 0.39888 0.21894 0.00042 -0.0919
北京青年政治学院 1.39568 -0.5978 -0.0541 -0.4636 -0.0519 0.13736 -0.0930 0.07106 0.46178 0.04297 -0.0694 0.17906 0.09443 0.08380 -0.1102
北京语言大学 1.30501 0.16269 -0.3324 0.02773 -0.2976 0.22265 0.18028 -0.0684 0.13037 0.57974 0.08172 -0.0138 -0.2247 -0.0841 0.03900
北京金融学院 1.09037 -0.2090 -0.5551 -0.0103 0.22722 0.42034 0.16634 -0.1175 0.09465 0.23308 -0.0856 0.03846 0.00326 0.07215 0.28844
北京黄浦大学 1.51479 0.16604 -0.2277 -0.2901 0.59358 -0.0986 0.20506 -0.0630 0.06208 0.17302 0.08558 0.02808 -0.1236 0.04205 0.23842
北京邮电大学 1.60834 0.26475 -0.4117 -0.1278 0.36637 0.10723 0.14026 -0.1069 0.01555 0.17626 0.22849 0.02594 -0.1642 -0.1931 0.24072
北京黄埔大学 1.42963 0.08276 -0.2351 -0.2147 0.33967 0.00364 0.11925 -0.1519 0.05383 0.29023 0.15739 -0.0651 -0.2238 -0.0965 0.09068
北工大耿丹学院 1.06711 -0.5709 -0.3122 -0.1693 0.28083 0.16356 -0.0665 -0.0126 -0.0128 -0.0013 -0.3978 -0.0186 0.19816 0.05534 -0.0337
北华航天工业学院 1.45949 0.02349 -0.3862 0.14678 0.09676 -0.0179 -0.1412 -0.0075 0.11900 -0.1018 0.04250 -0.0382 0.15400 -0.0372 0.26640
北方民族大学 1.61580 -0.1927 0.41626 -0.2820 -0.2005 0.60376 0.89923 0.57389 0.72853 0.67038 0.74434 0.13289 -0.4329 0.32007 -0.1197
北方大学 2.06403 -0.5802 -1.0855 -0.7966 0.14661 0.22353 -0.6843 -0.4797 -0.2461 0.13310 -0.5201 -0.9839 -0.0443 0.09009 0.14176
北方工业大学 1.86589 -0.0484 -0.5100 -0.0983 0.24626 0.14852 -0.1776 0.11073 -0.0642 -0.0203 0.06812 -0.1622 -0.0882 0.00420 -0.0123
本溪大学 1.55990 0.10826 -0.7230 -0.3623 0.65286 0.42822 0.14517 -0.0981 0.05573 0.54128 0.15579 -0.2000 -0.1463 -0.1162 -0.2596
北师大珠海分校 0.95929 -0.5479 -0.3145 0.15940 0.04449 -0.3217 -0.1825 0.21270 0.14228 0.00370 0.05203 -0.1648 0.29673 -0.1550 0.00032
渤海大学 1.87238 0.13056 -0.1644 -0.5627 0.35433 0.16279 -0.2364 -0.1282 0.22477 0.22955 -0.0711 -0.2912 0.02153 0.13421 0.27791
北京建筑大学 1.19988 -0.0659 -0.3093 -0.3728 0.44556 0.29018 0.19589 0.04359 0.08428 0.04223 -0.0370 0.08507 -0.1823 -0.1613 0.13477
巢湖学院 1.41205 0.05161 -0.4875 -0.0241 0.71683 0.12432 0.01524 -0.4648 -0.2701 0.55980 -0.3960 -0.5199 0.27541 0.11518 0.05764
川北医学院 1.44034 0.00729 -0.4584 -0.4627 0.77425 0.59253 0.52848 0.04279 -0.0646 -0.0886 -0.5230 -0.2970 0.08104 0.03637 -0.2143
北京交通大学 1.30350 -0.2618 -0.3743 -0.3420 0.02296 0.18530 0.12408 0.38003 0.21122 0.63470 0.27803 0.22058 -0.0826 -0.0321 0.06608
常州工学院 1.71463 0.17126 -0.5178 -0.3254 0.55080 0.76135 -0.1795 -0.5083 0.11581 0.03304 -0.1678 -0.2318 0.36851 -0.0582 -0.0016
成都中医药大学 1.26975 0.02098 -0.0974 -0.2679 0.18657 0.04806 0.08731 -0.3460 -0.1676 0.09296 -0.0699 -0.1490 0.10147 0.14300 -0.1544
成都体育学院 1.21634 0.02190 -0.3961 -0.1704 0.19311 0.43019 0.15882 -0.1167 0.02364 0.17466 -0.1866 -0.0991 0.14260 0.05156 -0.1172
北洋军医学堂 0.95455 0.54767 0.00430 -0.5360 0.18758 0.68293 -0.0863 0.16261 -0.0307 -0.1087 0.02358 -0.2422 0.47810 -0.1891 -0.1106
白城师范学院 1.34888 0.20403 -0.3593 -0.1411 0.40353 0.22623 0.18150 -0.0113 0.16981 -0.0496 -0.5479 -0.5509 0.03754 -0.2362 -0.3441
成都信息工程学院 1.26885 -0.3034 -0.0969 -0.0218 0.37345 0.56306 -0.2743 -0.2025 0.07892 -0.1120 -0.1995 -0.1657 0.27016 0.12208 0.41667
北京防灾科技学院 0.70640 -0.2567 -0.5715 0.14686 0.11868 0.51324 -0.2454 -0.1054 -0.0612 0.13285 -0.0567 -0.0923 0.26492 0.10450 0.08286
常熟理工学院 1.61516 -0.2098 -0.6724 0.33773 -0.2547 0.72638 0.04064 -0.2314 0.22661 -0.1366 -0.2489 -0.4590 0.12092 -0.1496 -0.1973
成都医学院 1.18195 0.41675 -0.5643 -0.3185 0.37066 0.78599 0.38282 -0.2738 0.05440 0.05764 -0.2544 -0.3240 0.10817 0.02883 -0.1331
成都纺织高等专科学校 1.19815 -0.1956 -0.2399 0.06648 0.17958 -0.0036 0.01933 0.07308 -0.1142 -0.1001 -0.4229 -0.0568 0.31425 -0.0612 -0.2088
成都理工大学广播影视学院 1.71993 0.16141 0.38290 0.01898 -0.2968 -0.0367 0.24571 0.01145 0.75314 -0.1251 0.19454 0.25210 -0.2313 -0.2356 0.31220
成都电子机械高等专科学校 1.42254 -0.1410 -0.2189 0.05380 0.11582 0.02485 -0.1786 0.08686 -0.1773 -0.1904 -0.1709 -0.1193 0.20176 -0.1762 -0.0781
成都理工大学 1.72498 -0.2461 -0.2949 -0.3031 0.10554 0.34131 0.09806 -0.2124 0.09303 0.19206 0.14848 -0.2139 -0.0316 -0.0537 0.02299
成都职业技术学院 1.08470 0.23593 -0.2732 0.15667 0.05693 0.33702 0.06860 -0.2477 -0.2026 0.09534 -0.1816 0.06341 0.16496 -0.1017 -0.1005
成都电子科技大学 1.58930 -0.2787 -0.2679 0.03684 0.04271 0.00878 -0.0820 -0.2446 -0.1577 0.06948 0.14870 -0.2886 -0.1885 -0.0922 0.09840
材料科学与工程学院 1.56852 -0.1144 -0.4949 0.23034 -0.0684 0.52152 0.17252 -0.2729 -0.0663 0.00736 -0.1725 -0.3196 0.10910 -0.0644 0.16651
承德石油高等专科学校 1.43100 -0.5439 -0.2844 0.01658 0.20430 0.00298 -0.3320 0.21338 0.07590 -0.2192 -0.3437 0.02430 0.18495 -0.2261 -0.1719
承德医学院 1.56101 0.10069 -0.4707 -0.1942 0.13492 0.83596 0.25260 -0.1171 0.33151 -0.0116 -0.2246 -0.0214 -0.1054 -0.3904 -0.0847
朝阳师范高等专科学校 1.32193 -0.0112 -0.2317 0.01802 0.21228 0.15322 0.06888 0.19853 -0.2254 0.12164 -0.3260 0.08813 0.28215 -0.1258 -0.2664
成都大学 1.73083 0.27908 -0.4704 -0.5632 0.58305 0.31543 0.35253 -0.2218 0.11113 0.17124 0.19662 -0.3113 -0.1470 -0.0123 0.10764
楚雄医药高等专科学校 0.93187 -0.2380 -0.0531 0.32915 0.13965 0.14031 0.01257 0.38651 -0.0561 -0.0043 0.00492 -0.2997 0.06110 -0.2684 -0.1123
池州学院 1.54695 0.10214 -0.4514 -0.5055 0.91514 0.56512 0.11086 -0.1706 0.16136 0.24913 -0.3547 -0.0979 0.21883 0.04120 -0.1198
楚雄师范学院 1.13246 0.24989 0.04901 -0.2526 0.08937 0.24300 0.37354 -0.1621 0.03278 0.09258 -0.4089 -0.6205 -0.0258 -0.2566 -0.0942
沧州师范专科学校 1.07723 0.55216 -0.0560 -0.1178 0.41019 0.25771 0.16155 -0.2698 -0.3097 0.13321 -0.4258 0.11562 0.33550 0.07871 -0.2175
滁州学院 1.53248 0.06288 -0.3595 -0.1211 0.55958 0.98054 -0.0353 0.12194 0.17850 -0.0008 -0.5486 -0.3902 0.26324 0.05879 -0.1971
长春大学 1.50282 1.08244 -0.4397 -0.3837 0.40199 0.40089 0.48731 -0.0448 0.22050 0.49151 0.33503 -0.2418 -0.1913 -0.0469 -0.1165
船舶与海洋工程 0.24301 -0.8684 -0.6919 0.54346 0.10926 -0.1271 -0.6453 0.09987 -0.2829 -0.1692 0.01507 -0.2045 0.30380 0.00230 0.43477
长春大学光华学院 1.91847 0.60707 -0.0710 -0.1329 0.13551 -0.2018 0.45089 -0.0510 0.31604 0.08987 -0.0087 -0.1916 -0.0853 0.29562 -0.0463
长春医学高等专科学校 1.65623 0.29827 -0.2733 -0.0553 0.11078 0.24638 0.21260 0.18902 -0.0200 -0.0300 -0.2979 -0.1373 0.22120 -0.1900 -0.2637
长春工业大学 1.76196 0.63328 -0.3763 -0.0280 0.28761 0.16889 0.07496 -0.1036 0.01667 0.13931 0.38962 -0.0192 -0.0435 -0.1097 -0.0826
长春工业大学人文学院 1.83655 0.14761 -0.1194 -0.2121 -0.0767 0.11419 0.05355 0.12431 0.21741 0.24875 -0.0644 0.00910 0.08445 -0.0025 -0.0934
长春汽车工业高等专科学校 1.17983 0.02949 -0.4841 0.42167 0.23539 0.11409 -0.1185 0.13527 -0.2146 -0.0657 0.11330 0.17557 0.47772 -0.2553 -0.1793
长春广播电视大学 1.04912 0.61988 -0.2518 0.07008 -0.0462 -0.0875 0.33286 0.09502 0.06487 0.15622 0.25578 0.14442 -0.0114 0.00229 0.05078
长春工程学院 1.84155 0.12361 -0.2068 -0.0011 0.27677 0.24961 0.02625 -0.4075 0.19164 -0.0696 0.15596 -0.0379 0.20676 -0.2475 -0.1503
长春税务学院国际交流学院 1.58372 0.28297 -0.1361 0.10823 -0.0212 0.03719 0.01299 0.06015 -0.0744 -0.1504 -0.1852 0.03200 0.06684 0.16567 0.03420
长春税务学院 1.01244 1.15610 0.06926 -0.4804 0.80051 0.59248 0.38040 -0.3361 -0.2626 -0.4022 0.17066 0.94992 -1.8929 -0.5436 0.39187
长春金融高等专科学校 1.14239 -0.2662 -0.3351 0.07044 0.18184 0.11135 -0.0745 0.19635 -0.0053 0.03695 -0.3717 0.00348 0.26445 0.01888 -0.1163
长春理工大学 1.78794 0.25252 -0.4120 -0.1111 0.16066 0.28563 0.20129 -0.1187 0.20601 0.26939 0.28833 -0.1688 -0.1189 -0.1401 0.02210
长江师范学院 1.65398 0.94214 -0.1497 -0.1611 0.38913 0.18314 0.07458 -0.2930 -0.0166 0.09102 -0.1762 -0.5306 -0.0840 -0.2335 -0.3205
长沙理工大学 1.68456 0.28271 -0.2916 -0.0926 0.13845 0.41470 0.14762 -0.1329 0.17716 0.27184 0.12368 -0.2223 -0.0868 -0.0884 0.01252
长沙师范专科学校 1.03149 0.59649 -0.1739 -0.0830 0.38507 0.33196 0.22444 0.04080 -0.1123 0.14696 -0.4446 0.03293 0.32561 -0.0436 -0.2403
东北八一农垦大学 1.56545 0.21079 0.09838 -0.1142 0.06164 -0.4772 -0.1369 0.08967 -0.0791 -0.0347 -0.1234 0.19460 -0.0514 0.04210 -0.0286
长沙电力学院 1.48679 0.64735 -0.3193 0.03177 0.11306 0.12524 -0.2330 0.07357 -0.0423 -0.0937 0.01165 -0.1865 0.08579 -0.2273 0.13038
东北农业大学 1.59139 0.82265 -0.3044 0.02662 0.30992 -0.0092 -0.1067 0.02687 -0.1159 0.13526 -0.0002 -0.0436 -0.0962 0.04845 -0.2157
东北农业大学成栋学院 1.86745 0.31412 -0.1665 0.13271 -0.0415 -0.1318 -0.0388 -0.0405 -0.1609 0.01504 -0.1290 -0.0646 0.02678 0.00199 -0.1922
东北大学秦皇岛分校 1.35868 -0.0433 -0.0287 -0.1628 0.00988 -0.0552 0.01459 0.26301 0.13813 -0.2409 -0.0156 0.11295 0.18611 -0.0632 -0.0306
东北大学大连艺术学院 1.65982 0.42036 0.01152 -0.2202 0.04298 -0.0107 0.35965 0.00341 0.01161 0.01902 -0.1227 0.00931 0.08720 0.06572 -0.0850
东北林业大学 1.76724 0.43139 -0.1056 -0.2543 0.44334 -0.1032 0.04484 0.13868 0.06639 0.12051 0.11561 0.07697 -0.1106 0.04813 -0.1625
东北师范大学文学院 1.87128 0.42858 -0.0331 -0.3413 0.05820 0.16641 0.15569 0.08069 0.17932 0.20736 -0.2754 -0.0469 0.00097 0.06101 -0.0325
东南大学化学化工学院 2.59871 0.18803 -0.0709 -0.1639 -0.0051 -0.0720 0.12542 -0.0149 -0.0374 -0.1480 -0.0174 -0.4189 -0.1226 -0.0971 -0.0498
东北大学东软信息学院 1.66560 0.35890 -0.0630 0.00822 0.02906 -0.0265 0.00622 0.06171 0.02302 -0.0880 -0.0807 -0.0087 -0.0278 0.07102 -0.1034
大庆师范学院 1.23110 0.78039 -0.4103 -0.1170 0.25702 0.43820 0.32749 -0.2069 0.02308 0.16085 -0.3759 -0.3154 -0.0828 -0.2446 -0.2326
大连商务职业技术学院 1.09538 0.36577 -0.1698 0.20101 -0.0008 0.22985 0.20048 -0.0881 -0.3345 -0.0793 0.03522 0.10929 0.17436 0.00377 -0.0757
大庆石油华瑞学院 1.10431 -0.1198 -0.3284 0.18620 0.21738 -0.3467 -0.0653 -0.0635 0.28669 -0.1277 -0.0687 -0.1668 0.18736 -0.0116 -0.0390
大庆医学高等专科学校 1.51767 0.25025 -0.2973 -0.0680 0.16083 0.26468 0.24937 0.15972 -0.0649 0.00074 -0.3155 -0.0077 0.25654 -0.1499 -0.2977
大庆石油学院 1.37085 -0.1082 -0.5038 0.04179 0.30126 -0.2821 -0.1796 -0.0134 0.10188 -0.0416 -0.2556 -0.3124 0.08874 -0.1002 -0.1028
大连师范专科学校 0.86303 0.43396 -0.3368 -0.0468 0.22342 0.50107 0.29235 -0.0080 -0.2844 0.13845 -0.2508 0.09980 0.35214 0.03606 -0.1490
大连交通大学软件学院 1.28604 1.09860 0.43668 0.32041 0.46274 0.43548 1.73350 0.09069 -0.5392 0.81609 -0.6743 -0.3824 1.07008 -0.2723 0.92667
大连交通大学信息工程学院 1.58407 -0.3512 -0.0894 -0.0711 0.01039 0.11323 -0.1238 0.06498 -0.0313 -0.0692 0.03156 0.11490 0.20081 0.08650 -0.0647
大连职工大学 1.40394 0.69832 -0.2892 -0.3943 0.33295 0.38947 0.00134 -0.0590 -0.1820 0.17038 0.24975 0.00302 0.08335 -0.0209 0.03299
大连理工大学工业催化系 1.37523 -0.3461 -0.2045 0.20466 -0.2389 0.09770 -0.0671 -0.2385 -0.2049 0.15240 0.17833 -0.0893 0.03151 0.08728 0.11337
大连软件职业学院 1.01687 0.57483 -0.4686 0.44461 -0.0959 0.44646 -0.0527 -0.1970 -0.2832 -0.1594 0.16420 0.24172 0.17913 0.23002 -0.1036
大连民族大学 0.76767 0.33981 -0.1281 -0.3955 -0.1829 0.39419 -0.1286 0.16466 -0.0305 0.53449 0.03112 0.04417 -0.0055 0.39841 -0.0971
大连广播电视大学 0.96964 0.45980 -0.2745 0.08628 -0.0999 -0.0404 0.30396 0.02262 0.00858 0.03362 0.32480 0.11669 0.05159 0.11169 0.15307
对外经济贸易大学 1.17394 0.50036 0.00743 0.06294 -0.2897 0.19675 -0.2141 0.12282 -0.1325 -0.0343 0.06958 0.04665 -0.1507 0.10744 0.04738
大连艺术职业学院 0.50705 0.29592 -0.1117 0.03055 -0.3322 0.50834 0.10550 0.42075 0.27757 0.44279 -0.1912 0.25625 0.28613 0.22496 -0.6521
对外经贸大学 1.53120 0.71689 -0.2222 0.09671 -0.1857 0.21850 -0.0925 0.09112 -0.1970 0.14327 0.23826 0.13992 -0.2479 0.03128 0.16031
戴尔国际英语学校 0.84878 0.59821 -0.2577 0.22142 -0.3728 0.22940 0.10485 0.22256 0.26202 -0.2189 -0.3050 -0.1505 -0.0591 -0.0609 0.04529
德宏师范高等专科学校 1.16566 -0.2541 -0.2549 0.06613 0.20114 0.39124 0.08347 0.17071 -0.0757 -0.2303 -0.3958 0.03798 0.29593 -0.2386 -0.2165
邓镜波学校 0.70180 0.19371 -0.4589 0.14449 0.12191 0.39985 0.49597 0.26897 -0.0786 -0.0822 -0.1948 -0.1451 0.22802 -0.2171 0.02378
电子科技大学成都学院 2.03165 -0.2192 -0.2206 0.06820 -0.1541 0.00421 0.14274 -0.1212 -0.1437 0.04158 0.00141 -0.2883 -0.0607 -0.0603 0.07530
复旦大学外文学院 2.13917 0.11562 0.19174 -0.3316 -0.1516 0.35303 0.40080 -0.1143 0.25679 0.40560 0.10347 -0.3970 -0.0093 0.05592 0.06159
第一军医大学 1.64906 0.28407 -0.3004 -0.3146 -0.1670 0.47432 0.29727 0.18017 0.09078 -0.1220 0.11527 -0.2125 0.11397 -0.2553 0.08198
大夏大学 1.46551 -0.1312 -0.5064 -0.5196 0.24605 0.29406 0.51398 0.21452 0.32164 0.30837 0.07765 -0.1679 -0.1352 -0.0610 0.05770
复旦大学 4.54289 0.26830 4.57645 2.39724 1.59710 1.59658 0.22677 0.09717 0.62025 1.18901 0.59181 -0.6184 -0.2915 0.15944 0.16962
福州大学公共管理学院 2.12941 -0.3389 -0.1437 -0.1790 0.16634 0.17619 -0.2788 -0.0591 0.14516 -0.1239 -0.0907 0.00913 -0.0160 0.13925 -0.2312
福州大学材料科学与工程学院现 1.60581 -0.0710 -0.2031 0.13441 -0.0539 0.16785 0.05438 -0.2013 -0.0935 -0.1063 -0.1751 -0.1504 -0.0155 -0.0398 0.06561
福州大学化学化工学院 2.46332 0.09871 0.05043 -0.6716 0.15733 0.10785 -0.0984 -0.0762 -0.0220 -0.1714 -0.0013 -0.2017 0.01644 -0.1777 -0.0408
福州大学机械工程及自动化学院 1.58394 -0.1744 -0.1305 0.14686 -0.1304 0.13851 -0.1825 -0.2005 -0.3157 -0.3125 0.08188 -0.0677 0.05568 -0.0871 0.01021
番禺职业技术学院 0.98898 0.08531 -0.3080 0.22326 0.10654 0.46194 0.26537 -0.0521 -0.2228 -0.1318 -0.2376 0.10162 0.20091 0.04119 -0.0039
福州大学电气工程与自动化学院 1.78432 -0.1585 -0.1248 0.15110 -0.1818 -0.0914 -0.2325 -0.0430 -0.1840 -0.2378 0.16966 -0.1149 -0.0300 -0.1655 0.04861
福州大学生物科学与工程学院 2.01144 -0.1934 -0.1649 -0.0054 -0.0155 0.16241 -0.1107 -0.1067 0.03287 -0.1900 -0.0218 -0.3019 -0.0360 -0.0620 -0.0735
福州大学 1.82370 0.08448 -0.4672 -0.5652 0.77938 0.58412 -0.0226 -0.1273 0.15894 0.35194 0.13334 -0.1565 -0.2148 0.04595 -0.0761
福州大学阳光学院 1.87971 0.02854 -0.1995 -0.1813 0.31487 0.01904 0.05121 -0.0479 0.21283 0.05467 -0.1129 -0.0653 0.01297 -0.0043 -0.0723
福建中医学院 1.26318 0.06733 -0.6028 -0.2282 -0.0494 0.33698 0.50569 -0.5749 0.12549 0.26339 -0.3326 0.01484 0.01657 -0.0164 -0.4400
福州服装与艺术设计学院 0.99121 0.31690 -0.3075 0.41781 -0.0489 -0.0035 0.10629 -0.1642 -0.1880 -0.3143 -0.2887 0.15017 0.20514 0.00054 -0.0100
福建农林大学 1.25553 -0.0132 -0.0182 -0.3467 0.41507 0.17637 -0.0481 0.26025 -0.0945 0.39129 0.03247 -0.0509 0.13450 -0.1858 0.29807
福建医科大学 1.86298 -0.1287 -0.2322 -0.5412 0.49354 0.39565 0.28938 -0.0513 0.09842 0.00393 -0.1965 -0.1794 0.10674 0.24058 0.00559
福建农业大学 1.28473 0.36472 -0.2311 -0.2061 0.35050 0.02572 0.12077 -0.0818 0.20934 0.37824 0.15190 0.00652 -0.0235 0.07936 -0.1523
福建协和大学 1.64774 -0.0104 -0.1177 -0.4048 0.27408 -0.1088 0.18506 0.05850 0.20578 0.03976 0.15987 0.02996 -0.2008 0.05024 0.08705
福建师范大学 1.36542 0.41854 -0.0372 -0.5277 0.38896 0.42771 0.12166 -0.1538 0.04056 0.23203 0.03747 0.02104 0.01438 0.11810 -0.0816
福建工程学院 1.82333 0.09854 0.08739 -0.4815 0.50789 0.16321 -0.2855 -0.0008 -0.4122 -0.1219 -0.4440 -0.4296 0.49848 0.05333 0.58080
福建集美大学 1.30245 -0.5553 -0.1420 -0.2963 0.38081 -0.0839 0.39784 0.10499 0.06409 0.07017 0.11961 0.11417 -0.0877 0.17337 0.18937
福建省供销技工学校 0.77394 -0.4641 -0.3584 0.06204 0.34933 0.22017 -0.0532 -0.1054 -0.1223 -0.0068 -0.0428 0.20131 0.38596 0.07140 -0.1201
福建师范大学外国语学院 1.53522 0.35125 0.05956 -0.2700 -0.1648 0.19913 0.12713 0.00521 0.01665 0.14331 -0.0797 -0.0311 0.04808 0.13158 -0.0375
福建师范大学闽南科技学院 1.44864 0.00236 -0.0020 -0.1361 0.12574 0.13635 0.05547 -0.1393 0.04158 0.02283 -0.2189 -0.0380 0.12903 0.08657 -0.1225
国立第四中山大学 1.52608 -0.3851 0.04147 -0.4458 -0.1438 -0.0868 0.23749 0.19280 0.33884 0.17743 -0.0324 -0.0756 0.08606 0.11900 0.21554
福建师范大学文学院 1.71142 0.19108 0.01031 -0.4226 0.10906 0.26781 0.22255 -0.0435 0.11410 0.14842 -0.2233 -0.0767 0.03949 0.09937 -0.0124
辅仁大学 4.12796 -0.1035 4.45983 1.91494 1.42404 1.74526 0.07764 0.14389 0.79945 0.83167 0.02556 0.02532 -0.4774 -0.0996 -0.2819
关山口职业技术学院 1.33926 0.07650 -0.2153 0.31129 -0.0711 0.04076 0.09960 0.13385 -0.2535 -0.1158 -0.1140 0.18041 0.19532 -0.1556 -0.0560
国立第二中山大学 1.63421 -0.2666 -0.0473 -0.3602 -0.0967 -0.0290 0.04135 0.14572 0.31581 0.04255 -0.0080 -0.0640 -0.0178 0.00214 0.25040
国立第三中山大学 1.67462 -0.2904 0.03374 -0.4690 -0.0154 -0.2123 0.14038 0.21873 0.21225 0.12493 0.02730 -0.1509 0.00161 0.20178 0.20443
国家助学金申请书 0.77530 0.57528 -0.1587 0.06864 -0.4739 0.30149 0.14793 0.39823 0.09849 0.07993 0.11205 0.18538 -0.0455 0.35071 0.01376
国立第一中山大学 1.59761 -0.6525 -0.1379 -0.6398 -0.5198 -0.7494 0.45446 0.25390 0.12222 0.46669 0.43845 0.35301 0.02921 -0.1215 -0.7999
广州市城建职工大学 1.44739 0.45063 0.23311 -0.3012 0.60519 -0.2284 -0.2212 -0.2072 -0.3329 0.16606 0.37932 -0.0975 -0.0763 -0.1089 -0.0850
广东广州大学 1.24268 0.50453 -0.1316 -0.2663 0.43265 0.07183 -0.1367 -0.2393 -0.0140 0.26373 0.17064 0.05242 -0.0574 0.16198 0.07893
广东石油化工学院 1.61062 -0.0605 -0.2581 0.12254 0.21145 -0.1732 -0.4314 -0.2848 0.01026 -0.2002 -0.0215 -0.2265 0.13009 -0.0525 -0.0044
广播电视大学 1.55690 0.69994 -0.4487 0.01590 -0.0921 0.06312 0.49715 0.20604 0.12963 0.20071 0.39742 0.14811 -0.0617 0.06295 0.23578
广东外语艺术职业学院 1.22998 0.91599 0.22238 0.16574 -0.4852 0.00078 0.26516 0.28494 -0.8021 0.12604 -0.5605 -0.3032 0.47123 0.07914 0.57764
广州中医药大学 1.24472 0.02583 -0.9926 0.32664 0.34131 0.21450 0.25346 -0.7520 1.85217 0.31439 0.72604 1.21578 -0.8567 0.01047 -1.9260
广东广播电视大学 1.06447 0.41447 -0.0938 -0.0468 -0.0681 -0.0921 0.13942 0.08089 0.06009 0.18411 0.27637 0.16400 0.04785 0.07551 0.13163
广东药学院 1.46650 0.83044 -0.3140 0.02643 0.52808 0.14708 0.14887 -0.3114 0.03610 0.01626 -0.2742 -0.2632 -0.0040 0.20551 -0.0490
广西大学行健文理学院 2.11576 -0.0688 -0.0613 -0.1377 0.06780 -0.0192 0.23300 -0.0182 0.24189 -0.0445 -0.0348 -0.1542 0.05401 -0.0248 -0.2097
广西大学 2.22650 0.73510 -0.3990 -0.5899 0.71199 0.02974 0.19336 0.08428 0.08184 0.15001 0.17522 -0.2832 -0.2637 0.12686 0.02494
甘肃工业大学 1.74516 0.22319 -0.3609 0.06562 0.17507 0.24606 -0.0872 -0.3374 0.01085 0.00833 0.24479 -0.0453 -0.0231 -0.0604 -0.1166
广西师范大学 1.64067 0.83730 -0.0657 -0.4233 0.29412 0.35673 0.06919 -0.0630 0.09184 0.18422 0.02885 -0.0464 0.01074 0.09336 -0.0535
甘肃师范大学 1.38617 0.62149 -0.0334 -0.3157 0.24277 0.47523 0.21807 -0.2366 0.00783 0.07830 -0.1194 -0.0617 0.03841 0.02360 -0.2207
广西民族大学 1.32055 0.28827 0.06316 -0.4899 -0.0926 0.06510 -0.2384 0.16750 0.33811 0.25620 0.02433 -0.0754 -0.0549 0.32823 -0.2869
广西师范学院师园学院 1.59912 0.71441 -0.0257 -0.1468 0.15599 0.26003 0.30387 -0.1310 0.11218 0.04783 -0.4115 0.02062 0.23025 -0.0138 -0.1052
广西艺术学院 1.39567 0.65575 -0.2942 -0.0628 0.18598 0.21873 0.33015 -0.1336 0.16671 -0.1026 -0.2964 -0.0738 0.03323 0.10577 -0.0763
硅湖职业技术学院 1.29683 0.34119 -0.0628 0.33653 0.34358 -0.1584 0.58186 -0.0528 0.19091 0.01811 0.42473 -0.4081 -0.6006 -0.2900 0.29873
广东财经大学 1.45115 0.88079 -0.1361 -0.1883 0.32887 -0.0077 -0.0125 0.03627 0.20388 0.20450 0.18596 0.17858 -0.0782 0.23060 0.10940
贵阳学院 1.24389 1.10381 -0.4653 -0.1623 0.81909 0.49407 0.27613 -0.2214 0.38507 0.07905 -0.5464 -0.2532 0.11740 0.11897 -0.3175
华中师范大学文学院 2.03978 0.49080 0.00885 -0.3871 -0.0042 0.24128 0.26036 -0.0175 0.15116 0.21252 -0.1242 -0.1918 0.04919 -0.0014 -0.0146
贵州安顺学院 1.30860 0.39549 -0.0923 -0.0512 0.37267 0.16372 -0.1774 -0.2227 0.03695 -0.2384 -0.3567 0.15616 0.04329 0.12579 -0.2575
贵州工业大学 1.81426 0.49357 -0.2330 -0.0327 0.24445 0.25714 -0.0868 -0.2211 0.00744 0.07038 0.32027 -0.0441 -0.0606 0.06833 -0.1182
广东行政职业学院 1.19578 0.44678 -0.2153 0.00066 0.06019 0.40986 -0.1205 0.06842 0.05864 0.00146 0.06460 0.25677 0.09942 0.21125 -0.1762
华中师范大学武汉传媒学院 1.65159 0.36094 0.01613 -0.2140 0.11782 0.06581 0.02010 -0.1367 -0.0786 0.06245 -0.0737 -0.1694 0.12358 0.00834 0.00355
华北科技学院 1.56857 0.00528 -0.4302 -0.0531 0.39009 0.31530 0.01697 -0.2277 0.12703 0.12924 -0.0496 -0.3400 0.14248 -0.0177 -0.0455
华中科技大学化学系 2.12244 0.00310 -0.2001 -0.2320 0.04103 0.22763 0.09838 -0.1781 -0.0723 0.15874 0.53977 -0.6042 -0.1250 -0.0121 0.09339
华北煤炭医学院 1.24282 0.10520 -0.4435 0.08390 0.43132 0.31338 0.07629 -0.1790 0.00057 -0.2095 -0.1736 -0.1723 0.15973 -0.0292 -0.0726
华北航天工业学院 1.60380 0.10989 -0.3113 -0.0965 0.24626 0.15795 -0.0461 0.14235 0.11053 -0.0041 0.22297 -0.2159 0.07569 0.09715 0.08507
华侨大学 1.48676 1.07588 -0.5913 -0.3602 0.44273 0.74385 0.47609 -0.0036 0.49951 0.67794 0.38419 -0.1254 -0.0137 0.24314 0.16207
华北电力大学 2.19481 0.56842 -0.0966 -0.2778 0.15641 -0.2744 -0.1883 0.25359 -0.0499 -0.1533 0.47194 -0.2586 0.02181 -0.1161 0.07430
华西师范大学 1.70497 0.86099 0.03536 -0.3469 0.16672 0.33979 0.16315 0.00563 0.23602 0.22135 0.01101 -0.0410 -0.0365 -0.0136 0.01769
华西医科大学 1.95853 0.51379 -0.2996 -0.2748 0.23416 0.51863 0.23440 -0.0005 0.16534 0.11409 0.09099 -0.3704 -0.0495 0.07646 -0.0036
华西协合大学 1.90898 0.43418 -0.1294 -0.0278 0.12261 -0.0728 -0.1283 0.01810 0.21271 -0.0786 0.27990 -0.0815 -0.2702 -0.0367 0.02667
哈尔滨体育学院 1.35709 0.38637 -0.5294 0.09940 0.34752 0.35775 0.06114 -0.0849 0.20861 0.02479 0.07405 0.00274 0.03389 -0.1067 -0.0533
华为大学 1.84586 1.58154 -0.1410 -0.4143 0.06704 0.41924 0.44010 0.10022 0.34532 0.40095 0.19798 -0.2090 -0.2605 0.00770 -0.1078
哈尔滨商业大学 1.61776 0.47518 -0.2489 -0.0458 0.34732 0.23341 -0.1793 -0.1516 0.29473 -0.0808 0.33858 0.26541 -0.0746 -0.0528 0.09895
哈尔滨商业大学广厦学院 1.66591 0.38257 -0.1240 0.02467 0.20097 0.18780 -0.0634 -0.2073 0.15702 -0.1606 0.06835 0.32572 0.09164 0.03066 0.04594
哈尔滨工程大学人文社会科学学院 2.02536 -0.0432 -0.0345 -0.1280 -0.1266 0.13266 -0.0346 -0.0399 0.22752 -0.1768 0.02939 0.00938 -0.1239 -0.1325 -0.0626
哈尔滨商业大学德强商务学院 1.51218 0.31355 -0.1246 0.05772 0.03403 0.22805 -0.2397 -0.1010 0.22822 -0.1950 0.08890 0.20553 0.00313 -0.0040 0.01207
哈尔滨工程大学 1.81314 0.12379 -0.3567 -0.0436 0.44054 0.27528 -0.3483 -0.2714 0.29031 -0.1935 0.39187 -0.1257 -0.0706 -0.2624 -0.0355
哈尔滨理工大学远东学院 1.65851 0.31720 -0.1801 -0.0999 0.10463 0.15702 0.04737 -0.0042 0.22694 -0.1059 -0.0199 -0.0054 0.05620 -0.0331 0.00107
哈尔滨师范大学 1.48048 0.68285 -0.1453 -0.1790 0.28883 0.44570 -0.0943 -0.1721 0.17037 0.05614 0.18906 0.16987 -0.0540 -0.1183 -0.1265
哈尔滨师范学院 1.36861 0.76320 -0.3424 -0.0249 0.28540 0.45286 -0.0185 -0.2603 0.23252 -0.0914 -0.1023 -0.1781 -0.0918 -0.2849 -0.2023
哈尔滨师范大学阿城学院 1.76042 0.14699 -0.0653 -0.1627 0.16402 0.17307 0.02504 0.07841 0.06805 -0.1083 -0.0320 0.17944 0.07899 -0.0955 0.00397
哈尔滨广播电视大学 1.32297 0.51345 -0.1602 0.02250 0.06439 -0.0844 0.03889 -0.1118 0.18642 -0.0846 0.35144 0.28285 -0.0265 -0.0176 0.20691
哈尔滨现代公共关系职业学院 1.27982 0.19469 0.01987 0.23871 -0.2085 -0.0753 -0.2200 -0.0168 0.01490 -0.2492 0.11364 0.30874 -0.0376 -0.0697 -0.0786
哈尔滨金融高等专科学校 1.26973 -0.2179 -0.2616 0.04804 0.25622 0.15294 -0.1503 0.12882 0.10584 -0.1566 -0.3104 0.10736 0.21107 -0.0927 -0.0430
河北体育学院 1.47122 -0.0552 -0.5113 -0.1518 0.40110 0.36755 0.10082 0.11533 0.13150 0.03184 -0.2993 -0.0025 -0.0118 -0.0730 -0.1282
河北交通职业技术学院 1.14336 -0.0960 -0.2529 0.19303 0.13980 0.01912 -0.1417 0.04360 -0.1449 -0.0943 -0.2481 0.18875 0.23480 -0.0956 -0.1108
杭州电子科技大学 1.72390 -0.1261 -0.1857 0.12506 -0.0138 0.06526 -0.1125 -0.3842 -0.0411 0.24691 0.18893 -0.1780 -0.2104 -0.0992 0.08085
杭州师范大学 1.76853 0.95668 0.10076 -0.0018 -0.4545 0.86726 1.28587 0.03945 0.00883 0.20917 0.22370 0.95204 0.54559 -0.0322 0.28431
河北工业职业技术学院 1.36874 0.08118 -0.2401 0.18633 0.17605 0.21329 0.02065 -0.1117 -0.2022 -0.0959 -0.1049 0.17269 0.21134 -0.1809 -0.0966
河北传媒学院 1.17799 -0.0144 -0.3234 0.00189 0.21460 0.17406 0.04005 -0.1780 0.06989 -0.1105 -0.3593 -0.0576 0.05887 -0.1366 0.01491
河北医科大学 2.07618 0.10848 -0.2672 -0.4871 0.57392 0.22168 0.23473 -0.0054 -0.0195 -0.0417 -0.1328 -0.2501 -0.0524 -0.0975 -0.0444
河北工程大学 1.83819 -0.3743 -0.2620 -0.3659 0.54303 0.18782 -0.2709 -0.2571 0.05525 0.02337 0.16625 -0.0992 0.04013 -0.2181 -0.0091
河北大学 2.13772 0.00141 -0.2890 -0.9390 0.80599 0.03426 0.04647 0.13754 0.29401 0.45167 0.07210 -0.0237 -0.0610 -0.0614 -0.0484
河北机电职业技术学院 1.41701 0.30178 -0.2968 0.32442 0.09921 0.03996 -0.0565 -0.1428 -0.2423 -0.2668 -0.1747 0.00680 0.06436 -0.2126 0.01082
河北工程技术高等专科学校 1.36989 -0.5286 -0.2833 0.09169 0.20007 0.04714 -0.2091 -0.0827 -0.1839 -0.0870 -0.1906 -0.0412 0.24905 -0.2382 -0.1268
河北理工大学 2.05912 -0.3988 -0.3002 -0.3122 0.29379 0.12840 0.06024 -0.1217 0.19368 0.12789 0.10481 -0.0495 -0.1444 -0.1765 -0.0051
河北建筑工程学院 1.32759 -0.2796 -0.4129 -0.1835 0.66276 0.14586 -0.4595 -0.1077 0.03837 -0.1209 -0.1512 0.02400 0.21752 -0.2330 0.08256
河北承德石油高等专科学校 1.35387 -0.6106 -0.1092 -0.0604 0.26254 -0.1841 -0.2757 0.19126 0.08159 -0.2868 -0.4040 0.05214 0.18770 -0.2078 -0.2296
河北理工学院 2.13415 -0.1306 -0.4996 -0.1240 0.28122 0.37941 -0.1270 -0.2963 0.34183 -0.3574 -0.2575 -0.2553 0.10926 -0.2413 0.02678
河北软件职业技术学院 1.16237 0.13288 -0.2769 0.36589 -0.0277 0.11832 -0.0908 -0.1743 -0.2788 -0.2108 -0.0621 0.06393 0.09103 -0.1671 -0.0541
河北省职工医学院 1.57071 0.07671 -0.1471 -0.2714 0.38362 0.33978 -0.0383 -0.2626 0.03259 -0.1920 -0.0853 0.07659 0.18638 -0.2020 -0.2809
河北科技师范学院 1.50341 -0.1292 -0.3685 0.10012 0.29428 0.21980 -0.1542 -0.4480 -0.0611 0.04330 -0.2631 -0.3503 0.01170 -0.1967 -0.1647
河北电力大学 1.99368 -0.3431 -0.5734 -0.3733 0.18922 -0.0893 0.24947 0.54712 -0.4381 -0.1184 0.38974 -0.2028 0.45743 -0.6225 0.36071
河南交通职业技术学院 1.25996 -0.0422 -0.1777 0.16569 0.12370 0.14177 -0.1625 -0.0325 -0.1700 -0.1032 -0.1901 0.14664 0.18255 -0.0410 -0.0491
河北石油职业技术学院 1.29323 -0.1258 -0.3140 0.34481 0.20265 -0.0781 -0.1333 -0.0590 -0.0547 -0.2897 -0.2993 0.07872 0.19064 -0.1689 -0.0260
河南工业大学 1.53920 -0.1069 -0.5854 -0.5349 -0.0228 -0.1869 0.30363 -0.0860 -1.1512 0.54281 0.40785 0.19897 -0.4811 -0.2248 0.35922
河南广播电视大学 1.38126 0.16424 -0.0635 -0.0905 0.12573 -0.2694 0.09129 -0.0191 -0.0205 0.01981 0.07849 0.13146 -0.0317 0.05773 0.15620
河南教育学院 2.08789 -0.2831 -0.0550 -0.4098 0.37948 0.39829 -0.0819 -0.2242 0.17845 0.00395 -0.3824 0.00313 0.17329 0.04677 -0.2509
河南财政税务高等专科学校 1.33840 -0.1533 0.00790 -0.0860 0.22278 0.18492 -0.3518 0.08461 -0.2022 -0.2272 -0.2991 0.18448 0.08712 0.07347 -0.2470
河海工科大学 1.89065 -0.2371 -0.5258 -0.3461 0.48050 0.11061 -0.0940 0.37515 -0.0853 0.12315 -0.2506 -0.4478 0.18059 0.17642 0.17293
河南质量工程职业学院 1.47783 0.04232 -0.2040 0.27362 0.02320 0.16416 -0.1759 -0.0708 -0.2084 -0.2647 -0.0815 0.01227 0.08516 -0.2475 -0.0964
河海大学 1.92676 0.01223 -0.3853 -0.5086 0.48834 -0.0939 -0.0426 0.21036 0.26020 0.12076 -0.0806 -0.4145 0.02255 0.06091 0.16206
河海大学常州校区 1.45354 -0.0124 -0.2184 -0.1209 0.48869 -0.3221 -0.3476 0.07696 0.05348 -0.0931 -0.0558 -0.0253 0.23681 0.12968 -0.1479
海事大学 2.19017 -0.1292 -0.5244 -0.5455 0.14009 0.60348 0.09754 0.19922 0.40286 0.21091 0.38098 -0.2289 0.05231 0.21612 0.14692
海南软件职业技术学院 1.09701 0.10312 -0.3686 0.43802 -0.0964 0.12329 -0.0436 -0.1405 -0.1905 -0.2060 -0.0238 0.00935 0.13626 0.05394 -0.0295
淮海工学院 2.07785 0.18386 -0.3115 -0.3036 0.56873 0.36816 -0.5953 -0.3870 0.33903 -0.1210 -0.0594 -0.3419 0.56647 -0.0712 0.25110
淮阴工学院 1.51593 0.45741 -0.1816 -0.2420 0.25597 0.64564 -0.2039 -0.5240 0.00560 0.14479 -0.3657 -0.2617 0.66782 -0.0281 0.09207
淮阴师范学院 1.29028 0.82706 -0.0535 -0.2961 0.26044 0.45469 0.05345 -0.3260 -0.1907 0.23128 -0.7094 -0.5477 0.11350 -0.2886 -0.1382
湖北中医药大学 1.67807 0.04432 -0.0702 -0.1304 0.35145 -0.1209 -0.0820 -0.4103 -0.1153 -0.1059 -0.0557 -0.2560 -0.0358 0.02056 -0.2358
湖北水利水电职业技术学院 1.37039 -0.2065 0.00932 0.32250 0.08014 -0.2866 -0.3614 -0.1448 -0.1000 -0.2691 -0.1750 -0.1078 0.21912 -0.2195 -0.1247
湖北汽车工业学院 1.33676 -0.0134 -0.4993 0.32733 0.33454 0.06898 -0.3079 -0.2149 -0.1558 -0.1327 -0.0636 0.09506 0.32096 -0.0858 -0.0214
湖北大学商学院 2.29255 0.06837 -0.2370 -0.4593 0.39942 0.23625 0.05215 -0.0430 0.25606 0.18062 -0.0993 -0.1363 0.07913 0.20240 -0.0835
湖北第二师范学院 1.21516 0.15864 -0.1478 -0.0250 0.21525 0.01484 0.01760 -0.2383 0.08669 0.01893 -0.4458 -0.3760 -0.0861 -0.2122 -0.0794
湖北经济学院法商学院 1.52171 -0.0901 -0.1691 -0.2297 0.19920 0.33816 -0.2279 -0.1387 0.15525 0.08176 -0.1105 0.07384 0.07059 0.10773 -0.0384
湖北美术学院 1.57758 0.04915 -0.3804 0.10908 0.34879 -0.0588 0.15759 -0.1074 0.16364 0.00069 -0.3016 -0.0552 0.15699 -0.0507 0.10014
湖北职业技术学院 1.38084 0.13859 -0.2054 0.16910 0.29235 0.21128 0.06243 -0.1994 -0.2048 -0.1301 -0.2440 0.05068 0.18889 -0.0788 -0.0971
湖南大学 2.23204 0.18106 -0.2083 -0.4947 0.81836 0.18088 0.23907 -0.1705 0.16714 0.43282 0.06932 -0.1810 -0.2335 0.10938 0.06178
湖南省常德电脑专修大学 1.23459 -0.1589 0.08865 0.10852 0.07403 -0.0117 -0.2492 -0.1438 -0.0233 -0.0277 0.05882 -0.0774 0.01702 -0.2243 -0.0288
湖南师范大学 1.58221 0.51526 0.05279 -0.3445 0.41849 0.30628 0.15843 -0.2764 0.10380 0.31749 -0.1281 -0.0396 0.04329 -0.0091 -0.0323
湖南科技经贸职业学院 1.25315 0.12501 -0.2819 0.27549 0.22112 0.36431 -0.1711 -0.0856 0.12075 -0.0661 -0.0717 0.13796 0.23427 -0.0573 -0.1706
湖南第一师范大学 1.49828 0.02777 0.06544 -0.1043 0.08041 -0.0306 0.10464 -0.1663 0.13471 0.14170 -0.0693 -0.0888 0.00177 0.03777 0.02826
湖州师范学院 1.08804 0.53171 -0.3559 -0.2403 0.44424 0.63617 -0.1056 -0.4138 -0.0025 0.18656 -0.5462 -0.4179 0.01875 -0.0545 -0.2569
衡水学院 1.15748 0.15774 -0.4764 -0.1561 0.74414 0.48105 0.03039 0.10009 0.31394 0.41778 -0.3827 -0.4102 0.48414 -0.0500 -0.1288
黄冈师范学院 1.22304 1.01994 -0.2854 -0.0626 0.18206 0.45435 0.21273 -0.3136 -0.1269 0.14220 -0.2254 -0.4978 -0.0622 -0.0756 -0.3115
黑河学院 1.38633 -0.0803 -0.6295 -0.3050 0.30769 0.55924 0.31255 0.39541 0.40604 0.18549 -0.1712 -0.2771 0.29132 0.18901 -0.2871
黑龙江中医药大学 1.61428 0.24047 -0.0396 9.59748 0.32915 -0.3309 0.05872 -0.3717 0.00263 -0.2845 0.05961 -0.1194 0.02271 0.13589 -0.1567
哈尔滨市南岗教师进修学校 1.27351 0.12465 -0.0477 0.04456 0.40654 -0.1185 0.00497 -0.0179 0.02366 -0.3455 -0.2536 0.32519 0.18951 -0.1295 -0.2338
黑龙江八一农垦大学 1.30648 0.00707 0.10833 -0.0592 0.09432 -0.5517 0.04359 0.05532 0.08810 -0.1028 0.01173 0.04927 0.03992 0.10620 -0.1100
黑龙江农垦农业职业技术学院 1.03950 0.49320 -0.1481 0.50138 0.02152 -0.0995 -0.0181 -0.2185 -0.2693 -0.1590 -0.0643 0.12345 0.13526 -0.0223 -0.2201
黑龙江北开职业技术学院 1.23290 0.18411 -0.2250 0.33326 0.16849 -0.1305 -0.2131 -0.0527 -0.0396 -0.0998 -0.0667 0.11147 0.09302 -0.0097 -0.0914
黑龙江哈尔滨工程大学 1.55105 0.08349 -0.1340 0.04556 0.47090 -0.1420 -0.4484 -0.3204 0.22004 -0.2850 0.27141 0.01609 -0.0525 -0.0756 -0.0992
黑龙江工程学院昆仑旅游学院 1.34977 -0.1016 -0.1247 0.18770 0.19412 -0.0391 0.00331 -0.2439 0.18313 -0.3359 -0.1715 0.04424 0.26510 -0.0199 0.15741
哈尔滨理工大学 1.80902 0.20353 -0.2974 -0.0747 0.24499 0.28679 -0.0595 -0.1713 0.31191 -0.1155 0.26676 -0.0793 -0.0970 -0.2220 0.03993
黑龙江工程学院 1.63043 -0.0296 -0.2139 -0.0823 0.54789 0.05568 -0.2405 -0.3076 0.21433 -0.2943 0.06959 -0.0503 0.32233 -0.0317 -0.0020
黑龙江幼儿师范高等专科学校 1.26236 0.03014 -0.0850 0.11883 0.15942 -0.0248 0.01388 0.04673 -0.0617 -0.1870 -0.2221 0.10098 0.32804 -0.0386 -0.3310
黑龙江省工商职业技术学院 1.39105 -0.0500 -0.0228 0.16407 0.12699 -0.0291 -0.1860 -0.3593 -0.0230 -0.1703 0.10213 0.12291 0.09331 -0.0063 -0.0749
黑龙江广播电视大学 1.34299 0.31875 -0.1177 0.09213 0.10193 -0.4334 0.10718 -0.0585 0.14980 -0.1214 0.27567 0.15548 0.00488 0.13114 0.05536
华中大学 2.38073 0.74298 -0.2865 -0.6839 0.54991 0.55079 0.39717 0.01717 0.14605 0.36253 0.47307 -0.6061 -0.0668 -0.0735 0.03102
黑龙江畜牧兽医职业学院 1.14128 0.25416 -0.1284 0.38084 0.01825 -0.0174 0.16047 -0.0924 0.03493 -0.3463 -0.1663 0.14473 0.23388 0.00225 -0.0902
华南理工大学环境与资源开发研究中心 1.07672 -0.1424 -0.1269 0.43518 -0.2159 -0.2023 -0.0951 -0.1753 -0.0721 -0.1498 0.02234 0.02686 -0.0460 -0.0421 0.02649
九江广播电视大学 1.16566 0.10948 -0.1081 -0.0447 0.11692 -0.1904 0.15087 -0.0090 0.01357 0.12655 0.14782 0.17897 0.07308 0.02934 0.15987
湖北文理学院 1.89298 0.00495 0.03026 -0.3968 0.32943 0.31148 0.29266 -0.2410 0.40672 0.18375 -0.3079 -0.4985 0.14324 -0.0901 -0.2167
九龙华仁书院 0.32311 0.27762 0.03833 0.01650 0.45114 -0.1748 -0.0670 -0.2290 0.24212 0.30511 -0.2583 0.34754 -0.1248 0.03540 0.05256
沪江大学 2.00503 0.70703 -0.2081 -0.5365 0.43287 0.87609 0.40365 -0.1839 0.23175 0.69276 0.38164 -0.0642 0.02056 0.10126 0.22407
佳木斯职业学院 1.57139 0.28238 -0.3759 0.20629 0.29901 0.28568 0.16199 0.04803 0.22457 -0.1317 0.23150 0.19145 0.32629 -0.1506 0.02640
军事医学科学院 2.04701 0.54347 -0.3421 -0.2448 -0.1412 0.68894 0.28317 0.16227 -0.0405 -0.0886 -0.1998 -0.3535 0.22969 0.04556 -0.0376
吉林交通职业技术学院 1.20880 -0.1041 -0.2242 0.13745 0.00394 0.24159 -0.0634 0.04210 -0.0632 -0.1328 -0.0457 0.21343 0.19246 -0.0739 -0.1208
吉林农业科技学院 1.31115 -0.0612 -0.4274 0.21317 0.27400 0.19169 -0.0737 -0.2487 -0.0076 -0.0580 -0.1159 -0.0456 0.08844 -0.1313 -0.1236
吉林医药学院 1.57815 0.29862 -0.4373 -0.0215 0.39447 0.23003 0.19427 -0.2524 -0.0613 -0.2604 -0.1872 -0.3204 -0.0084 -0.0935 -0.0299
吉林化工学院 1.92064 -0.1409 -0.3532 -0.1925 0.26846 0.12563 -0.1379 -0.2556 0.23664 -0.2392 0.07136 -0.3280 0.13250 -0.1315 -0.0897
吉林医科大学 1.99560 0.18485 -0.3289 -0.4629 0.47331 0.36170 0.41638 0.02998 0.03532 -0.0748 -0.0201 -0.2819 -0.0463 -0.0064 0.00069
吉林商业高等专科学校 1.42319 -0.1140 -0.3148 -0.0096 0.25579 0.17269 -0.1635 0.12712 -0.0268 -0.1294 -0.1289 0.10773 0.19882 -0.0877 -0.2064
吉林大学农学部 2.08773 -0.1309 -0.2558 -0.5903 0.52421 0.00059 0.55082 0.25806 -0.0511 0.02238 0.03519 -0.2202 -0.0186 0.00688 -0.0833
吉林大学珠海校区 1.28340 -0.1998 -0.1390 -0.2637 0.70634 -0.4578 -0.0052 0.13704 0.41080 0.01872 -0.2245 -0.0095 0.27032 0.10216 -0.1545
吉林大学 1.75804 0.21842 -0.3161 -0.7268 0.82069 0.09737 0.47837 0.03125 0.53846 0.24463 0.26083 -0.1018 -0.0992 -0.0458 -0.1399
吉林工业职业技术学院 1.43269 0.24707 -0.3650 0.28094 0.09044 0.34042 0.02572 -0.1239 -0.1525 -0.1856 0.01496 0.15765 0.15105 -0.2145 -0.0701
吉林工程技术师范学院 1.30954 -0.0418 -0.3465 0.14190 0.14705 0.23588 0.00745 -0.3594 -0.0863 -0.1192 -0.1900 -0.2697 0.05512 -0.3111 -0.0708
吉林师范大学 1.47985 0.55846 -0.1508 -0.4335 0.36900 0.36793 0.19006 -0.0371 0.18797 0.16693 0.05246 0.07771 0.10427 -0.1321 -0.0254
吉林师范大学博达学院 1.64539 0.21553 -0.1352 -0.1848 0.14210 0.19475 0.27362 0.04945 0.08745 -0.0690 -0.0217 0.05610 0.09907 -0.0497 0.02880
河南大学经济学院 1.81858 -0.1541 -0.3457 -0.6862 -0.2301 0.43133 0.18599 0.21573 -0.2211 0.24847 -0.4532 -0.7062 0.75762 -0.1813 0.46429
吉林师范大学分校 1.68729 0.07366 -0.2541 -0.1683 0.09712 0.32319 0.03017 -0.0222 -0.0080 0.11073 0.16815 0.01964 0.15059 -0.2407 -0.0905
吉林建筑工程学院 1.40111 -0.1363 -0.4204 -0.1981 0.57164 0.18366 -0.3377 -0.1541 0.11826 -0.2477 -0.1291 -0.0505 0.12662 -0.0667 0.00550
吉林省经济管理干部学院 1.27391 -0.3225 -0.0158 -0.0516 0.01455 0.06808 -0.3488 0.09232 0.09527 -0.3243 0.03576 0.12593 0.09351 0.02406 -0.2486
吉林电子信息职业技术学院 1.35542 0.02427 -0.0703 0.17946 -0.1371 0.06686 0.00667 -0.0373 -0.1545 -0.2509 -0.1375 0.06697 0.01225 -0.1742 -0.1337
吉林省艺术学院 1.34901 0.09478 -0.1936 -0.1082 0.32947 0.09180 0.46194 -0.1772 0.23895 -0.1285 -0.1540 0.14937 0.17246 -0.1091 -0.2669
吉林建筑工程学院城建学院 1.53227 -0.2146 -0.2659 -0.2099 0.43581 0.15758 -0.1896 -0.1006 0.08190 -0.2450 -0.2425 0.00622 0.11044 -0.0816 0.01595
吉林粮食高等专科学校 1.07390 -0.0744 -0.4566 -0.0562 0.34374 0.06652 -0.0490 0.13231 0.00284 -0.1730 -0.0149 -0.2070 0.42563 0.44218 -0.0171
吉林艺术学院 1.39284 0.36633 -0.4390 0.05477 0.14423 0.12020 0.49927 -0.0813 0.02012 0.03185 -0.1555 -0.2044 0.08078 0.03565 0.04961
教育学 1.49470 -0.4235 -0.1942 -0.1496 -0.1204 0.98315 0.30262 -0.4573 -0.3869 0.25053 -0.0781 -0.0564 0.08089 0.13613 -0.3747
嘉兴学院 1.44751 0.74245 -0.2707 -0.4133 0.57117 0.71708 0.44968 -0.1063 0.30746 0.01321 -0.3158 -0.0479 -0.0103 0.05629 0.00608
吉林财税高等专科学校 1.24568 -0.1894 -0.2372 -0.0140 0.28922 0.20691 -0.0370 0.16114 -0.0848 -0.1701 -0.3136 0.17521 0.22539 -0.0609 -0.3836
晋中师范高等专科学校 1.74588 0.11702 0.32748 -0.3774 -0.1049 0.15914 -0.0362 0.47223 -0.8117 -0.1102 -0.7866 -0.3833 0.64838 -0.1387 0.30734
暨南大学 2.00257 -0.2311 -0.3731 -0.3442 0.62429 0.46445 0.27943 -0.1558 0.09603 0.18577 -0.0081 0.01149 -0.3093 0.12318 0.15666
江南大学 2.04909 -0.2121 -0.1803 -0.7094 0.92906 0.14609 0.22790 -0.0348 -0.0416 0.49996 0.14199 -0.0319 -0.2269 0.16839 0.13581
江南大学人文学院 1.84681 -0.3183 0.03751 -0.4898 0.09977 0.07582 0.09530 0.16800 0.17129 0.48962 -0.3092 -0.0348 0.05701 0.13057 -0.0035
江苏农林职业技术学院 1.04556 0.30215 -0.0655 0.18784 0.14608 0.20295 7.15548 -0.1658 -0.1548 -0.1512 -0.1311 0.07204 0.18860 -0.0819 -0.0981
江苏南京信息工程大学 1.54438 -0.4985 0.09311 -0.1147 0.25898 -0.0436 -0.2057 -0.1820 -0.0798 -0.0492 0.12727 0.10575 0.04460 -0.0142 0.04154
江苏工业学院 1.70529 0.61066 -0.6578 0.12683 0.22221 0.39230 0.10090 0.14148 -0.1247 0.29325 0.33431 0.05610 0.10733 0.08688 0.14872
江苏师范大学 1.39024 0.71062 0.01546 -0.3580 0.35127 0.42076 0.18751 -0.2351 0.00699 0.25472 0.07377 -0.0140 0.04164 0.04490 -0.0096
湖南大学国际教育学院 2.22404 0.03958 0.11480 -0.3600 0.13875 0.15935 0.01801 0.09135 0.06975 -0.0668 -0.3052 -0.1005 0.00718 0.12656 -0.1722
江苏广播电视大学 1.11253 0.32544 -0.1359 -0.0195 0.06564 -0.0277 0.21760 -0.0630 0.07261 0.06019 0.30244 0.16394 0.01950 0.08632 0.17249
江苏建康职业学院 1.04008 0.35025 -0.1037 -0.0621 0.31248 0.37637 0.03666 -0.0656 -0.0844 -0.1959 -0.1783 0.27106 0.23241 0.03221 0.00174
江苏教育学院 1.49462 0.08638 -0.4011 -0.3949 0.63642 0.63951 -0.0266 -0.3494 0.12753 0.33858 -0.3001 0.36027 -0.4662 -0.7580 -1.0156
江苏职工医科大学 1.78631 0.29432 -0.1408 -0.2173 0.30040 0.34123 0.05752 -0.1798 -0.2408 -0.1736 0.10798 -0.2509 0.04031 0.03487 -0.0213
江苏科技大学 1.51241 -0.1038 -0.2944 -0.0512 0.36237 0.34342 0.13215 -0.3694 0.02114 0.26905 0.23017 -0.1988 -0.1072 -0.0176 -0.0217
江苏警官学院 0.84943 -0.1093 -0.1185 -0.1447 0.22961 0.52530 -0.0301 -0.2344 0.17207 0.10995 -0.1764 -0.0590 0.27424 0.13719 -0.0755
江西大宇学院 1.70292 -0.2745 -0.0755 -0.3949 0.56540 -0.2561 -0.0935 0.24833 0.22746 0.14378 -0.2970 -0.0086 0.11642 0.24595 0.13496
江西医学院 1.51625 0.29174 -0.4184 -0.2250 0.55159 0.45480 0.25025 -0.1522 0.14782 0.05564 -0.3056 -0.3496 0.23150 0.01512 -0.1248
江苏苏州职业大学 1.08330 0.33282 0.73584 -0.5591 0.05109 -0.4924 0.93165 0.17148 1.16162 1.33720 0.09529 0.69533 -1.3314 -0.9832 0.09820
江西理工大学 1.85060 -0.3060 -0.1838 -0.2915 0.38809 0.11924 0.01997 0.05143 0.12596 0.40725 0.16179 -0.0928 0.12294 0.22196 0.39971
济南外国语学校 1.29932 0.39751 0.04475 -0.1351 -0.1006 0.03268 0.18782 0.19854 -0.2035 0.24230 -0.1390 0.16196 0.15162 -0.0151 0.04601
焦作工学院 2.17564 0.30580 -0.6224 -0.0378 0.45159 0.49019 0.09244 -0.3566 -0.1085 -0.5806 -0.1873 -0.2381 0.57775 -0.3966 -0.0903
江西行政管理干部学院 1.57185 -0.6005 -0.0675 -0.0932 0.05162 0.09340 -0.5436 0.10722 0.05270 -0.3235 -0.0513 0.08510 0.06177 0.26938 -0.2496
解放军兽医大学 1.20680 0.38518 -0.2390 -0.1018 -0.1254 0.42432 0.15901 0.16518 0.13005 -0.1127 0.07214 -0.1489 0.22231 -0.0020 0.20987
金蝶大学 1.62600 -0.0192 -0.2104 -0.4742 0.21151 0.22703 0.55515 0.21997 0.82054 0.07969 0.07139 -0.3731 -0.2426 0.12481 -0.0839
嘉兴学院平湖校区 1.06936 0.11767 -0.1079 -0.1811 0.65055 0.06237 -0.0118 0.03589 0.36066 0.15336 -0.1164 0.29232 0.23952 0.07943 -0.0358
康定民族师范高等专科学校 1.02520 -0.4524 -0.0357 0.18262 0.04153 0.13586 -0.3111 0.42896 -0.0406 0.09793 -0.1738 0.00146 0.06697 -0.0510 -0.3283
集美大学 1.73696 -0.3391 -0.5508 -0.2471 0.05883 0.16850 0.89975 0.59596 0.16108 0.62421 0.24620 -0.0532 -0.0129 0.02951 0.31376
金陵大学 1.47471 0.45745 -0.5003 -0.4962 0.56964 0.63443 0.41923 -0.2579 0.49331 0.46029 -0.0400 -0.3965 -0.2010 0.11346 0.11776
金陵女子大学 1.72708 -0.3413 0.04858 -0.3717 0.09759 -0.2003 0.53268 -0.0326 0.17634 0.37728 -0.2164 -0.1131 -0.0105 0.09038 0.09796
黑龙江大学 1.88175 0.47393 -0.0805 -0.3525 0.60868 -0.2648 0.08314 -0.1742 0.37633 0.15082 0.27601 -0.0296 -0.0066 0.12902 -0.1132
昆明医学院 1.54820 0.29452 -0.3248 -0.1061 0.40539 0.46862 0.31767 -0.3165 0.25332 0.03495 -0.2382 -0.3990 0.12700 0.12868 -0.2377
昆明扬帆职业技术学院 0.98116 0.20598 -0.1464 0.38169 -0.0033 0.20845 0.13196 -0.2823 -0.0417 -0.0862 -0.1725 0.22699 0.24795 -0.0405 0.04788
昆明理工大学 1.89266 -0.2678 -0.1702 -0.2008 0.29349 0.25716 0.15603 -0.3209 0.15560 0.17774 0.11097 -0.1159 -0.0288 0.05264 -0.1832
昆明工业职业技术学院 1.35985 0.29831 -0.2121 0.40207 -0.0161 0.30024 0.12105 -0.1784 -0.0724 -0.1189 -0.0453 0.17517 0.21907 -0.1174 -0.0457
昆明冶金高等专科学校 1.51937 -0.3870 -0.1786 0.10316 0.18040 -0.0133 -0.0395 0.02547 -0.0097 -0.1614 -0.2927 0.06064 0.18520 -0.0094 0.01229
昆明理工大学呈贡校区 1.38058 -0.1055 -0.0921 0.03838 0.08906 0.18869 0.01962 -0.1940 -0.0095 0.09032 -0.2085 0.10297 0.05956 0.08431 -0.1813
临沧师范高等专科学校 1.27236 0.16398 -0.1134 0.03838 0.15487 0.18710 0.07365 0.12841 -0.1759 -0.0206 -0.4417 0.06741 0.35219 -0.1627 -0.2718
丽水学院 1.40807 0.71232 -0.6160 -0.1451 0.84041 0.39111 0.10774 -0.2178 0.56119 0.51645 -0.2128 -0.0379 0.25139 -0.0360 -0.0164
乐山师范学院 1.66463 0.77587 -0.2297 0.07077 0.06810 0.39647 0.47743 0.01371 0.25843 0.13884 -0.4005 0.06942 0.09481 -0.4231 -0.2266
丽水职业技术学院 1.25022 0.20627 -0.1889 0.26496 0.07411 0.22322 0.11747 -0.0807 0.07195 -0.0243 -0.1394 0.02166 0.23464 -0.1843 -0.0408
兰州商学院长青学院 1.85284 0.40005 -0.2920 -0.0401 0.36798 0.17391 0.00875 -0.2988 0.26530 -0.1636 -0.3074 0.03011 -0.0472 0.22914 -0.2072
兰州大学文学院 2.04091 0.34312 -0.2475 -0.2452 0.10990 0.22443 0.25618 0.03508 0.28233 -0.0604 -0.3804 -0.3177 -0.0872 0.05018 -0.0169
兰州铁路技工学校 1.29962 -0.0449 -0.3275 0.17936 0.34477 0.07604 -0.3522 0.04167 -0.1688 -0.2664 -0.1672 -0.0018 0.46102 -0.1670 -0.1360
吕梁教育学院 1.67425 -0.0163 0.01445 -0.2542 -0.0009 0.61330 0.05850 -0.2104 0.13511 -0.2280 -0.4481 -0.1257 0.22164 0.02538 -0.2001
廊坊师范学院 1.15246 0.51958 -0.4075 -0.1359 0.34782 0.55879 0.16863 -0.3692 0.00069 0.23781 -0.5287 -0.3113 -0.1014 -0.2693 -0.0411
京桥大学 1.85197 0.19625 -1.0476 -0.4165 0.48707 -0.0076 1.01735 -0.1227 -0.0533 1.13373 -0.3651 0.01912 -0.6666 0.07277 0.32999
聊城广播电视大学 1.11227 0.03114 -0.0944 0.01229 -0.2598 -0.2886 0.17858 0.16316 0.01004 0.21417 0.11804 0.18288 0.06860 -0.0541 0.06510
泸州医学院 1.46222 0.56755 -0.3323 -0.1703 0.66700 0.72214 0.19086 -0.2538 -0.0325 -0.1384 -0.3389 -0.1758 0.29682 -0.0320 -0.1529
辽宁中医药大学 1.44420 0.42441 -0.0765 -0.2227 0.33103 0.00896 0.11847 -0.2914 -0.2306 -0.0219 -0.0102 -0.1228 -0.0046 0.08035 -0.1506
辽宁医学院 1.38527 0.90556 -0.5315 -0.1306 0.46443 0.67072 0.29252 -0.2446 0.08895 -0.0927 -0.1745 -0.1237 0.12550 -0.1437 -0.0911
辽宁工学院 1.81735 0.75344 -0.4981 -0.1564 0.47126 0.48318 -0.1049 -0.5330 0.10027 -0.0620 -0.1214 -0.1673 0.29111 -0.0452 0.06604
辽宁工业大学 1.63469 0.61965 -0.2825 -0.2072 0.34384 0.27290 0.01827 -0.2102 -0.0460 0.07594 0.33911 0.07082 -0.0258 -0.0378 -0.0114
辽宁商贸职业学院 1.06390 0.59076 -0.2744 0.17436 0.20401 0.48836 -0.1046 -0.1736 0.01104 -0.0330 0.11793 0.38504 0.21193 0.12859 -0.0514
辽宁大学 2.04659 0.79993 -0.3074 -0.4817 0.62863 0.22978 -0.1316 -0.2348 -0.0931 0.32814 0.36833 0.11436 -0.0843 0.00907 0.22832
辽宁广告职业学院 1.05587 0.70757 -0.2527 0.23225 -0.0168 0.50178 0.08760 -0.0926 -0.2050 -0.0919 0.04032 0.34603 0.08034 0.01281 -0.0767
廊坊职业技术学院 0.88736 -0.0360 -0.6417 -0.1106 0.04650 0.48636 0.34362 -0.0549 -0.5911 0.06063 0.11601 -0.1812 0.10189 -0.3086 0.50086
辽宁广播电视大学 1.15199 0.57942 -0.2158 -0.0138 0.04639 -0.0975 0.12580 -0.0320 0.03416 0.00705 0.21667 0.21164 -0.0029 0.01266 0.12889
辽宁建设职工大学 1.38577 0.61054 -0.1941 -0.1412 0.33027 0.17394 -0.3673 -0.1988 -0.1729 -0.0136 0.09936 0.19414 0.02517 -0.0661 -0.0018
辽宁朝鲜族师范学校 0.70202 0.37483 8.54649 -0.1402 0.10803 0.11362 0.09082 -0.1299 -0.1027 -0.0346 -0.4883 0.18699 0.30695 0.01638 -0.0783
辽宁机电职业技术学院 1.19818 0.69708 -0.2805 0.34381 0.05442 0.14649 -0.0113 -0.2044 -0.3114 -0.2529 -0.0953 -0.0533 0.09266 -0.1148 0.01697
辽宁省交通高等专科学校 0.99025 -0.2055 -0.1451 0.12440 0.10189 -0.0716 -0.3273 0.56343 -0.1441 0.26963 -0.1403 0.18299 0.24647 -0.2052 0.21468
辽宁金融职业学院 1.24261 0.49918 0.06149 0.17716 0.19043 -0.0062 0.25025 0.02531 0.21485 0.14301 0.64899 -0.0692 -0.5297 -0.0860 0.19089
辽宁石油化工大学 1.52018 -0.1999 -0.2089 0.04712 0.16215 -0.2613 -0.2884 -0.2373 -0.0985 -0.0925 0.00777 -0.1898 -0.0833 -0.0937 0.05113
辽宁科技大学 1.52564 0.19906 -0.4953 0.05997 0.43827 0.24520 -0.0813 -0.3034 0.04536 0.18763 0.15429 -0.1525 -0.1320 -0.1488 0.16589
民航学院 1.33630 0.03270 -1.1344 -0.1418 0.28966 1.13075 -0.2477 -0.0868 0.37574 0.10171 0.03616 -0.3238 0.43717 0.24616 0.16192
辽源职业技术学院 1.20860 0.43579 -0.2480 0.20253 0.09572 0.33245 0.21865 -0.0785 -0.1299 -0.1931 -0.2336 0.11537 0.12829 -0.2717 -0.0128
连云港师范高等专科学校 1.35862 0.00351 -0.0835 0.01146 0.34707 -0.0407 -0.0857 0.05250 -0.1213 0.09023 -0.2910 0.07991 0.49547 -0.1006 -0.2005
鲁迅美术学院 1.14060 0.40531 -0.2455 0.09500 -0.0545 0.31468 0.57965 0.00291 0.20699 -0.0144 -0.3289 -0.1379 0.10149 -0.1397 0.01803
牡丹江大学 1.62204 -0.1329 -0.2153 -0.3875 0.79575 -0.2116 -0.0420 -0.1942 0.26986 0.27045 0.22670 -0.0710 0.21173 -0.1255 0.03347
来华留学服务网 0.90672 0.66091 -0.0828 0.22596 -0.3256 0.18039 -0.0616 0.29413 -0.3181 -0.2801 0.21020 0.17828 0.18816 0.11517 0.03001
满洲里学院 1.45470 0.27834 -0.3793 -0.2010 0.31321 0.28028 0.09740 0.33499 0.20880 -0.2232 -0.3162 0.13963 -0.0843 0.16681 -0.0414
内蒙古广播电视大学 1.25286 0.25791 -0.2978 0.04941 -0.0797 -0.1981 0.25452 0.09002 -0.0329 -0.0717 0.08121 0.07760 -0.1655 0.09465 0.12115
闽台现代音乐系 0.66425 -0.0685 -0.1748 0.37195 -0.3822 -0.2522 0.05577 0.11092 0.11275 -0.0519 -0.0585 0.11173 -0.1009 -0.2157 0.23429
内蒙古大学民族学与社会学学院 1.78910 0.15099 -0.0449 -0.1920 -0.3246 0.12244 0.30395 0.12707 -0.1072 0.11212 -0.2809 0.03857 -0.1106 0.09982 -0.0827
内蒙古电力学院 1.51207 0.17800 -0.5554 0.10743 0.08877 -0.0103 -0.2370 0.10613 -0.1887 -0.1507 -0.1067 -0.2849 -0.0760 -0.0465 -0.0049
NEUQ 0.28819 -0.9761 0.42864 1.03921 -0.6857 -0.5036 -0.0308 -0.8242 -0.5659 -0.9592 -0.5682 0.33835 0.07434 0.08826 0.09489
绵阳师范学院 1.44356 0.88708 -0.3086 0.06294 0.28126 0.27847 0.32321 -0.2752 -0.0376 0.33860 -0.3667 -0.2140 -0.0129 -0.3081 -0.2186
内蒙古自治区广播电视大学 1.24358 0.15554 -0.1068 -0.0402 -0.0782 -0.2561 -0.0288 0.28890 -0.0252 -0.1595 -0.0237 0.13750 -0.1356 0.17570 -0.1314
南京中医学院 1.31581 -0.0355 -0.4000 -0.4214 0.36320 0.47201 0.25474 -0.1536 0.23358 0.23315 -0.1658 -0.1136 0.16918 0.00638 -0.0699
南京工程学院 1.50810 -0.3578 -0.4166 -0.2917 0.59422 0.51993 -0.1656 -0.2220 0.18509 0.07070 -0.0495 -0.0652 0.35880 -0.0859 0.12653
南京体育学院 1.20797 -0.0895 -0.4581 -0.1893 0.31760 0.49611 0.17630 0.00365 0.08021 0.30122 -0.1238 -0.2588 0.16451 -0.0168 -0.0884
南京医科大学 1.94115 0.06286 -0.3009 -0.4990 0.54697 0.31194 0.33215 -0.0736 -0.0212 0.19431 -0.1342 -0.4178 -0.0180 0.12658 0.15085
南京化工大学 1.87971 -0.4147 -0.2312 -0.3471 0.27556 0.09722 -0.0779 -0.2470 0.08653 0.28363 0.26054 -0.2872 -0.0676 -0.0583 0.09799
南京工业大学 1.80708 -0.0442 -0.3271 -0.2585 0.42495 0.24624 -0.0231 -0.1147 0.04725 0.21810 0.27174 -0.0247 0.07591 -0.0594 0.07955
南京大学 1.97149 0.68561 -0.5881 -0.7369 0.94609 0.38943 0.29095 -1.2462 0.51463 -0.1281 -0.2057 -0.6708 -0.2350 -0.8124 0.26880
南京森林公安高等专科学校 1.29659 -0.7149 -0.1109 -0.1410 0.29157 -0.1687 -0.2753 0.24665 0.06017 -0.0679 -0.2187 0.11469 0.26491 -0.1037 -0.1061
南京财经大学 1.48909 0.08575 -0.2369 -0.3310 0.31083 0.16522 -0.1056 0.05984 0.34049 0.17149 0.10325 0.16243 -0.0085 0.13410 0.27188
南京航空航天大学 1.24360 -0.5802 -0.4055 0.01373 -0.0029 -0.0859 -0.3392 0.09043 0.12486 0.07660 0.19660 -0.2549 0.21735 0.02943 0.55404
南京理工大学 1.80203 -0.3398 -0.3421 -0.2785 0.29951 0.30657 0.06126 -0.1336 0.23040 0.25865 0.07182 -0.2989 -0.0269 -0.0740 0.10190
南京艺术学院 1.15648 0.21614 -0.4267 -0.0978 0.32781 0.31271 0.44799 -0.1948 0.15381 0.17694 -0.4871 -0.1107 0.22179 -0.0888 0.08075
南京邮电大学 1.56520 0.17042 -0.3113 -0.2046 0.40574 0.13880 0.04437 -0.1417 0.02127 0.18990 0.17149 -0.0556 -0.0762 -0.1390 0.23903
南京林业大学 1.67893 -0.2561 0.01412 -0.2774 0.50197 -0.1464 0.26598 0.23441 0.22129 0.19568 0.34928 -0.5491 -0.2347 0.19615 -0.2163
南昌航空大学 1.29883 -0.3058 -0.3089 -0.1934 0.12507 0.16970 -0.1412 0.00133 -0.0872 -0.1201 0.35057 -0.1833 0.26216 0.05133 0.25122
南通大学 2.13525 0.05810 -0.5235 -0.6152 0.69986 0.18596 0.23401 0.16955 0.42439 0.46919 -0.0064 -0.0952 -0.1324 0.07564 0.04412
南昌大学外国语学院 1.73157 0.24102 0.00088 -0.2152 -0.2343 0.13988 0.14904 0.09367 0.01151 0.19501 -0.0546 -0.0671 0.05553 0.11822 0.04554
南开大学 4.49669 0.52229 4.29362 1.99281 1.92392 1.35000 -0.3504 0.28024 0.56573 1.15496 0.53264 -0.3521 -0.2968 0.02219 0.36521
宁夏大学新华学院 1.94114 0.31680 -0.2297 -0.2443 0.29993 0.04302 0.04438 -0.0100 0.23041 0.01196 -0.0186 0.01591 -0.0111 -0.0423 -0.0508
宁波工程学院 1.76147 0.25567 -0.3716 -0.0978 0.43440 0.41839 -0.1804 -0.2407 0.11742 -0.0526 -0.0332 0.11858 0.17781 -0.1370 0.10322
宁夏医学院 1.52225 0.73490 -0.4888 -0.1309 0.29615 0.72692 0.40837 -0.2801 0.19422 -0.2452 -0.3186 -0.1629 0.00202 -0.1363 -0.1811
宁波大学 1.82936 0.94262 -0.6740 -0.4025 0.47706 0.32727 -0.0513 0.11690 0.09190 0.51673 0.44620 0.11953 -0.2337 0.04454 0.19209
宁夏建设职业技术学院 1.10513 0.45695 -0.1540 0.20018 0.10078 0.31854 -0.0940 -0.1390 -0.1690 -0.3604 -0.1397 0.20557 0.15538 -0.1402 -0.0778
宁波大学科学技术学院 2.06816 0.37662 -0.2709 -0.1018 0.00634 0.29047 0.20815 -0.0833 -0.1010 0.15563 -0.1579 -0.1948 0.01146 -0.1131 0.06733
宁波天一职业技术学院 1.15750 0.16431 -0.0423 0.17706 -0.3072 -0.0050 0.08681 0.13177 -0.0657 0.04397 -0.1508 0.35860 0.15443 -0.1323 0.01002
南方科技大学 1.57432 -0.3308 -0.4519 -0.0813 0.05290 0.27521 0.03112 -0.1164 0.03516 0.37969 -0.0096 -0.3098 -0.2305 -0.0669 -0.0832
曲靖师范学院 1.00286 0.47848 -0.1921 -0.1015 -0.0387 0.55206 0.50199 -0.2068 0.00024 0.20086 -0.4943 -0.4514 0.03277 -0.3462 -0.2114
莆田学院 1.19884 0.35008 -0.5614 -0.5181 0.93867 0.59497 0.04220 -0.2394 0.09761 0.34107 -0.5156 -0.0286 0.22624 0.10656 -0.1558
平顶山煤矿职工大学 1.25287 0.17963 -0.2701 0.04957 0.47357 -0.0848 -0.2402 -0.0038 -0.0435 0.05266 -0.2031 0.22647 0.09471 -0.1645 -0.0030
攀枝花学院 1.27206 -0.1421 -0.3504 0.13220 0.37008 -0.1058 0.22490 -0.1852 0.50220 0.17756 -0.2474 -0.1950 0.31626 0.18841 -0.3477
曲靖医学高等专科学校 1.52522 -0.0402 -0.2352 -0.0729 0.04827 0.27882 0.34805 0.13836 -0.1438 0.11348 -0.3611 -0.0480 0.30121 -0.1973 -0.1972
清华大学建筑学院 2.02448 0.35659 -0.1337 -0.3225 0.33682 0.35594 0.31797 -0.1772 0.14059 0.14331 0.06345 -0.1593 -0.0055 -0.0608 0.21032
齐鲁大学 1.61184 1.26368 0.17100 -0.5202 0.04406 0.64830 0.42465 0.03488 0.36359 0.02249 0.01393 -0.3353 -0.1699 -0.3579 -0.2123
齐齐哈尔铁路运输职工大学 1.65360 0.60830 0.07778 -0.0120 0.29764 -0.3535 -0.5062 -0.1002 -0.2134 -0.3032 0.12517 0.19769 0.14584 -0.2358 -0.0002
齐齐哈尔铁路运输职大学 1.64757 0.68393 0.11535 0.04121 0.21218 -0.3566 -0.3686 -0.0087 -0.1733 -0.4178 0.19035 0.18332 0.07037 -0.2221 0.01301
齐齐哈尔大学 2.25021 0.67364 0.22156 -0.5124 0.55482 -0.3045 -0.0159 -0.2286 0.25566 -0.1065 0.31012 -0.0640 -0.1067 -0.2780 -0.1898
青岛农业大学 0.95427 0.08081 -0.0135 0.17267 -0.1993 0.25162 0.20563 1.17613 -0.3253 1.03541 0.70990 0.58419 0.19413 0.91075 -0.1051
钱培德 -0.5227 -0.7209 -0.9813 -0.4270 -0.0430 0.59221 -0.6472 -0.6080 -0.1798 -0.3017 -0.2046 0.34395 -0.5285 -0.3918 -0.1603
齐齐哈尔高等师范专科学校 1.42866 0.26199 -0.0233 -0.1065 0.26863 -0.0114 -0.2670 -0.0106 -0.1321 -0.1071 -0.2531 0.16129 0.26093 -0.2241 -0.2608
三明学院 1.53114 0.16621 -0.6405 -0.3528 0.59473 0.46800 0.15786 0.03062 0.29631 0.27126 -0.3764 0.06706 0.07861 0.09720 -0.0676
三峡大学足球队 1.20808 0.22891 -0.3001 0.12969 -0.0730 -0.0732 0.02246 0.28931 0.13555 -0.2262 0.08903 -0.1559 0.26812 0.04994 0.07046
泉州仰恩大学 1.18423 -0.1677 -0.2920 -0.1284 0.47233 0.00640 -0.0208 -0.0839 -0.0876 0.19903 -0.3605 0.21211 -0.0862 0.03547 -0.0433
日月光华BBS 0.63254 -1.0637 0.30916 0.53549 -0.3827 -0.8267 -0.1215 -0.3117 0.01338 -0.4276 -0.2187 0.47997 0.09356 0.03089 0.13202
三江学院 1.57573 0.01984 -0.4125 -0.6031 1.01703 0.29325 0.46863 0.03390 0.06278 0.25892 -0.2780 -0.1417 0.28951 0.09380 -0.0285
人民大学 2.77129 0.29780 0.04341 -1.1188 0.02307 0.38882 -0.3048 -0.2008 1.04259 0.04963 0.80865 0.53114 0.18014 0.54632 0.33365
上海商学院外国语学院 1.88729 0.13148 -0.1863 -0.0947 -0.3212 0.28393 -0.0141 -0.0161 0.11710 0.06783 -0.0821 -0.1108 -0.0090 0.11330 -0.0228
上海交通大学软件学院 1.87444 -0.2040 -0.1921 0.14046 -0.3464 -0.2436 -0.1239 0.02723 -0.2380 0.26337 0.08991 0.10204 0.08865 -0.0079 0.10644
上海医药高等专科学校 1.44142 -0.0302 -0.3498 0.10544 0.13360 0.10691 -0.0573 0.06555 -0.0660 -0.1499 -0.2661 -0.1004 0.31125 -0.1558 -0.1493
上海水产大学 1.84501 0.10323 -0.3247 -0.1522 0.25944 -0.3243 -0.1768 0.01202 0.08260 0.36293 0.27318 -0.1049 0.10057 -0.0004 0.04245
上海海港职工大学 1.53858 -0.1867 -0.2734 -0.2921 0.35513 -0.0964 -0.4418 0.10078 0.14491 0.10109 0.05827 0.13469 0.36026 0.05890 0.24571
上海师范大学 1.64636 0.50054 -0.2323 -0.2978 0.31118 0.31706 -0.0440 -0.1949 0.05025 0.32857 0.10675 0.03216 0.12229 -0.0022 0.00518
上海第二工业大学 1.51341 -0.1290 -0.3119 0.02438 -0.0202 0.04970 -0.1492 -0.0585 -0.0416 0.05984 0.34300 0.06790 0.02109 -0.1167 0.03773
十堰大学 1.81638 -0.5059 -0.7242 -0.2846 0.51041 0.23325 0.01928 0.11693 0.05769 0.39831 0.24401 -0.5423 -0.2515 -0.3553 0.36530
上海财经大学 1.75190 0.35208 -0.3511 -0.2631 0.23057 -0.0272 -0.2531 0.07141 0.30428 0.12132 0.30971 0.06804 0.00774 0.13801 0.23704
世界大学排名 1.03909 -0.6525 -0.4930 0.09977 -0.5087 0.01844 0.24327 0.46948 0.20221 0.29161 -0.0322 -0.0554 -0.0461 0.01871 0.29174
上海震旦大学 1.76207 -0.1824 0.00937 -0.4252 0.33925 -0.0067 0.08801 -0.3928 0.22335 0.18426 0.23935 -0.2657 0.00461 0.14315 0.28522
上海应用技术大学 1.02722 0.07112 -0.3998 0.14288 -0.1567 0.17764 0.05893 0.00273 -0.1709 0.19229 0.22337 -0.1909 0.00589 -0.1620 -0.0963
四川外国语学院 1.44695 0.13253 -0.1461 -0.0282 -0.2944 -0.0103 0.00835 0.10780 -0.0258 0.28072 -0.0240 -0.1220 -0.1031 0.09369 0.14260
四川外语学院重庆南方翻译学院 1.31261 -0.0382 -0.0652 0.19110 -0.2462 -0.1252 -0.0371 -0.2459 -0.0747 0.06638 -0.1584 0.07862 -0.0145 0.11734 0.06172
四川大学锦江学院 2.10782 -0.1793 0.03241 -0.3552 0.45798 -0.1351 0.29737 -0.0501 0.01759 -0.0609 -0.1466 0.05493 0.09119 0.07301 0.03338
四川大学艺术学院 1.90861 0.10483 -0.0785 -0.2401 0.13515 0.13802 0.40973 -0.1372 -0.0772 0.08839 -0.3916 -0.1517 0.01978 0.00137 -0.0710
四川天一学院 1.64307 -0.3436 0.10220 -0.2801 -0.0160 -0.4575 0.11592 0.14559 0.17999 0.21533 -0.3104 0.14908 0.10936 -0.0615 0.08383
牡丹江师范学院 1.36333 0.18754 -0.2349 -0.2007 0.51946 0.04194 0.13527 -0.2914 0.16547 -0.0343 -0.2486 -0.2225 0.13060 -0.1842 -0.1401
四川广播电视大学 1.33573 0.02588 -0.2194 -0.0457 0.16913 -0.1994 0.21313 0.10946 0.02395 0.08068 0.22300 0.11689 -0.0448 0.08296 0.12087
四川师范大学 1.66535 0.38719 -0.0089 -0.3466 0.39316 0.14112 0.03324 -0.2210 -0.1988 0.11043 -0.0374 -0.1335 -0.0626 0.02450 -0.0794
四川电子科技大学 1.80628 -0.3197 -0.3182 0.09123 0.21363 -0.0373 -0.2445 -0.2286 -0.1955 0.02264 0.09286 -0.3446 -0.3110 -0.0375 0.07105
宿迁学院 1.31489 0.37930 -0.5270 -0.1952 0.36371 0.80221 0.45586 0.15537 -0.0474 0.22309 -0.6390 -0.1899 0.22503 0.09626 -0.1217
四川省广元师范学校 1.04219 -0.0340 0.16319 -0.3123 0.46418 0.04392 -0.0478 -0.1917 -0.0660 0.08971 -0.2515 0.15764 0.27037 -0.0042 -0.2475
山东万杰医学高等专科学校 1.29791 0.31799 -0.1385 -0.0017 0.07627 0.21505 0.18831 0.14063 -0.1284 -0.0704 -0.3580 0.15253 0.21251 0.00551 -0.1401
四川畜牧兽医学院 1.11817 -0.0637 -0.1760 0.18110 0.25959 0.07204 0.06629 -0.1455 -0.0305 -0.1123 -0.5662 -0.2319 0.06616 -0.0307 -0.1556
山东工艺美术学院 1.16481 0.27667 -0.4140 0.11300 0.29224 0.12271 0.22914 -0.0733 -0.0005 -0.0239 -0.4136 -0.2221 0.09772 -0.0150 -0.0325
山东信息职业技术学院 1.09449 0.21240 -0.1385 0.20176 -0.0529 0.25979 0.08378 0.02159 -0.0934 -0.1456 -0.2431 0.10292 0.11431 -0.1209 -0.1335
山东兖州矿区职工大学 1.07446 0.28074 -0.0463 -0.0311 0.35476 0.01605 -0.3170 -0.2073 -0.2752 -0.1131 -0.1655 0.18194 0.04761 -0.0147 -0.1048
山东冶金技术学院 0.98669 0.06049 -0.1770 0.09965 0.08195 0.21791 0.09094 -0.1503 -0.0457 -0.1927 -0.3265 -0.1004 0.08172 -0.0998 0.16353
山东外贸职业学院 1.06433 0.49100 -0.3740 0.20212 0.18205 0.32894 0.03689 0.05188 0.11144 0.02589 -0.0030 0.21284 0.33520 -0.0113 -0.0208
山东大学外国语学院 1.72800 0.37442 0.04402 -0.2107 -0.2743 0.10813 0.20429 0.11761 0.15740 0.14477 -0.1044 -0.0471 0.03764 0.12295 0.07025
山东商务职业学院 1.10984 0.70025 -0.1949 0.06649 0.17423 0.41765 0.07217 -0.0210 0.03362 -0.0670 -0.0900 0.23148 0.18267 0.09377 -0.0457
山东师范学院 1.53890 0.32255 -0.3327 -0.1996 0.80246 0.63880 0.00493 0.53091 -0.1218 -0.1547 -0.6089 -1.0015 -0.1698 -0.4348 -0.1877
山东省农业管理干部学院 1.19181 -0.0580 -0.0221 0.13352 0.01691 -0.0046 -0.2591 -0.0569 -0.0723 -0.2301 -0.0738 0.05395 0.10158 0.08934 -0.3160
山东省教育学院 1.70194 -0.1082 -0.0960 -0.2657 0.32664 0.32365 -0.0567 -0.2323 0.12068 0.04463 -0.2355 0.00952 0.17067 0.10562 -0.2901
山东聊城大学 1.15740 0.06509 -0.1211 -0.1712 0.40184 -0.1964 0.25781 0.04748 0.08219 0.11134 -0.2061 0.07047 0.08042 0.08025 0.17896
山东省工会管理干部学院 1.29705 -0.3629 -0.1720 0.05610 0.02884 0.05505 -0.3604 0.07657 -0.1485 -0.1772 0.01096 0.06789 0.13143 0.12877 -0.1078
山东艺术学院 1.14945 0.58928 -0.3413 0.01490 0.22071 0.25152 0.39937 -0.0773 0.14237 0.12448 -0.4632 -0.0661 0.09842 0.00728 0.02129
山东广播电视大学 0.94422 0.34173 -0.1709 0.00639 0.04176 -0.1769 0.16976 0.16180 0.07328 0.11757 0.09626 0.14746 0.10926 0.05825 0.13018
山东行政学院 1.46886 -0.2924 -0.2534 -0.4713 0.25345 0.19285 -0.0659 0.21583 0.19524 0.10008 -0.1302 0.16767 0.05800 0.37258 -0.0044
山峡大学 1.65957 0.42568 -0.5168 -0.2556 0.68158 0.01734 0.53486 0.09108 0.16760 0.37860 -0.2481 -0.3263 0.00142 0.07519 0.05986
山西同文外国语学校 1.18758 -0.1902 0.16241 -0.1436 -0.2977 -0.2857 0.07219 0.20439 0.01648 -0.0604 -0.3023 -0.0181 0.16123 0.05358 -0.1640
山东铝业职业学院 1.09599 0.73478 -0.4303 0.35210 0.14750 0.32776 0.14429 -0.0479 -0.1553 -0.0661 -0.0379 0.13585 0.18492 -0.0279 0.02622
山西忻州师范学院 1.20455 0.16819 -0.1949 -0.0782 0.23814 0.13302 -0.2160 -0.3152 -0.2046 -0.1239 -0.4514 -0.1804 0.00709 -0.0681 -0.1211
山西旅游职业学院 1.11358 0.22076 -0.4245 0.28379 0.07433 0.19441 0.05605 -0.0426 0.06051 -0.1105 -0.2922 0.27882 0.26934 -0.0103 -0.1024
山西省财政税务专科学校 1.09998 -0.0307 -0.0035 -0.2310 0.24597 0.32031 -0.0565 0.07037 -0.3076 -0.2152 -0.1158 0.37237 0.10706 0.15272 -0.1909
山西长治医学院 1.43560 0.03348 -0.2746 -0.1703 0.27233 0.19166 -0.0157 -0.1074 -0.1221 -0.2589 -0.2737 -0.1096 0.07142 -0.0726 -0.1277
思茅师范高等专科学校 1.33937 -0.3039 -0.2417 0.07079 0.03617 0.25735 0.05352 0.21059 -0.1922 0.10049 -0.3853 0.02992 0.33679 -0.1240 -0.2861
杉达学院 1.42158 -0.1319 -0.8065 0.57703 0.78001 0.76278 1.32226 0.91416 0.75735 -0.3128 -0.0896 -0.0249 1.84735 -3.4588 0.44267
沈阳体育学院 1.03875 0.23579 -0.4696 0.31311 0.15610 1.03367 0.03573 -0.0490 -0.3316 0.11173 -0.0377 -0.1983 0.56721 0.36314 0.01963
水产大学 1.82175 0.64028 -0.7439 -0.1719 0.40539 0.33707 0.23753 0.05160 0.00935 0.48453 0.20822 -0.4637 -0.1676 0.14719 -0.0792
沈阳农业大学 1.36989 0.69903 -0.1102 0.08718 -0.0243 0.16303 0.25874 -0.1781 -0.0230 0.28424 0.14631 -0.0561 -0.1093 -0.3527 -0.1894
沈阳化工学院 1.83854 0.07592 -0.2734 0.04176 0.07568 0.13970 -0.1963 -0.3867 0.15116 -0.1064 0.09937 -0.4128 0.17985 -0.1588 -0.0839
沈阳工业大学夜大学 2.03069 0.14337 0.01928 -0.0942 -0.0372 -0.0601 0.28076 -0.0843 0.06401 0.15890 0.19539 -0.0041 0.09500 -0.1266 0.02395
沈阳大学 1.68925 0.57740 -0.1994 -0.4229 0.40563 0.28033 0.38046 -0.1795 0.11369 0.62161 0.24004 -0.1683 -0.1135 -0.1447 0.07665
沈阳工程学院 1.59365 -0.0474 -0.4452 0.00284 0.43946 0.59926 -0.1000 -0.3423 0.16506 -0.0049 0.10977 0.00100 0.33557 -0.1571 0.07470
沈阳医学院 1.42445 0.57958 -0.4228 -0.1498 0.38237 0.74911 0.46614 -0.2952 0.12548 0.08998 -0.1757 -0.1932 0.20342 -0.1848 -0.0610
沈阳工业大学 1.74010 0.43410 -0.2931 0.89547 0.57917 0.45625 0.42471 -0.6917 -0.8423 0.69509 0.30717 -0.8008 -0.8943 -0.2526 -0.4484
沈阳建筑大学 1.35975 0.21668 -0.1646 -0.1567 0.40453 0.06786 0.11729 -0.0691 -0.0319 0.11482 0.00020 0.04290 -0.1358 -0.1949 0.16654
沈阳职业技术学院计算机学院 1.35180 0.41413 -0.1904 0.32332 -0.1462 0.27764 0.15351 -0.2344 -0.2347 -0.0842 -0.1843 -0.0691 0.05564 -0.1289 0.01292
沈阳理工大学 1.75093 -0.0151 -0.2604 -0.1027 0.07173 0.37395 0.10929 -0.2387 0.08021 0.27606 0.20043 -0.2160 -0.0174 -0.1774 0.08693
沈阳师范大学 1.46029 0.68017 -0.0416 -0.2759 0.20004 0.35088 0.35776 -0.1220 -0.0055 0.44017 0.03567 0.03380 0.02023 -0.1776 0.05586
沈阳药科大学 1.66120 0.42029 -0.2096 -0.1036 0.33100 0.22005 0.28527 -0.1799 -0.0630 0.16922 0.01217 -0.3158 -0.0711 0.01879 0.09893
沈阳航空工业大学 1.59539 -0.0122 -0.3768 0.20015 0.05889 0.03750 -0.2162 -0.0507 0.00512 -0.0664 0.30800 -0.0688 0.16158 -0.0473 0.34650
沈阳航空工业学院 1.56793 -0.0872 -0.4935 0.27650 0.14403 0.14635 -0.2551 -0.0631 0.08333 -0.2215 0.11914 -0.0166 0.27266 -0.0014 0.33068
生命科学学院 1.75140 0.34201 -0.3479 -0.0653 -0.3884 0.70247 0.39405 0.09171 0.26045 0.07979 -0.3409 -0.4562 -0.1718 0.03525 -0.3047
深圳大学 1.17945 -0.0164 -0.6275 -0.2320 0.32638 0.65915 0.27347 -0.1405 0.27497 0.57506 0.13464 -0.0633 0.02892 0.05264 0.03409
沙市大学 1.81622 0.24913 -0.5439 -0.4995 0.57687 0.28741 0.15677 0.16111 0.32324 0.19200 0.21221 -0.1635 -0.0820 0.10180 -0.0999
石家庄职工大学 1.60795 0.52944 0.06243 -0.4480 0.45927 0.04431 0.03273 -0.1248 -0.1570 0.12179 0.17488 0.30336 0.04945 -0.2546 -0.1126
石家庄职业技术学院 1.22874 0.45944 -0.1095 0.11164 0.20597 0.15448 0.19889 -0.1813 -0.2039 -0.0318 -0.0844 0.24877 0.22168 -0.2349 -0.0777
石家庄信息工程学院 1.42323 -0.0829 -0.0131 -0.0748 0.35329 0.05904 -0.1154 -0.1492 -0.1061 -0.0818 0.04085 0.18272 0.21533 -0.1551 -0.1191
石家庄工商职业学院 0.65562 0.41402 -0.3449 -0.9798 0.59205 1.62615 0.85230 -0.9815 0.53034 -1.3292 0.07884 0.84029 -1.3084 -0.6434 0.19242
石家庄邮政高等专科学校 1.36530 -0.0717 -0.0562 -0.1076 0.28005 -0.0124 -0.1137 0.14876 -0.1222 -0.1546 -0.1212 0.22733 0.21463 -0.1598 -0.1605
石家庄铁路职业技术学院 1.20709 0.39061 -0.0120 0.19501 0.18614 0.10189 -0.0953 -0.1066 -0.2069 -0.1307 -0.0390 0.22694 0.21932 -0.3129 -0.0281
绍兴托普信息职业技术学院 0.88126 0.08665 -0.0689 0.33326 -0.1931 0.27853 -0.0929 -0.0546 -0.0724 -0.2852 -0.3653 0.08327 0.11803 -0.1541 -0.1958
石河子大学 2.21495 0.12768 -0.2531 -0.4055 0.56358 -0.0647 0.16849 0.13047 0.17730 0.19655 -0.0217 -0.1024 -0.2637 -0.1409 -0.2412
苏州市彩香中学 1.23235 -0.1143 -0.0928 0.03644 0.13795 -0.4266 0.14559 -0.1110 0.00023 0.16161 0.11158 0.16924 -0.0938 0.02898 -0.2812
绍兴文理学院 1.69781 0.51189 -0.0011 -0.2728 0.06952 0.55195 0.32177 -0.3250 0.30020 -0.0069 -0.4701 -0.3260 0.02272 -0.0825 -0.1945
苏州科技大学外国语学院 1.74829 0.11469 -0.0763 -0.0464 -0.2545 0.25061 0.06687 -0.0276 -0.0188 0.07543 0.03346 -0.1593 -0.0707 0.07022 0.01890
苏州市职业大学 1.68898 0.61363 -0.0314 -0.1515 0.16155 0.14708 0.12187 -0.0826 0.11842 0.10363 0.17353 0.24964 -0.0153 -0.0368 -0.1603
陕西广播电视大学 1.38167 0.36829 -0.0838 -0.0116 -0.0229 -0.2327 0.10108 -0.0131 0.10410 -0.0367 0.23680 0.18741 -0.0556 0.08235 0.08801
苏州大学 1.86404 0.86209 -0.2437 -0.5072 0.45088 0.45174 0.07814 -0.1588 0.23973 0.36635 0.08670 -0.1653 -0.1732 0.02198 0.00173
首都经济贸易大学 0.98146 -0.0294 -0.2056 -0.0512 -0.0879 0.24957 -0.2936 0.08549 0.00320 -0.0155 -0.0292 0.01155 -0.1389 0.19706 0.14093
首都医科大学 1.71229 0.09384 -0.5482 -0.3017 0.16319 0.57188 0.28641 0.19421 0.07199 -0.0954 -0.2319 -0.3182 0.00709 0.28402 0.19015
台湾国立戏曲专科学校 0.73707 0.14507 -0.2408 -0.0969 -0.0914 0.20625 0.16107 0.07799 0.02687 0.21001 -0.4288 0.10306 0.28944 0.08591 0.06101
台湾师范大学 1.15733 0.52687 -0.3352 -0.2078 0.09635 0.50880 0.26373 0.03588 0.06094 0.38389 0.13961 -0.1071 -0.0266 0.11900 -0.0094
首都师范大学 1.31431 0.38258 -0.4057 -0.2240 0.04587 0.53256 0.08123 0.03927 0.09278 0.17052 -0.1868 -0.0970 0.00107 0.08694 0.20737
台州学院 1.25363 0.20094 -0.7383 -0.4016 0.78076 0.58638 -0.1455 -0.2556 0.12751 0.31085 -0.0438 -0.0319 0.23694 0.27766 -0.0411
上海市幼儿师范高等专科学校 1.46984 -0.3474 -0.3634 0.04164 0.10709 0.11633 0.26980 0.25570 -0.2231 0.01012 -0.2172 0.13516 0.56176 -0.3091 -0.0734
同济大学土木工程学院 1.95123 -0.2533 0.03965 -0.2877 -0.1434 0.41604 0.03478 -0.0190 -0.0559 -0.1770 0.01935 0.02471 0.14948 0.03652 -0.0832
同济大学环境科学与工程学院 1.36550 0.10512 -0.1903 0.05187 -0.2754 0.41584 0.24683 0.04955 0.10570 -0.1343 -0.1520 -0.1427 0.09436 -0.0248 -0.0494
同济大学外国语学院 1.50009 0.33227 0.05990 -0.2275 -0.7354 0.36987 0.36784 0.28992 0.12207 0.07209 -0.0736 -0.1005 0.02862 0.10183 0.00375
同济医科大学 1.50665 0.41962 -0.3390 -0.2700 -0.0494 0.66336 0.57270 0.22674 -0.0096 0.02871 -0.2105 -0.3143 0.02892 0.14737 0.01105
同济大学经济与管理学院 1.37713 0.25032 -0.1191 0.01703 -0.3022 0.34727 0.36724 0.13241 0.00418 -0.1481 -0.1319 -0.0051 -0.0050 0.06017 -0.1217
同济大学软件学院 1.63186 0.21351 -0.3060 0.09325 -0.5571 0.32887 0.18083 0.04080 -0.1486 0.04436 -0.0682 -0.0006 -0.0014 0.04526 0.01010
天津中德职业技术学院 1.18909 -0.0427 -0.2441 0.12659 0.05269 0.21645 0.09636 -0.0023 -0.0104 -0.1472 -0.0687 0.09716 0.10340 -0.2856 0.04718
唐山师范学院 1.36253 0.32454 -0.2187 -0.2962 0.27283 0.35711 0.12846 -0.3267 0.16922 0.33572 -0.2305 -0.3787 -0.0521 -0.2755 -0.0257
天津中医学院 1.45283 -0.0986 -0.3768 -0.2502 0.22686 0.43861 0.33796 -0.0596 0.08641 0.07860 -0.0891 -0.1323 0.08397 -0.1885 -0.0009
唐山职业技术学院 1.29064 0.08520 -0.1202 0.12265 0.06432 0.17028 0.21853 -0.1176 -0.0259 0.04435 -0.1556 0.08179 0.22019 -0.1369 0.01225
唐山工业职业技术学院 1.40889 0.05728 -0.1930 0.24709 0.03741 0.21362 0.04802 -0.1718 -0.1071 -0.0026 -0.0018 0.13453 0.24583 -0.1682 0.02476
天津中药大学 1.77498 -0.1880 -0.1886 -0.1702 0.34477 -0.1599 -0.0453 -0.0130 -0.0685 0.10608 -0.0165 -0.2438 -0.1045 0.05702 -0.0031
天津企业管理培训中心 0.53744 -0.6894 -0.1730 0.38728 -0.2530 -0.1143 -0.2391 0.04272 -0.2681 0.00445 0.11691 0.28226 0.18382 -0.0141 -0.0669
天津北洋大学 1.66356 -0.4680 -0.1154 -0.3909 0.38822 -0.1352 -0.1485 0.19318 0.15765 0.21901 0.23874 -0.1368 -0.0229 -0.0623 0.22451
天津商学院宝德学院 1.61773 -0.1814 -0.0026 -0.2673 0.05020 0.36973 0.06833 -0.0991 0.37230 0.04959 -0.3549 -0.0374 -0.0187 -0.0622 0.12763
天津体育学院 1.39788 0.01836 -0.5713 0.06441 0.38292 0.39267 0.34583 0.16500 0.06312 0.19112 -0.0691 -0.0746 0.11282 -0.0036 0.06056
天津农学院 1.39557 0.11013 -0.4713 -0.0434 0.48099 0.29006 0.45144 -0.0303 0.11028 0.15378 -0.0189 -0.1077 0.25397 -0.1939 0.21685
天津医科大学 1.94485 0.09780 -0.3774 -0.3108 0.54584 0.31397 0.58574 0.10551 -0.1469 0.07545 -0.0075 -0.3554 -0.0076 -0.0081 0.13126
天津商学院宝德职业技术学院 1.27851 0.00821 -0.0767 0.10569 -0.0490 0.32687 0.14944 -0.1173 0.09957 -0.0451 -0.2449 0.09212 0.05170 -0.1275 0.04104
天津对外贸易职业学院 1.08209 0.34756 -0.1993 0.32359 -0.0935 0.20560 -0.1248 0.16458 -0.1279 -0.1589 0.10730 0.20245 0.11697 0.05343 0.09489
天津外国语大学 1.58982 0.22109 -0.0808 -0.0561 -0.1931 -0.1245 0.18909 0.26549 0.09399 0.36429 0.08322 0.00057 -0.1534 0.04929 0.39331
天津外国语学院 1.82082 -0.0973 0.12811 -0.4197 -0.3556 0.11858 0.48264 0.31494 -0.2704 0.14448 0.00628 0.14686 0.31413 0.00341 0.44210
天津大学仁爱学院 1.76128 0.04930 -0.1475 -0.1915 0.16970 0.30049 0.39965 -0.0250 0.15593 0.05934 -0.0671 0.10831 -0.0018 -0.0459 0.03903
山东省青年管理干部学院 1.69455 -0.8302 -0.6387 0.10183 0.79076 -0.4484 -0.6618 0.25152 -0.2281 -0.8970 -0.2067 -1.1658 0.10447 0.01580 0.19124
天津大学 1.50071 -0.0364 -0.3238 -0.3700 0.53829 0.43650 0.26374 0.11292 0.41334 0.59554 0.44651 -0.1471 -0.1938 -0.1916 0.18283
天津市对外经济贸易职业学院 1.11151 0.16752 -0.2232 0.20688 -0.0222 0.11708 0.06090 0.22111 -0.1733 -0.2075 0.06881 0.33251 0.30737 -0.1363 0.17168
天津师范大学艺术学院 1.67501 0.31395 -0.0715 -0.1547 0.03028 0.25797 0.34051 -0.0584 -0.1271 0.16199 -0.2807 -0.1832 0.09550 -0.1641 0.11417
天津师范大学历史文化学院 1.50437 -0.0246 0.08798 -0.2271 -0.1590 0.09404 0.10127 0.03331 -0.0785 0.14581 -0.1326 -0.2524 -0.0106 -0.0946 0.24317
天津工程师范学院 1.52034 -0.0551 -0.2524 0.03065 0.14513 0.23711 0.02025 -0.3112 -0.0776 -0.0582 -0.1315 -0.3227 0.08887 -0.3331 0.05976
天津广播电视大学 1.18574 0.04933 -0.1012 -0.0283 -0.0168 -0.0512 0.17410 0.14013 0.18832 0.08130 0.31840 0.22640 0.08076 0.03098 0.14271
天津科技大学 1.68653 -0.2447 -0.4428 0.04245 0.29425 0.31703 0.15826 -0.1564 0.03052 0.29092 0.14966 -0.2976 -0.2297 -0.1939 0.09488
天津理工大学 1.87399 -0.2127 -0.3894 -0.1820 0.19343 0.29390 0.32090 0.12300 0.13025 0.29549 0.23062 -0.1863 -0.1260 -0.1617 0.18273
天津财经大学珠江学院 1.57639 -0.0464 -0.0486 -0.1472 0.34658 -0.1073 0.07938 0.06908 0.15898 -0.0028 -0.0215 0.15199 0.10279 0.05970 0.17301
天津财经大学 1.36652 0.31458 -0.2550 -0.2215 0.40077 0.19592 0.01199 0.17656 0.24154 0.08221 0.27478 0.18233 -0.1195 0.03230 0.20892
太原广播电视大学 1.39253 0.19574 -0.1711 -0.1163 -0.0173 -0.1500 0.08304 0.10467 -0.0210 -0.0140 -0.0318 0.25859 -0.0921 0.03110 0.12468
天狮职业技术学院 1.00965 0.35794 -0.3044 0.41019 -0.0672 0.27208 0.30315 -0.1143 -0.1284 -0.0542 -0.3270 0.06711 0.22690 -0.1134 0.07173
天津轻工职业技术学院 1.33325 0.17030 -0.2904 0.33178 0.11828 0.25974 0.09074 -0.1516 -0.2384 -0.2469 -0.1649 0.04242 0.16401 -0.1742 -0.0670
通化师范学院 1.53247 0.30120 -0.3795 -0.1441 0.20425 0.32266 -0.0050 -0.2949 -0.0389 0.09679 -0.2941 -0.4574 -0.1360 -0.2467 -0.3147
泰州师范高等专科学校 1.27701 -0.2008 -0.2410 -0.0057 0.25046 0.33925 -0.0753 0.15997 -0.2040 -0.1161 -0.3303 0.05714 0.31472 -0.0522 -0.1829
武汉中原大学 2.08022 -1.1039 0.37893 -0.6102 -0.0925 0.51670 0.06078 -0.2767 0.53322 0.31548 0.39029 0.26405 -1.0342 -0.6260 0.15092
铁岭师范高等专科学校 1.19870 0.22447 -0.2546 0.14881 0.24232 0.04502 0.01926 0.20680 -0.1853 -0.0584 -0.4579 -0.0873 0.45928 -0.0574 -0.1950
外交学院 1.64256 0.13864 -0.7031 -0.3552 -0.0208 1.01051 0.03005 0.16777 0.42644 0.10240 -0.0772 -0.3304 -0.0002 0.39346 0.05697
文山师范高等专科学校 1.22782 -0.2566 -0.2425 -0.1244 0.30849 0.12368 0.04660 0.28247 -0.0131 0.11426 -0.3598 0.01739 0.37725 -0.1228 -0.1813
武汉体育学院 1.48332 0.55376 -0.3593 -0.1522 0.31421 0.61699 0.11803 -0.0201 0.01392 0.29152 -0.0854 -0.2260 0.11002 -0.0760 0.00720
无奴派 -0.9959 0.66843 -0.5838 0.49530 -0.7954 -0.4803 0.01244 0.68079 0.05613 0.99731 -0.0565 -0.1063 1.11526 1.54566 -0.1792
温州大学 1.79866 0.20308 -1.6099 -0.1152 -0.2734 -0.4910 0.28091 0.47783 1.26186 0.82378 0.61460 -0.9321 0.10353 -0.5334 0.91660
武汉商贸职业学院 0.77992 0.56844 -0.3190 -0.0388 0.31119 0.69360 -0.1480 -0.0788 0.06329 0.20566 0.07488 0.25753 0.34950 0.06090 -0.0216
武汉水运工程学院 1.51376 0.02844 -0.0562 -0.1209 0.34377 0.07990 -0.3876 -0.1553 -0.0134 0.07200 0.02241 -0.0340 0.36635 -0.2065 0.11025
武汉软件工程职业学院 1.28289 0.12428 -0.3442 0.16505 -0.0596 0.41957 -0.1090 -0.1009 -0.3529 0.04368 0.09910 0.07009 0.19269 0.07698 -0.2912
芜湖职业技术学院 1.29384 0.53364 -0.2020 0.29626 0.07380 0.37477 0.18145 -0.2277 -0.2440 -0.0119 -0.1419 0.08971 0.11967 -0.2022 -0.0989
潍坊教育学院 1.61506 -0.4327 0.03130 -0.1160 0.09025 0.51192 0.30227 -0.3057 0.12387 0.05042 -0.4753 0.06737 0.25531 -0.0868 -0.2076
芜湖师范专科学校 0.92232 0.44766 -0.1929 -0.5982 -0.0988 0.51315 0.24184 -0.6512 -0.1779 0.33553 0.35790 0.19199 1.17496 -0.2454 0.07957
徐州工程学院 1.32868 -0.2388 -0.3649 -0.2404 0.48162 0.60759 -0.4277 -0.4501 0.00283 0.03887 -0.0733 -0.1377 0.44075 -0.2141 0.07868
武汉电力职业技术学院 1.33781 0.35633 -0.1463 0.23674 -0.0874 0.20320 -0.0748 -0.0576 -0.2822 -0.0934 0.05210 -0.0307 0.18555 -0.2417 0.04700
厦门南洋学院 1.58045 0.11375 -0.1853 -0.1284 0.49178 0.16556 -0.0145 0.00743 0.25589 -0.1333 -0.0693 0.15692 0.13326 0.29024 0.12209
厦门理工学院 1.88399 0.45878 -0.4794 0.14904 0.08674 0.66418 -0.0345 -0.3250 0.31810 -0.2657 -0.0778 -0.2399 0.19234 -0.0594 0.16126
厦门大学嘉庚学院 1.65424 0.16439 -0.0231 -0.2181 0.15142 0.54432 0.31840 -0.1224 0.17855 -0.1766 -0.1445 0.14493 -0.0288 0.01492 0.06200
厦门大学 1.62838 0.89346 -0.3203 -0.3520 0.40478 0.89084 0.24638 0.02007 0.43824 0.19012 0.28099 0.20167 -0.1703 -0.0609 0.22175
徐州师范大学 1.19348 0.72068 0.12258 -0.6044 0.34034 0.51773 -0.1048 -0.3400 -0.2236 0.42093 -0.1363 -0.1086 0.20689 -0.0084 -0.0738
西南工业大学 1.90864 0.16544 -0.5947 -0.1367 0.59252 0.16438 -0.2763 -0.0222 0.13418 0.13722 0.09140 -0.0766 -0.0336 0.03347 -0.1031
新疆财经大学 1.17163 0.42566 -0.4128 -0.1982 0.08190 0.34194 -0.3016 0.04018 0.21630 0.07796 0.03995 -0.0097 -0.2040 0.27585 0.07131
西北师范大学知行学院 1.74994 -0.0943 -0.2699 -0.1405 0.09188 0.11979 0.03512 0.26346 0.02489 0.16426 -0.2069 -0.0142 0.06218 -0.0307 -0.1164
西交利物浦大学 1.45704 -0.4211 -0.1441 0.00466 0.00902 -0.0425 -0.2203 0.24723 0.36968 -0.3184 0.00713 -0.1332 -0.2195 -0.2117 0.09286
西北联合大学 1.56140 -0.0134 -0.3729 -0.1106 0.20655 -0.1717 -0.3816 0.10138 0.11421 0.12536 -0.1192 -0.1675 -0.1850 0.00098 0.05368
西南农业大学 1.56380 0.44860 -0.3695 -0.0362 0.42015 0.10156 -0.0432 -0.0615 0.00065 0.21718 -0.1758 -0.0494 -0.1824 0.16718 -0.5067
西北农业大学 1.59168 0.34607 -0.4704 0.07547 0.33452 -0.0377 -0.2060 0.13285 0.06930 0.13797 -0.2475 -0.0407 -0.0821 -0.0070 -0.2310
西华大学 1.94576 0.93931 -0.3787 -0.5608 0.58104 0.48747 0.17510 -0.1639 0.37156 0.27450 0.10923 -0.4121 -0.2973 -0.0768 0.11680
西南师范大学 1.49903 0.47679 -0.3745 -0.3205 0.55241 0.29073 -5.8710 0.01943 0.10399 0.26504 -0.3305 -0.1279 -0.0331 0.09850 -0.1018
西南政法大学 1.79613 -0.3201 -0.1971 -0.7151 0.38406 0.24455 -0.2951 0.31616 0.13965 0.26100 -0.3168 -0.1001 -0.2590 0.43355 -0.1542
西南民族大学 1.10008 -0.5039 -0.5619 -1.0201 0.05058 -0.0191 0.28417 0.15116 -0.2701 -0.1377 -1.4817 -0.1155 -1.0298 0.81104 0.31860
西南林学院 1.61462 -0.1000 -0.5950 -0.3026 0.86888 0.14537 -0.1439 0.10042 0.31988 0.01657 -0.4502 -0.1588 0.11121 0.13520 -0.0888
西南石油大学 1.61704 -0.2359 -0.5850 -0.0346 0.55524 -0.3077 -0.3753 0.08157 0.11121 -0.0153 -0.3174 -0.3019 -0.1092 0.12002 -0.0642
西南电子科技大学 1.63266 -0.3206 -0.5011 0.15355 0.18161 -0.1270 -0.1742 -0.0650 -0.0442 0.16791 -0.0272 -0.3476 -0.2123 -0.0587 0.09429
西双版纳职业技术学院 1.29801 0.23666 -0.1575 0.22939 0.09319 0.00624 -0.0166 -0.0682 0.12876 -0.2008 -0.3118 0.17822 0.10837 0.10157 -0.1718
西安中山培训学院 1.27351 -0.2817 -0.1692 -0.3491 0.42610 0.01131 0.02330 0.06750 0.04858 -0.0631 -0.1767 0.06071 0.16870 -0.0967 0.00649
西南财经大学 1.51228 0.23551 -0.4514 -0.2153 0.52190 -0.0029 -0.2962 0.21008 0.27018 0.12343 -0.1041 0.11745 -0.0946 0.38037 0.02485
西安公路交通大学 1.64433 -0.6088 0.00192 -0.2022 0.20077 -0.3737 -0.4154 0.12650 0.18855 0.05002 -0.0207 0.10056 0.00884 -0.0670 -0.0717
西安医科大学 1.99752 0.16652 -0.2543 -0.5696 0.46463 0.30606 0.25059 -0.0767 -0.0981 0.13538 -0.0294 -0.2102 -0.0436 -0.0486 -0.0012
同济大学 1.02040 0.51601 -0.1834 -0.5826 -0.4285 0.89700 0.68226 0.34368 0.29780 0.17291 0.17613 -0.1882 -0.0231 0.08799 -0.1654
西安大学 1.91680 0.18335 -0.3216 -0.6009 0.53766 0.21585 0.25146 -0.0691 0.37037 0.24058 -0.0754 0.01472 -0.1667 -0.2438 0.14325
西安航空职工大学 1.56846 -0.1236 -0.3632 -0.2032 0.12428 0.10214 -0.4003 0.05737 0.01602 -0.0663 0.19523 -0.0404 0.13906 -0.0929 0.25167
西安邮电大学 1.42148 0.39745 -0.4124 -0.2222 0.31180 0.29732 -0.1085 -0.1261 0.07740 0.04963 0.13438 -0.0726 -0.1280 -0.2844 0.01600
西财财经大学 1.89369 0.37191 -0.1096 -0.2209 0.15824 0.12498 -0.2567 0.25386 0.15332 -0.1537 -0.0966 0.33963 -0.1777 0.27710 0.16401
西藏大学 1.46944 -0.0333 -0.3290 -0.7012 0.37315 0.47396 0.16342 0.17024 0.67287 0.33194 -0.0323 -0.2165 -0.3159 0.15760 -0.1758
邢台学院 1.47275 0.66719 -0.0124 0.01129 0.66016 0.69378 0.02768 -0.6315 0.41779 -0.1279 0.76109 -0.4566 -0.1731 -0.8030 -0.5125
邢台学院机房管理中心 1.33604 -0.3369 -0.0596 0.13986 0.00647 -0.0175 -0.1519 -0.0261 -0.1844 -0.0694 -0.0856 0.22024 0.05505 0.05141 -0.1847
邢台职业技术学院 1.10202 0.17543 -0.1969 0.25632 0.00331 0.33973 -0.0185 -0.2599 -0.1559 -0.0394 -0.1792 0.12770 0.25054 -0.1373 -0.0633
香港中文大学 1.78845 -0.6520 -0.0822 -0.3945 -0.0452 -0.0804 0.17722 0.12220 0.50462 0.25191 0.26271 -0.0012 -0.1281 -0.0282 0.19290
香港树仁大学 1.45498 -0.0479 0.00919 -0.2189 0.21863 -0.1144 0.25732 -0.0788 0.69753 0.08450 0.10224 0.00610 -0.2333 0.04086 -0.0946
香港城市大学 1.59213 -0.6835 -0.3308 -0.2375 0.65852 -0.1901 0.03542 0.02603 0.32548 0.31544 0.09610 0.30877 0.04134 0.20357 0.30283
香港大学 2.36937 -0.2654 -0.1201 -0.5537 0.46581 0.09243 0.33192 -0.0772 0.56201 0.27083 0.45644 0.07855 -0.1172 0.09974 0.09661
云南体育运动职业技术学院 1.36360 0.51250 -0.0977 0.34264 -0.1184 -0.1177 0.15443 -0.1015 -0.1642 -0.1010 -0.0621 -0.0566 0.04434 -0.0389 -0.1213
西安电子科技大学 1.91638 -0.3532 -0.1037 -0.0702 0.05305 -0.0704 -0.0498 -0.3445 -0.2148 0.10747 0.15687 -0.1978 -0.2539 -0.2451 0.19356
云南交通职业技术学院 1.27648 0.12241 -0.0998 0.23208 -0.0156 0.08072 -0.0402 -0.0564 -0.0833 -0.0939 -0.1564 0.12708 0.14531 0.04308 -0.1272
云南农业职业技术学院 1.37032 0.48872 -0.0855 0.41470 -0.0516 0.01611 0.13419 -0.2277 -0.2047 -0.0964 -0.1272 0.08275 0.04755 -0.0965 -0.2686
云南北美职业学院 1.62121 0.29291 -0.1873 0.19798 0.18451 -0.2099 0.07462 0.06027 -0.0577 -0.0447 -0.1303 0.22043 -0.0570 0.09351 -0.0461
云南大学董事会 1.36751 0.07201 0.08914 -0.2401 -0.0257 -0.2483 0.14465 0.26548 0.19538 -0.0987 0.22372 0.22817 0.05332 0.30739 0.00559
云南广播电视大学 1.35239 0.41878 -0.0318 -0.0984 0.06484 -0.2561 0.28684 0.14750 0.12103 0.10313 0.28567 0.13268 -0.0600 0.15791 0.08952
云南司法警官职业学院 1.09149 0.05000 0.00579 0.11089 -0.0843 0.10825 -0.0895 0.05011 0.02565 -0.2696 -0.1639 0.13850 0.18902 0.25855 -0.2782
云南医学高等专科学校 1.71460 0.13312 -0.1618 -0.1442 0.23356 0.07939 0.16284 0.15247 -0.1852 -0.0301 -0.2233 -0.1489 0.26975 0.02585 -0.2457
云南大学旅游文化学院 1.94410 -0.1046 -0.0698 -0.1113 0.06004 -0.3056 0.07816 0.12163 0.13688 -0.0708 -0.1780 -0.1030 -0.0291 0.12396 0.07877
云南新兴职业学院 1.55261 0.64073 -0.1354 0.08180 0.17893 -0.0031 0.03500 0.00644 -0.0051 -0.1363 -0.0964 0.32648 -0.0677 0.06800 -0.2105
云南热带作物职业学院 1.50355 0.27459 -0.1343 0.45424 -0.1291 -0.3686 -0.0341 0.12275 -0.0115 -0.2729 -0.1935 -0.0260 0.00653 0.06292 -0.2202
云南经济管理职业学院 1.43575 0.27925 -0.0512 0.22569 -0.0389 0.05403 -0.0365 -0.0294 -0.0408 -0.1998 -0.1289 0.14921 -0.0578 0.10331 -0.1727
云南林业职业技术学院 1.31375 0.32607 -0.0895 0.27276 0.11981 -0.0391 0.11627 -0.0687 -0.0657 -0.1124 -0.1166 0.10499 0.12429 -0.0562 -0.1107
云南科技信息职业学院 1.64059 -0.1108 -0.0655 0.21303 -0.0310 0.23694 -0.0231 0.03710 0.04939 -0.3019 -0.0125 0.15557 0.05985 0.22184 -0.3429
云南文化艺术职业学院 1.33635 0.40355 -0.0103 0.15994 -0.1980 -0.0924 0.27908 0.05070 0.05429 -0.0316 -0.1336 0.21340 -0.0374 0.03102 -0.0536
云南艺术学院 1.57576 0.65777 -0.1747 0.09459 0.30380 -0.1908 0.47097 -0.3634 0.25046 -0.1383 -0.5495 -0.1712 -0.1163 0.07717 -0.1886
云南财经大学 1.69043 0.54808 0.03609 -0.2435 0.26953 -0.2439 -0.0343 -0.0330 0.19724 0.10822 0.02946 0.12236 -0.2198 0.36847 0.05030
云南警官学院 0.69437 -0.0136 0.99348 0.23194 0.86528 0.07055 1.68189 -0.5382 0.50922 -0.3981 -0.0476 0.16908 -1.3482 0.23106 -0.6876
仰恩大学 1.64574 0.29281 -0.3335 -0.2065 0.12068 0.34751 0.33891 -0.0286 0.25121 0.30361 -0.3342 -0.0941 -0.0745 -0.0781 -0.0316
延边大学 1.55738 0.68670 -0.5426 -0.0552 0.09213 0.31921 0.15826 0.05780 -0.0702 0.41483 -0.0828 -0.3173 -0.3122 0.04811 -0.0422
延边科学技术大学 1.46947 0.24066 -0.2759 0.12902 -0.2582 0.36019 0.31419 -0.0751 -0.1624 0.19404 -0.1128 -0.2364 -0.1140 -0.0902 -0.0252
扬州大学 1.49472 1.13817 -0.4439 -0.5114 0.35481 0.58282 0.16979 -0.0732 0.13475 0.54992 0.12333 -0.1857 -0.1269 -0.1539 0.13924
殷祥超 -1.2190 -0.6858 0.14106 -0.1125 0.00575 0.52560 -0.2856 -0.3907 -0.2263 0.28541 -0.3774 0.06089 -0.1585 0.15252 0.08804
玉溪农业职业技术学院 1.11615 0.19773 -0.1525 0.43889 -0.0356 0.15247 0.08619 -0.2048 -0.2641 0.01722 -0.1111 0.15863 0.10989 -0.1577 -0.1171
盐城师范学院 1.44285 0.63577 -0.2860 -0.1036 0.43415 0.26810 0.03396 -0.2062 0.06251 0.04661 -0.4539 -0.6298 0.01932 -0.1890 -0.3235
扬州江海职业技术学院 1.24478 0.28872 -0.0995 0.02948 0.28110 0.00794 0.04585 -0.1229 -0.1604 -0.1070 -0.2265 -0.0124 0.11773 -0.0545 0.02631
盐城工学院 2.04378 0.47561 -0.4164 -0.1532 0.62305 0.25552 -0.3404 -0.3927 0.10737 -0.0582 -0.1900 -0.3287 0.41292 0.05328 -0.0070
玉溪师范学院 1.18278 0.45158 -0.1817 -0.1747 0.36655 0.34088 0.23057 -0.4110 0.01291 0.18300 -0.5170 -0.3515 -0.0541 -0.1611 -0.3687
药物制剂专业 0.61815 0.39145 -0.4123 0.71174 -0.6209 0.07282 -0.1489 -0.1097 -0.4291 -0.1864 -0.0468 -0.3164 -0.0866 -0.2244 -0.3253
营口职业技术学院 1.24833 0.49606 -0.2852 0.38114 -0.0376 0.40439 0.25067 -0.0664 -0.1543 -0.1244 -0.1325 0.18440 0.25636 -0.1929 -0.0702
中华研修大学 1.57519 0.06486 -0.3922 -0.3104 0.07734 0.24321 0.27313 -0.1395 0.08381 0.24895 0.32441 -0.2439 -0.1037 0.15863 -0.0278
中华女子学院 1.55616 -0.0079 -0.2942 -0.4419 0.07944 -0.0277 0.65496 0.06699 0.36978 -0.0793 -0.0490 -0.2307 0.06551 0.30257 -0.1068
中南大学湘雅医学院 1.72056 -0.0549 -0.2567 -0.1751 -0.0498 0.26137 0.36678 -0.2529 0.17016 0.07867 -0.1487 -0.1929 -0.0647 -0.0192 0.00321
中南民族大学创业者协会 1.06678 0.13628 0.00318 0.03403 -0.5396 -0.1619 -0.0943 0.10263 -0.0448 0.03845 0.13911 0.27446 -0.0264 0.30219 -0.0209
银川大学 2.24348 0.54792 -0.2549 -0.4687 0.77125 0.01274 0.23818 0.14223 0.20826 0.13669 -0.0033 -0.0634 -0.2695 0.10547 0.08155
郧阳师范高等专科 1.27456 -0.0337 -0.0183 0.13383 0.19022 0.03425 -0.0755 -0.1330 -0.4187 0.06872 -0.2906 0.03751 0.26151 -0.1594 -0.3154
中国人民公安大学 1.63724 -0.0571 0.29018 -0.5807 -0.2893 -0.4272 -0.1755 0.45659 0.23866 0.23754 0.40652 0.18871 -0.0131 0.19419 -0.1372
中南财经政法大学 1.78282 -0.1939 0.25929 -0.5315 -0.0527 -0.0110 -0.2590 -0.0187 0.30034 0.12134 -0.0458 0.03061 -0.1301 0.28787 0.16323
中国人民解放军信息工程大学 1.56472 -0.7152 -0.2887 0.40328 -0.9308 -0.2354 -0.5301 0.83102 0.24201 0.25325 0.01489 -1.2530 2.70398 1.21142 -0.5259
中国人民解放军国际关系学院 0.99284 0.18595 0.18158 -0.0764 -0.5480 -0.1180 -0.2720 0.37354 0.04765 -0.1730 0.03829 0.04558 0.16220 0.21503 -0.0044
中南大学 2.12437 0.02837 -0.5600 -0.6303 0.45415 0.26241 0.31655 -0.0841 0.29198 0.41027 0.14588 -0.3374 -0.3681 0.32276 0.03854
中国人民解放军外国语学院 1.16481 0.14198 0.14849 -0.1223 -0.6121 -0.1337 -0.1485 0.39605 0.16316 0.00775 0.07334 0.01034 0.16975 0.20680 0.00168
中国人民大学 2.08755 0.36405 0.29330 -0.7921 -0.4836 -0.0199 -0.1071 0.32531 0.71486 0.13601 0.51146 0.38919 0.07082 0.44060 0.08688
西南科技大学 1.73785 -0.3719 -0.6608 -0.0081 0.47829 0.16369 -0.1087 -0.1150 0.12462 0.25518 -0.1042 -0.3109 -0.2332 0.08224 -0.0670
中国传媒大学南广学院 1.80782 0.19350 -0.1449 -0.2110 -0.0090 -0.1232 0.23605 0.01427 0.01980 -0.0031 -0.0427 -0.0734 -0.0860 0.15600 0.04710
中国信息大学 1.83475 0.16783 -0.0151 -0.4298 -0.3231 0.27051 0.09352 0.04054 0.01141 0.06907 0.40715 -0.1003 -0.2829 0.04044 0.17098
中国人民解放军空军长春飞行学院 1.13257 0.11592 0.19129 -0.0776 -0.4710 -0.2718 -0.2905 0.35999 0.14668 -0.2908 0.16750 0.05631 0.36355 0.09619 0.00164
中国人民解放军第二军医大学 1.16542 0.10396 0.18337 -0.2292 -0.3197 -0.0360 -0.1557 0.35017 0.07283 -0.2234 0.16507 -0.0157 0.12700 0.09452 -0.0343
中国农业大学烟台校区 1.22731 0.54861 -0.3293 0.04557 0.17019 -0.1021 -0.0459 0.08545 -0.0893 0.19003 0.10514 0.07659 0.03593 0.11021 -0.0573
中国人民解放军陆军航空兵学院 1.10875 -0.1505 0.13044 -0.1634 -0.3419 -0.1873 -0.4429 0.53950 0.04552 -0.4090 0.09423 -0.2004 0.46678 0.25206 0.09404
中国农业大学 1.57763 0.84726 -0.3333 -0.2201 0.01481 0.14761 0.25185 0.06345 -0.0365 0.38249 0.21052 -0.1068 -0.2184 0.17085 -0.0836
中国劳动关系学院 0.89111 0.66504 -0.3222 0.14672 -0.2920 0.10145 -0.0138 0.22858 -0.0391 -0.0333 -0.0177 -0.1540 0.10795 0.08539 -0.0451
中国刑事警察学院 0.87380 -0.1940 -0.2371 -0.1697 -0.1787 0.35295 0.08241 0.43435 0.05531 -0.0636 0.07562 -0.0088 0.22028 0.23636 -0.0075
中国地质大学 1.53839 0.77911 -0.4599 -0.3173 0.06337 0.03362 0.17771 0.32385 -0.1108 0.28694 0.15162 -0.4025 -0.2266 0.01159 0.15782
中国医科大学 1.98301 0.67316 -0.4600 -0.5635 0.15928 0.46864 0.46585 0.20365 -0.0941 0.19299 0.02830 -0.3433 -0.0973 0.25056 0.13197
中国地质大学长城学院 1.65070 0.51379 -0.1987 -0.2183 -0.0009 -0.0427 0.20734 0.33370 -0.1442 0.04255 -0.1604 -0.2395 -0.0146 0.00484 0.08061
中国协和医科大学 1.79439 0.47268 -0.1999 -0.4645 0.10166 0.13530 0.38393 0.19193 -0.0261 0.00674 0.05574 -0.2625 -0.1362 0.07887 0.07827
中国大学信息网 1.31005 0.09381 -0.0285 -0.1735 -0.3670 -0.1371 0.12856 0.34220 -0.0496 -0.0498 0.20364 -0.0337 -0.0896 0.17961 0.02209
中国民办大学 1.30845 0.66649 -0.2302 -0.5501 -0.0695 0.36615 0.10397 0.23297 0.10282 0.23307 0.39495 -0.0294 -0.0335 0.40027 -0.0790
中国文化大学 2.03665 0.14178 -0.0622 -0.7781 0.11637 -0.0877 0.17954 0.02284 0.09492 0.44853 0.26432 -0.2301 -0.2148 0.16782 0.06927
中国戏曲学院 1.32821 0.58766 -0.2645 -0.2130 -0.1203 0.11128 0.47587 0.20321 0.30895 0.04797 -0.1041 -0.0730 0.03435 0.07154 0.08548
中国民航大学 1.66449 0.42377 -0.3603 -0.6208 -0.1327 0.55478 -0.1097 0.13851 0.11697 -0.0248 0.52134 0.00473 -0.1107 0.41990 0.24137
中国海洋大学信息科学与工程学院 1.66384 -0.1302 -0.1823 -0.0202 -0.1667 0.04664 0.08837 0.15504 0.04686 -0.1011 -0.0590 -0.1654 0.06688 0.03315 0.06342
中国科学技术大学 1.53513 0.31273 -0.3583 -0.2384 -0.1634 0.53056 0.46819 0.09066 -0.0564 0.18308 0.02767 -0.2831 -0.1053 -0.0389 0.08793
中国矿业大学 1.27352 0.38285 -0.8754 -0.3399 0.00874 0.82162 0.61997 -0.0818 0.36407 -0.2647 0.02556 -0.3824 0.17483 0.17551 0.06100
中国药科大学 1.97739 0.71057 -0.5025 -0.3549 0.23951 0.15453 0.30911 0.12133 -0.0619 0.15059 0.15079 -0.4609 -0.2577 0.33066 0.22843
中国社会科学院研究生院 1.34361 -0.2357 -0.2307 -0.0722 -0.2234 0.20014 0.14482 -0.0541 0.04561 0.05726 -0.0399 -0.0701 -0.0669 0.16740 -0.0323
中国纺织大学 1.55543 0.26530 -0.7921 -1.0649 0.02118 -0.2173 -0.0812 0.16591 -0.0478 0.54235 0.07552 -0.4013 0.21857 -0.0484 0.22286
中央电视广播大学 1.33529 -0.1425 -0.3907 -0.0911 0.02476 -0.1068 0.12828 0.16879 0.12835 0.04303 0.14783 0.15832 -0.1096 0.11982 0.21768
中国防卫科技学院 1.04300 0.11473 -0.5320 -0.0382 -0.0685 0.59222 -0.0766 0.14520 -0.0126 -0.0866 -0.0032 -0.2527 0.10694 0.17871 0.08512
中央电视大学 1.71163 -0.0603 -0.4507 -0.2808 0.20119 -0.0062 0.10205 0.18190 0.09924 0.17240 0.22039 0.04545 -0.1592 0.08517 0.22956
中国音乐学院 1.51908 0.55183 -0.4783 -0.1238 -0.1480 0.03959 0.50625 0.30172 0.32523 0.08318 -0.1285 -0.0589 0.07862 -0.1213 0.23291
中央美术学院 1.57445 -0.2748 -0.3787 -0.0917 -0.3301 0.03941 0.59343 0.35807 0.83679 0.50773 -0.5016 0.52405 -0.2027 0.03284 -0.1805
张家口农业高等专科学校 1.40872 0.28687 -0.0412 -0.0008 0.11912 -0.0747 -0.1844 0.06894 -0.2768 0.00491 -0.1343 0.24068 0.23729 -0.2141 -0.3460
中山医学大学 2.34897 0.18132 -0.2237 -0.7586 0.42447 0.19276 0.57900 0.07224 0.14221 0.21257 -0.0058 -0.2013 -0.0740 -0.1605 0.08011
张家口职业技术学院 1.36809 0.80740 0.27335 0.00956 -0.2624 0.06030 -0.0526 -0.1167 -0.3800 -0.1433 -0.1019 0.19051 0.73203 -0.4579 0.01220
中央音乐学院 1.84937 0.33570 -0.0633 0.62167 -0.3314 -0.1121 0.59586 0.31505 0.62745 0.20868 -0.2319 -0.0476 0.21026 -0.2375 0.43645
张安哥 -0.4162 -0.0595 0.39071 0.00787 -0.1766 -0.5167 -0.3385 0.25835 0.54588 -0.3828 0.42176 0.13192 -0.0151 -0.3883 -0.0153
昭通师范高等专科学校 1.29643 -0.3293 -0.1556 -0.0900 0.19370 0.28133 0.03178 0.26855 -0.2771 -0.0283 -0.4093 0.05475 0.28395 -0.0585 -0.2419
株洲职业技术学院 1.25079 0.05003 -0.3802 0.39467 0.02625 0.36093 0.22281 -0.1066 -0.2195 -0.1593 -0.1897 0.06796 0.15421 0.07604 0.04146
浙江万里学院 1.37980 0.17857 -0.1207 -0.2897 0.49965 0.02185 0.05262 -0.0788 -0.0216 -0.0775 -0.2731 -0.0822 -0.0350 0.26929 0.05463
浙江中医院大学 1.33349 -0.0383 -0.1701 -0.4907 0.33661 0.30958 0.02918 -0.3251 0.16346 0.20979 -0.0007 -0.2686 0.04129 0.08197 0.05935
浙江外国语学院 1.39373 0.24602 -0.0291 -0.1918 -0.2093 0.20675 -0.0108 -0.1457 -0.0212 0.23463 -0.0243 -0.1213 -0.0032 0.21750 0.15668
浙江大学城市学院 1.99203 -0.2276 -0.0781 -0.3457 0.31663 -0.0826 0.13594 -0.1532 0.23828 -0.0053 -0.1574 -0.1298 0.08813 0.12000 0.13484
浙江传媒学院 1.30982 0.03105 -0.2675 -0.1273 0.33224 0.31137 0.08778 -0.6871 -0.0270 0.06962 -0.0749 -0.1722 0.08938 0.19527 0.14645
浙江大学人文学院 1.90909 -0.0998 0.06133 -0.6325 0.16165 0.12671 -0.0148 -0.0142 0.36339 0.42984 -0.3267 -0.2074 0.12782 0.20933 -0.0203
浙江大学 1.76564 0.27406 -0.1734 -0.7747 0.90341 0.27216 0.00109 -0.5575 0.18955 0.55249 0.09904 -0.5164 0.00165 0.26425 0.17027
浙江大学宁波理工学院 2.16255 0.04080 -0.1478 -0.1524 0.24090 0.04555 -0.1119 -0.3740 0.10469 -0.1503 -0.1178 -0.2053 0.08578 0.06973 0.15536
浙江树人大学 1.57330 0.30438 0.27509 -0.1911 0.14783 -0.2603 0.04084 0.01602 0.33507 0.24263 -0.0188 -0.5798 -0.2761 0.32957 -0.1606
浙江海洋大学 1.72777 -0.2910 -0.1509 -0.3326 0.40880 -0.1602 -0.1141 -0.0718 0.22529 -0.0414 0.14377 -0.3425 0.03557 0.12045 0.20790
浙江工业大学 1.91168 0.11867 -0.1966 -0.1922 0.42632 0.12673 -0.0842 -0.4718 -0.0403 0.16507 0.32692 -0.0464 0.02469 0.03672 0.08665
浙江工商大学 2.05618 -0.5819 0.04831 -1.0164 0.45225 -0.1244 -0.2282 -0.3762 -0.0348 0.11559 0.14657 0.05160 -0.1355 0.45864 0.03491
浙江海洋学院 1.48859 -0.2269 -0.2660 -0.3220 0.56826 0.00215 -0.1239 -0.0496 0.28408 -0.1490 -0.1300 -0.2961 0.18082 0.24031 0.13501
浙江理工大学 1.91554 -0.0897 -0.2461 -0.2748 0.31523 0.32659 0.09894 -0.4323 0.12186 0.14192 0.13042 -0.3761 -0.0852 0.00690 0.11232
浙江经贸职业技术学院 0.97874 0.35275 -0.2679 0.29068 0.15780 0.31226 -0.0600 -0.3211 -0.1727 -0.0159 -0.0846 0.05578 0.12633 0.00564 0.05533
淄博广播电视大学 1.17341 0.18313 -0.2193 0.12224 -0.0861 0.02246 0.36609 -0.0846 -0.0513 -0.0787 0.19199 0.18496 -0.0756 0.02804 0.12069
浙江纺织服装职业技术学院 1.00399 0.29122 -0.1284 0.40267 -0.0428 0.01699 -0.0148 -0.3301 -0.3670 -0.1182 -0.2710 0.03898 0.27629 0.00626 -0.0579
郑州大学升达经贸管理学院公共外语部 1.30597 -0.1569 -0.1331 0.05538 0.07650 -0.0840 -0.2340 -0.1566 -0.0305 0.17267 -0.1844 -0.4311 0.15380 -0.3882 -0.8015
章仁彪 -1.2114 -1.0796 -0.0139 -0.1204 0.11562 0.43023 0.60364 0.06890 -0.3106 0.02638 -0.1900 0.19163 -0.1520 0.08360 0.18355
郑州大学升达经贸管理学院体育部 1.43199 -0.0470 -0.0471 0.12841 -0.0048 0.00821 -0.0396 0.01334 -0.0655 -0.1158 0.00056 0.04175 -0.0073 0.03891 -0.0169
郑州大学升达经贸管理学院会计系 1.39796 0.15202 -0.1091 0.11853 -0.0300 0.14984 -0.0671 0.00232 -0.0610 -0.0874 0.04608 0.06152 -0.0538 0.00819 0.06194
郑州大学升达经贸管理学院外国语言文学系 1.45977 0.02919 0.02803 0.01707 -0.3372 0.08401 -0.0122 0.02312 -0.0023 0.09744 -0.0090 0.00447 -0.1168 0.03347 0.03190
郑州大学升达经贸管理学院共同学科部 1.58017 -0.1639 -0.0468 0.04682 -0.0866 0.10856 -0.0010 0.15942 -0.0419 -0.1509 0.05479 -0.0058 -0.0091 0.01022 0.00362
郑州大学升达经贸管理学院国际经济与贸易系 1.14920 0.11878 -0.0220 0.25062 -0.1543 -0.0142 -0.2222 0.06720 -0.0828 -0.2019 -0.0665 0.09489 -0.0352 0.06556 0.04231
郑州大学升达经贸管理学院市场营销系 1.29886 0.17794 -0.0915 0.21418 -0.0107 -0.0250 -0.1671 -0.0115 -0.0672 -0.2046 -0.0201 0.15522 -0.0183 -0.0087 -0.0099
郑州大学升达经贸管理学院企业管理系 1.41171 -0.1126 -0.1497 0.23475 -0.0610 0.10426 -0.0757 -0.0575 -0.1447 -0.0648 0.07567 0.08553 0.01605 0.05916 -0.0451
郑州大学升达经贸管理学院艺术系 1.31865 0.10652 -0.1025 0.14128 -0.0224 0.08321 -0.0277 -0.0517 -0.0435 -0.0710 -0.0463 0.02058 0.01095 0.02433 0.01303
郑州工业大学 1.78135 0.47067 -0.2433 -0.1044 0.47058 0.36147 -0.1965 -0.2504 0.05267 0.11697 0.31595 0.06922 0.05511 -0.0520 0.00708
郑州大学升达经贸管理学院文法系 1.36508 -0.1298 -0.0007 0.02797 -0.0984 0.04945 -0.1097 0.00493 -0.0005 0.01918 -0.0920 0.04236 -0.0965 0.03109 -0.0273
重庆交通学院 0.94220 -0.0697 -0.4211 -0.0003 0.18424 0.36148 -0.1306 0.10798 -0.0224 0.25944 0.03004 0.07810 0.25410 0.22265 -0.0601
重庆大学 1.60726 0.18890 -0.1829 -0.4669 1.00765 0.65674 -0.4067 0.52163 -0.3131 0.08453 0.50666 0.29389 -0.5612 0.08821 -0.4445
重庆工商大学 1.46208 -0.3281 -0.1436 -0.4007 0.06099 0.50459 -0.2627 -0.0884 -0.0751 0.26564 0.38406 0.11141 -0.0624 0.35516 0.00336
重庆市永川工商学校 1.42643 -0.1597 -0.0231 -0.2288 0.27650 0.36425 -0.8768 -0.2460 -0.2320 0.20408 -0.2059 0.08101 0.68923 0.45642 0.08238
重庆医科大学 1.47051 0.46076 -0.3410 -0.4226 0.41130 0.78201 0.09974 -0.0894 0.03576 -0.0841 0.11159 -0.3991 -0.0461 0.16712 0.02746
重庆工学院 1.70166 0.46781 -0.5424 -0.1210 0.20699 0.72407 -0.2553 -0.3848 -0.0777 0.07788 0.19399 -0.1987 0.28683 0.17847 0.25259
重庆师范大学 1.31569 0.49170 0.10078 -1.0233 0.36648 1.52948 0.71611 -0.6120 -1.4263 -0.1375 0.34918 0.11541 0.31309 0.94297 -0.7164
重庆电力高等专科学校 1.38321 -0.1722 -0.3352 0.13924 0.05620 0.08879 -0.2303 0.31237 -0.2906 -0.0855 -0.0205 -0.0050 0.28199 -0.0685 -0.0626
重庆教育管理学校 1.61175 -0.5790 -0.2449 -0.1725 0.20315 0.52136 -0.1295 0.06539 -0.2071 0.09745 0.01957 0.15943 0.20251 0.09795 -0.3082
重庆社会工作职业学院 1.21763 0.15024 -0.3045 0.14313 -0.2321 0.35027 -0.0345 0.10751 -0.2096 -0.0646 0.15128 0.38582 0.19181 0.16088 -0.1165
重庆邮电学院 0.86447 0.63469 -0.6128 0.04529 0.12323 0.56016 -0.2168 -0.0544 -0.1690 0.37687 0.28333 0.10504 0.08170 0.15163 0.11056
中国浙江理工大学 1.56340 -0.0185 -0.1627 -0.3283 0.14231 0.06037 0.19555 -0.1141 -0.0074 0.00424 0.12545 -0.2063 -0.1245 0.10514 0.12408
中国大学 1.89530 0.95254 -0.5487 -0.9469 0.19870 0.53350 0.60284 0.38744 0.33772 0.29021 0.21396 -0.3372 -0.3586 0.19378 0.18376
奥岩松 -0.9384 -0.2777 -0.9401 0.26161 0.83817 0.01940 1.14053 0.94738 -0.6276 -0.3716 0.16636 -0.1724 -0.6439 0.12934 0.19122
中国计量大学 1.76406 0.24677 -0.3308 -0.2550 -0.4004 -0.0397 0.05417 0.27060 -0.3374 0.13650 0.32336 -0.4891 -0.3177 -0.0038 0.22887
中国热带农业科学院华南热带农业大学 1.52061 0.44648 -0.0825 0.28376 -0.1585 -0.2826 -0.0780 -0.0416 -0.1162 -0.1351 -0.0379 -0.1546 -0.1115 -0.0145 -0.1697
包建民 -0.9020 -0.3809 -0.5601 -0.2339 0.03624 0.37263 -0.9795 0.11398 0.28202 0.48063 0.22487 0.48866 0.15835 0.35678 -0.3304
安启念 -0.9759 -0.3416 -0.4373 0.22789 -0.1088 0.27056 0.16729 0.41885 0.01585 0.10505 -0.2431 0.39958 -0.1386 -0.2068 -0.1161
中国科学技术大学软件学院 1.76853 0.21406 -0.3541 0.06393 -0.3431 0.26754 0.22220 -0.0241 -0.2186 0.10412 -0.0832 -0.1273 -0.0760 -0.0164 0.11345
安芷生 -1.0199 -0.9112 -0.4676 0.15496 0.30314 0.02874 0.28208 -0.0536 -0.0685 -0.2812 -0.2506 0.02846 0.03800 0.08904 -0.4300
艾晓明 -1.1311 -0.3308 -0.2459 0.35264 -0.5447 0.23731 0.31846 0.12650 0.27070 0.08921 0.07595 0.08796 -0.0780 -0.2719 -0.0430
安黛宗 -1.1274 -0.8184 -0.1569 -0.2477 0.02168 0.07485 -0.0847 0.11649 0.03559 -0.2387 -0.8065 -0.1844 -0.2737 -0.3075 -0.4307
卜长根 -0.4910 -0.2470 -0.2282 0.47111 -0.1849 -0.3574 0.28372 0.09832 -0.2190 -0.2188 -0.2089 -0.3719 -0.4130 -0.1112 -0.1856
白廷柱 -0.9600 -1.1908 -0.4144 0.47024 0.08759 -0.4158 -0.5081 0.02158 0.34993 0.21144 -0.4179 -0.6146 0.01599 0.06501 -0.0639
